2866 100
x_0_0.0 -0.8589512 4.161909 2.575242 6.4416747 2.5605466 2.8660328 5.511742 0.4893206 -0.3295155 -8.75584 2.9392724 3.2847598 3.902225 1.0125165 -0.5765742 -4.8150635 1.3566351 -2.2143009 -2.7133312 7.674796 -0.45937958 2.0645316 -1.0417738 -0.22374086 -1.0020825 -5.771601 -3.1971838 4.394327 4.914266 2.6134906 -1.322736 4.0545726 -5.7755694 4.9374275 0.056438226 1.6434218 -0.16271164 6.6531267 -1.2756275 6.8295765 -0.3596609 -1.6928736 0.34599805 5.6383758 4.44196 2.8086443 -0.9101646 5.64109 2.0328846 -9.3463745 8.465318 2.4134045 1.1227752 0.33241057 -5.8694963 -4.660409 4.080905 -6.12303 3.5510635 2.046045 2.9221787 0.5860589 1.5474613 0.7403331 0.79083776 0.9383978 -2.3160655 -1.1189238 -0.57942176 -3.4443278 4.192419 -4.0438733 -3.4496999 -1.6354278 1.523669 -2.7951858 -2.8005013 -7.0718846 -8.492765 6.099536 -7.0075974 2.4036698 5.1285186 -3.3491 1.604755 -2.6107185 -3.1168175 -2.0032299 -5.1490135 -0.35046065 -1.5277088 2.0296717 1.4791669 -6.1126223 5.1065316 0.5065334 5.9695983 1.2250549 4.0371265 -2.4064324
x_1_0.0 -8.619889 0.58610415 3.0715559 4.5923347 -5.6345277 -4.561782 9.2536125 0.6549473 5.8574104 -4.457894 -0.04911395 2.9219573 2.088057 0.91437495 0.5716814 -3.0345678 0.13653728 1.0506442 0.88112384 -2.32614 2.2763588 1.9296638 -0.6176915 0.06009884 0.80198973 0.5645735 -2.3343334 2.3670464 6.02799 -1.2711505 0.90418255 4.867975 -7.0312376 -2.789063 -3.348156 5.022848 2.3686075 -0.8549286 2.90486 5.9201555 -4.959775 -0.8016129 -2.5962412 4.7175026 -1.1598525 -3.5761092 0.28173426 6.2927127 -2.59613 -1.6713011 9.166313 2.7867994 6.7621 -4.90965 0.880126 -2.1425183 7.087025 0.18715608 4.7767906 2.9748726 -6.255493 -1.0139048 4.6482635 -8.014618 3.8589077 0.3681842 2.3645618 4.597411 0.28912383 -3.9754064 -0.7495741 -3.098683 -0.84440064 -1.2505695 -0.78863925 1.2394574 -10.351833 -0.8675999 -3.41057 1.8989638 -6.254427 3.3712685 1.4808236 2.237517 5.026065 -1.6492978 -4.1192255 -1.715116 -4.5300984 -1.4993851 -2.0525408 -8.695034 0.0060381996 2.4562414 -4.4007163 -2.192847 4.114618 0.5624193 -2.1664784 -4.184632
x_22_1.0 2.455962 -3.5617833 4.0698495 2.6517155 1.855179 -2.9352663 1.384624 -2.1550007 4.4879985 -5.2967463 2.6867201 7.755787 -0.18650426 0.32711583 -3.2285516 1.6524029 3.373743 0.016297832 -2.7321446 -0.017583676 1.6795509 1.2981195 -4.6394525 7.296581 -0.16929878 0.7781794 3.5508127 5.889556 4.073473 1.7886491 3.0387661 -4.46949 -0.35947075 2.3130355 2.5901787 -2.4927363 -4.818358 3.0446365 -0.563694 -5.0067506 4.5113354 -6.8999 -2.8757727 0.6428337 -2.2428665 1.2259903 0.060595248 7.582015 -4.130694 1.2869973 -3.2640684 -4.9641185 4.648837 0.97270066 -5.420679 4.85318 7.296166 -0.6227516 3.4006562 -0.14318345 -1.5146859 0.62017757 4.3957696 -2.995099 -3.675901 -4.9781547 7.286205 -4.2221966 -1.0055468 -2.9463468 -10.126128 1.1192341 0.8220243 -7.8896112 7.7371955 2.9594045 3.630242 -2.6613517 -2.4086995 1.2227764 -10.032782 2.9368372 6.487198 -2.4987097 3.6539679 3.355415 2.0924246 -1.2233039 -0.57278866 0.947054 3.160462 -5.3007216 5.1815557 2.4536028 0.6453173 -1.7324356 9.547993 6.314493 -4.8638773 -3.4033537
x_39_0.0 0.7890703 -2.552783 -1.0810817 -0.7833101 -2.805636 -6.447809 4.809166 0.40653175 4.70776 0.5712225 4.4784484 1.7295957 1.9769967 -0.6481849 -5.447603 -3.5986028 0.69517505 0.38915876 -2.0502372 -0.18514444 -4.5218306 -9.5845 2.626652 -0.05715436 -9.278039 6.3418674 3.5237682 5.0630574 2.7939212 -11.224284 5.130648 -7.6934323 -0.9395304 -3.3473988 -1.7788092 -1.6437505 5.315426 5.879698 5.047446 0.39870304 -1.2293946 2.589211 -1.5319531 -5.8680353 -1.7670453 3.6308138 10.042746 3.7391155 -0.44937828 3.4150577 -1.4730815 4.0022035 -4.107653 0.9918009 0.79788315 5.4084682 8.089688 -2.3644254 -2.8681166 -3.6743548 2.3212402 -6.246839 -5.2268515 -0.483156 5.6417513 6.1932616 -1.9403468 -7.456461 3.5243425 3.9410424 -2.3965125 -4.3315854 -3.319865 -0.48430488 -0.18828964 1.8583633 7.0789447 2.2516634 -1.3661164 -1.7577256 1.7359493 -2.6423671 -3.839524 -2.6738412 -2.4418693 -3.0451026 1.5844561 8.2409 2.2369835 1.3220987 2.3371632 2.710281 -0.88213843 3.017205 2.3412259 2.1621459 2.274704 0.89534134 2.5417771 4.3895316
5yearBadloan_0.0 4.571568 -1.1170243 0.95756793 0.79296476 -4.926128 2.991497 0.31413513 -2.0199127 2.7390296 -0.7783219 6.1000233 0.9070177 -0.19947957 -1.9475923 5.9054103 -3.304172 4.613324 4.551917 0.027517993 -0.47470373 2.6886907 2.183489 2.526403 -3.097018 -2.208581 5.9324727 -3.3633797 0.16137482 3.4845402 -3.1022298 -7.655673 -0.45741662 1.3100566 0.87183434 6.6046195 -4.046577 -2.0236523 2.3387778 3.5777864 -2.2607799 5.806831 6.044306 -3.0655127 -2.3085258 5.0708604 -0.5721362 -5.8591967 -3.9210813 1.2618449 1.9242663 -1.5712129 -2.2699285 0.18978168 -1.9623958 -3.9003181 1.6683363 1.7255129 -2.6897824 1.4558883 2.289307 0.2533288 1.4572681 0.14191395 -7.3717203 -2.1830413 -3.5887225 -3.4101734 -0.20449555 -1.2379748 -6.1640053 1.9392691 -0.92930406 5.637131 2.836809 -3.8138049 -7.366883 1.053417 4.5638065 -3.1645734 -3.1414788 7.14277 -0.76343 -4.434086 1.7054605 0.17261313 -0.577545 1.9872885 6.2800627 3.0032256 -2.6327612 -0.7985857 0.2751996 4.8466854 -0.7630534 0.19069594 0.4650732 0.73158836 -1.0111153 -3.5208921 7.081831
x_32_0.0 3.1695333 -3.7979195 4.388688 -1.4373155 4.055404 -3.6140425 7.7682815 0.84512955 4.817968 -0.31612182 1.4403318 2.1380794 -6.832281 -0.07347385 -0.09240709 3.214243 1.0166745 -0.30228457 -5.170681 -1.3361952 -3.6404073 -4.9901414 -0.15802538 3.934823 -2.1914856 5.9161987 0.21271476 4.4767 9.464716 -1.9767548 -1.5210665 1.5811845 -6.1308465 -0.9822131 -5.423696 4.924039 7.0391107 7.2963853 2.7623463 -0.9660128 0.19322833 3.5450776 -6.199403 -0.55364096 -3.1966538 1.6418941 -1.6240193 1.187483 -1.6539687 7.4691296 0.29121932 4.024795 -1.4239414 7.1919007 -3.0935342 -6.534251 1.7160816 -2.7297127 5.6757684 -5.9525065 2.4634018 2.231022 0.44860452 -3.8121424 -0.04483393 -2.4487958 6.5568943 1.7150613 3.7762527 -3.2855322 2.165567 5.1457677 -1.9507579 8.174855 6.854804 -5.4211106 -0.07050957 -7.757199 -7.35478 2.911256 -5.0601163 -3.6745112 0.5046628 0.3925703 -0.84797525 -0.56221706 -2.9479775 -1.6651537 5.311798 -1.3700554 5.9562793 -4.279344 2.9854574 -3.5451288 -0.280377 0.08594769 -3.1150177 1.9898754 3.9835515 -1.9738327
x_42_0.0 7.206223 1.0392424 2.068448 -6.3806763 -2.3254426 0.2163812 7.223427 -1.5825527 -2.4298322 -2.1581402 -1.2587453 3.6688979 -6.8114414 -9.963856 -2.8210886 2.446273 -2.0009089 -3.3825788 1.1481365 -3.8599696 -3.4210265 -4.172105 5.1812134 6.284694 -2.8828464 3.0467875 7.575876 7.449182 -3.3061328 -6.395459 1.79876 -8.348224 -1.8238896 -4.765942 3.138285 0.8330545 10.405297 -0.23248936 4.123039 -1.3622068 -3.652792 1.364177 0.40690216 -0.8664975 -1.5193813 3.3494072 -5.2050095 2.2515767 2.3083525 3.7180212 -2.4042337 2.6547523 -9.524261 0.5822417 1.1816025 -2.3957005 7.2774754 -2.5538628 2.4348145 1.6021309 0.24537468 -4.7220454 -2.884101 4.591624 1.0826291 -0.7127454 -1.0803204 -6.9895606 -2.1129363 3.1545236 5.472057 -2.981568 0.9257 -1.3540889 2.9455135 2.468955 3.0953372 3.739092 1.2301401 -8.9948015 3.0457947 -3.2228215 -3.4841266 -1.3235863 -6.458512 6.5734577 0.26906273 4.8385115 -1.8182945 -2.3029442 -4.110442 2.6567678 -2.1341288 3.9373312 0.7979013 -6.7699733 -3.556572 0.63800627 2.8029287 1.4561448
x_31_0.0 -3.781605 1.5504439 2.2853978 -1.6107768 7.608766 4.5550904 5.86872 1.2284456 0.23770253 -8.773135 0.29346603 -0.3563254 1.6619754 2.562728 -4.630982 2.7421265 3.950953 4.74161 0.26408708 1.0108321 -2.4407976 -5.483094 -4.4138074 6.7552557 -1.0276603 -4.3762703 0.47160617 -0.2845133 8.12582 0.13721597 -0.40183792 -1.1741593 -3.0920815 -4.693369 -1.7649477 1.5224 7.593453 4.619405 6.685393 0.85675645 -0.97983944 4.952074 -6.1972723 -2.3880353 0.2824294 -4.307908 -0.45266 0.39568764 4.366897 2.6476007 0.16950357 -1.8889115 0.9458235 0.035970517 -0.56866884 2.126295 4.5352783 -9.06259 2.4976048 -2.6860065 -4.4155645 -0.2816931 2.0660765 -3.743519 0.8565711 -4.469671 4.565416 1.6963465 -2.272145 1.2224606 2.2882538 2.9538937 -4.241418 -0.37442243 8.368673 -1.0968556 4.396429 -1.6897204 -8.330629 -2.73703 -2.959184 -13.286147 -0.070161365 3.3177056 3.399026 -2.4486382 -3.9869838 -1.1444458 3.501531 -3.282209 0.79500353 -6.1620684 5.8305497 -1.8786623 1.8444813 -1.4390337 -1.0511374 0.89713943 2.542837 -3.2847896
x_69_0.0 -3.9458294 2.9970484 1.9797282 -2.8749914 2.297595 3.8414946 -4.118452 -2.5691268 -0.029062733 4.7683697 -3.941491 -1.4073291 -2.2020004 8.960473 3.9493222 -0.058509875 -7.5424013 1.6530665 9.900025 3.2854319 6.271041 -2.254014 -4.9065127 -5.2847004 4.1321607 -6.775263 -1.0558289 -4.36172 -9.422513 0.34050584 2.7453232 -0.27607617 -1.9709885 -1.7188389 -5.0140386 -4.693915 -0.553364 5.2540016 -3.324658 -3.1109397 -2.001199 -6.6957726 1.0180453 3.0965657 2.1690962 0.22105807 0.17136678 -5.1406217 -6.973094 -2.1135 1.2419455 -8.622093 -0.48751625 0.30682918 2.85325 2.4900486 -4.653593 4.5006247 -2.6741147 0.60708314 8.260788 4.7183757 -0.44628295 -0.26799473 -1.2379318 10.948777 3.2878745 8.73659 0.48935494 -0.78430176 -3.857628 0.73142296 1.4229918 -3.850866 -1.6482844 -1.0359297 -5.7078366 4.354473 -0.1351824 -0.82736397 -2.6230004 3.787318 3.1156318 -2.8475726 -3.0460842 -1.4472145 -0.36335856 -4.953267 1.8804271 0.7882675 -5.9239497 0.7172039 -1.6956538 -4.408092 1.2502198 -2.549166 -1.0443268 2.892869 2.9225876 -9.129414
x_30_0.0 4.9323783 -0.56091774 3.9392736 1.045324 1.513315 3.9109461 3.705078 1.3767315 0.680177 -8.9480915 2.3684013 2.518002 3.2950647 5.2386303 -6.552032 0.8633339 -2.3057137 3.2223186 2.3080447 -2.6702633 -2.0302699 2.351273 -7.1305485 2.5768702 2.0231636 5.559783 1.3024714 1.7291268 9.192505 -1.1008419 1.5806392 1.0395482 -5.4599915 -0.5271583 0.45416498 -2.1112883 7.6993732 4.424618 2.7884493 -0.22271132 -3.8660583 8.420582 -9.094724 3.6018486 -0.99961126 0.74801505 -3.8905845 -1.0012562 -1.0759803 3.4043734 -0.93689984 4.6257906 -0.9650891 10.032251 3.4638116 -0.33965895 1.7558174 -1.4586756 4.3818946 5.2006254 -4.8482437 0.8318436 0.7189404 0.11131031 2.3335326 -0.25932363 1.8518639 2.4882193 -3.449427 -2.4664707 5.2519207 0.5789407 -1.4411972 -0.45890766 3.3941271 4.1209426 0.57775116 0.58741206 -5.7057395 2.6034453 -11.516197 -7.297674 0.4018788 -0.6514907 5.5704923 -0.37348214 -2.4666588 -0.74356985 -1.2160767 2.1925218 6.3751016 -4.9982953 3.268604 2.6412854 5.7443266 0.58420527 1.9149147 5.558015 2.4774725 5.2053943
x_35_0.0 -1.995853 -0.83562887 3.4959342 -5.146317 -1.1080852 -5.5102477 8.604219 2.2834315 -3.2167413 0.63289016 11.076444 3.7499948 4.2501674 -4.303885 -1.4141171 -3.7321398 5.274067 -2.8002167 -2.9635117 -2.1923113 -1.1774805 -4.2110133 4.40881 -0.59015316 -0.6352076 3.3540838 -6.9437075 8.127648 -0.21346055 -3.4524343 4.1089725 -9.918126 -1.1985097 0.7545978 -1.80313 2.5746427 7.841194 0.31198758 1.7308772 -0.66923374 -1.6713703 1.284056 -3.9469905 -1.5034221 -5.2788305 -0.271573 5.80473 4.1254797 0.48948374 10.646204 -3.9036906 -1.6948 -3.9664302 -0.48405823 7.383766 5.9864993 5.417863 -2.9953575 2.251505 -1.6338143 3.0384698 -2.773353 -1.2382504 1.6724658 6.140524 -2.7220309 -2.2501884 -3.074636 2.3588507 -3.8072484 1.5363097 -1.0787092 1.4152648 -2.9627228 4.438368 -3.8060722 4.1633706 -4.126892 -0.578969 -1.2734991 4.170624 -5.445818 2.256713 -4.978813 -1.4861691 -2.7567275 0.55799824 -0.76959413 -0.42892605 3.3464136 5.919155 6.733939 3.8629382 3.4873946 -1.0339473 -4.219397 -2.1516833 0.22387232 3.0858583 7.396421
x_16_1.0 2.9979274 -8.075022 -1.1286929 -0.9310239 -6.027179 -1.2687709 1.1664976 1.2041531 2.1052392 -4.7175784 -1.4800838 -4.6511755 0.53921586 3.0687315 4.0989304 -1.5641905 2.3365984 0.14964741 -0.26488024 5.948597 -5.0350237 -1.5569128 -7.0549026 3.957341 3.4274101 0.7328053 -2.3704531 4.2254734 4.431436 -0.1866554 3.0101836 -3.1026087 -3.9338846 6.675308 -2.1436307 -1.7081003 -0.065932676 2.7834806 -2.07939 5.1872554 -3.0995805 -1.1581187 -0.49568906 -2.316765 -0.43096623 -6.7429824 -1.0771862 6.709309 -1.0586516 3.3514633 -4.289524 3.2843826 1.8192141 4.004127 -4.316225 8.702794 3.5178154 -3.8279119 3.8497772 -0.84015864 -0.8525619 6.7168107 3.1605687 -4.9746175 -1.3675011 -1.1952537 7.2089686 -1.7014662 -6.2690177 -1.7488363 -6.923205 -5.760138 -5.144872 -2.487626 8.528432 2.337492 -3.0058894 -6.109777 -3.0180483 6.067165 0.70343584 4.192291 -2.6309142 0.08577768 1.7685497 5.2579703 -2.1004424 -7.999046 -8.725319 -2.766693 -1.5315967 -7.3789725 2.5964344 0.14083575 -1.7012768 -0.63741046 6.636409 0.020835817 1.4578327 0.9617506
x_44_0.0 8.053892 -4.7091703 -1.1142615 -3.4566667 1.1954539 4.9096603 7.360282 4.030099 -0.94081503 7.1622033 -1.6141979 -0.8957591 -0.062263086 -8.6972 -0.64047 0.08741287 -1.6451918 -0.26136833 1.352662 -3.1712053 1.290857 -1.4996599 6.0480847 5.4872184 -10.664927 6.237448 3.8449566 4.642393 2.303057 0.10669981 5.113538 -2.5621004 1.0730511 -4.4684076 -0.058921237 1.020699 1.4436293 0.47678548 5.4073896 -7.3353705 -6.0580435 -0.32195032 -1.303394 -5.818139 2.3279927 0.87616324 3.9736705 1.8647166 7.107477 0.04066327 -2.9073687 3.5710688 -7.1579294 3.3660188 12.513206 -2.8534124 2.7975163 0.4136932 -7.3405533 -1.1297863 -0.7801378 1.4609812 1.8779079 6.663399 2.5061085 -7.0003448 -4.1925955 -2.6764147 -6.0765467 7.459852 5.3014593 1.8662671 3.3330612 -3.7052195 1.7982745 0.042860895 -0.8691561 -2.1139522 -0.37374768 -5.6480856 0.5664757 -1.8496854 -7.1005173 4.068877 -0.5536648 -0.85796213 -1.7358589 0.11491743 5.5798197 -3.0783665 5.6440306 3.1173854 3.864036 -0.7570968 1.7402163 -0.11679887 -3.1649756 2.2662325 3.1653926 1.3831096
edu_0.0 2.729606 -0.67386067 -1.6891941 4.5665846 1.8202932 0.033327058 -4.826244 0.3839175 0.26989594 0.9879562 -2.636099 -1.777643 4.8001924 -0.7187726 6.0732093 -4.9203854 3.8405952 2.6185784 -2.9751444 3.6849976 0.22156206 7.3464437 3.063875 2.1607506 -2.4969656 0.5534146 1.754341 4.571434 -0.48567924 2.628276 -0.27085492 1.0120971 -0.010996877 2.6472154 -0.3744131 0.4611313 -5.34864 0.6007374 -0.5341465 1.1951478 -4.0275073 -1.3376006 -0.6039701 2.865138 -4.8661294 -0.4121868 -2.4017453 1.0343037 -6.5034537 -3.2275321 3.6108975 5.1735134 6.676915 -1.5877218 -0.8945528 3.1710138 1.4366155 -1.1278923 0.73546237 0.36968485 1.461552 -1.2758427 2.5046976 -1.9390596 -4.2124095 -4.369063 5.6797647 0.9436908 -6.2074633 -1.0792999 -2.4247346 -1.3327615 -1.3681865 3.5916393 1.4158492 -0.35685435 -0.15068537 -4.585364 -1.8173186 -0.3574417 -1.8628026 0.41485205 2.855132 -0.78849816 9.463217 -0.44946843 3.227415 -2.238092 -3.2762628 -4.903023 -8.884471 -5.006221 -6.4493456 3.4964554 3.1162446 -3.4428256 2.4316006 5.549094 -2.0572364 -1.7016314
x_73_0.0 -2.4208739 -4.813031 2.1654425 1.3105887 1.1965166 3.3575385 -7.3967786 -1.8655294 -0.4486942 0.33890826 -4.810766 2.1609552 0.9408746 7.99633 -7.3959627 3.5717232 -2.01371 -2.8561454 12.701213 2.7270486 2.1063936 1.2996457 -1.0387655 -7.4954214 -0.54433477 -5.6979704 0.21052268 -7.9607134 -5.5576468 5.798637 -2.5054927 -0.20877533 1.3266739 5.064603 -8.276432 -5.401242 2.4329057 -5.920004 -2.4987164 -2.3011544 1.3166931 -0.5299166 3.6723654 0.7197934 -6.763711 7.9125295 3.1820374 -4.279133 0.5267958 1.4036254 -1.1188523 1.8688631 4.334945 -0.9369953 -0.4483303 -3.769148 -3.4464822 6.9918256 1.1965541 -1.345329 -2.4891376 -1.0888126 -0.27313146 -1.8243414 -5.466521 3.103199 -0.65279305 1.1944863 6.360749 -0.08284295 -3.923607 -7.226907 -1.3088052 -2.4060886 4.3813677 -10.255896 -3.3208678 7.228825 -2.8065443 0.27688572 -0.20332055 2.0149121 6.4410086 1.5773785 1.4496496 3.7251797 2.0239837 -1.8950871 1.2565078 -3.8787322 0.027356476 1.8128676 2.3272533 -3.110408 -4.4983644 -0.7518993 0.5025668 -9.471728 5.8087654 -0.6525911
x_29_0.0 1.8202791 7.085129 -2.295575 -1.9513705 1.0861554 4.697172 8.781681 -5.8661547 1.7982992 -1.9143736 5.711511 0.90499485 -2.681244 -0.6241017 -1.7276741 1.2448401 5.124618 7.7894554 5.7670903 -2.117631 -4.2920003 2.125801 -4.2228727 -0.5493047 2.7962577 0.5053048 4.1653495 4.024472 6.193951 2.393388 3.1566973 0.23328525 2.2065 -2.145665 7.7162495 -0.82945824 3.681342 -0.73536116 -2.5982432 -0.33172336 -1.9755733 2.756985 -8.599501 3.8635802 -3.822435 1.845608 5.8930507 5.0406346 3.8541822 3.502276 -3.9445348 4.617795 0.13785803 6.7135973 0.7209217 -4.9083934 9.09233 -5.71439 3.5028718 1.5739058 -0.09227278 2.9990067 -3.01674 -3.375856 2.2088227 2.1504016 2.6355424 0.25785595 -1.7696867 -1.0549306 -0.3942087 0.78903687 -4.972139 1.2956915 1.7637236 -3.032505 -1.7293113 -4.127356 -6.9528675 1.4249068 -7.8389597 -7.4360194 -2.703205 5.8408365 3.170043 0.47101882 -1.3047701 -4.6603723 -2.646789 2.9836905 3.466875 -7.71678 0.0789644 -1.1459557 3.9402122 -1.6024433 9.083497 1.3730301 1.7503678 -1.2961708
x_56_0.0 -0.40076888 0.7278808 4.5642204 -2.1736946 -5.2176714 -1.5797592 -4.8117356 2.209974 4.341827 2.8918345 -5.185569 -3.5805933 1.3671391 0.059187632 6.780049 -0.91660994 1.4054868 -3.7112043 0.32235113 -2.8972619 5.180069 2.1419349 7.4941063 -3.4403892 -6.5039935 -5.1047144 4.442926 3.8936343 -5.930382 0.1894161 2.5429003 5.5855846 -1.5131885 0.26983696 -4.6041384 -6.560474 -7.5927215 -2.443444 -4.489989 0.12096719 3.7551577 -9.008067 -0.38631397 4.865051 6.2082796 -5.0491767 2.1366317 -0.117302716 -3.9097557 -0.3791725 -5.042019 5.361644 -0.86279637 -6.312839 -0.27792877 -2.6608734 -4.7976613 -3.7437906 -2.4916174 6.253516 -3.7830746 -0.89970803 3.238779 6.1363606 1.9651068 3.310942 -10.126408 1.756946 0.5877394 6.424806 6.2548385 -4.0799594 1.3226265 -6.7052526 5.707861 -0.72530824 -2.649457 0.85541594 7.402048 1.1787455 3.9816668 3.291637 -1.0771933 0.76738125 2.9144049 3.235912 1.3547059 7.7058187 -0.07890779 3.1669378 -5.4934344 1.3372666 -0.17666246 -5.7946906 -2.1173213 0.58904296 -3.8185105 0.42390597 3.94996 -3.9786818
x_20_1.0 6.3620324 -7.202155 4.731452 -0.08364792 0.94593984 1.3431327 2.5172997 0.36532584 3.3567162 -4.760493 4.889254 -2.1911128 -1.7425398 -3.315403 -1.784898 -3.3345647 3.083582 3.6636593 1.2905097 3.59808 -2.6161056 -2.557996 -2.71124 2.783586 5.362444 -5.3723493 0.4362847 8.426796 8.270372 -0.8166774 6.942852 -2.7128987 -3.863787 3.8821042 -4.7724104 3.367446 -3.4088933 3.455545 -8.003916 -1.3292449 8.406275 -1.4626424 -5.065187 1.5288223 -4.9186954 -3.7298565 -1.668472 1.4651805 3.5350752 -2.498757 0.2527954 3.045408 3.0411885 -0.9091452 0.67472124 3.520845 1.4596752 -1.9300443 -1.2832185 -5.7752395 4.010372 -4.4293294 -1.1285373 -9.019043 0.39498535 -0.95442176 5.725053 1.2694066 -6.35088 -0.46602926 -5.176713 0.040234704 -4.131252 -3.1517134 3.504563 0.9872005 2.0764418 0.6233484 1.3764175 6.132428 -6.7786527 3.7614098 7.450316 -1.4546139 5.748571 4.311481 -6.223859 0.10534933 -4.811769 -1.2655652 -1.7961236 -7.008553 1.5997612 4.5363207 0.65686405 -5.580087 5.291865 -0.07421495 -6.8178816 2.825423
x_55_0.0 1.5497427 1.3399638 -2.273444 -1.1771297 1.920987 3.354203 1.330997 -3.4861634 3.9865487 5.0535583 -5.905277 1.8728583 5.5191574 1.38028 7.447561 -4.0514894 -0.7075008 -0.9237695 -0.6150383 -3.26682 10.435051 -1.3202759 4.5908465 -0.113943495 -3.6610825 -4.3983502 5.763498 5.3980575 -5.7404118 -1.0505351 -0.5961073 4.2367334 -4.830416 0.056166112 -2.5141482 -5.1848965 -4.642236 -4.7391534 1.2889805 8.646838 1.5922673 -5.498181 -0.59901446 1.2628276 2.1980565 -2.986172 -0.4628551 1.7448401 -1.6735435 -6.1071 -3.325139 1.9734972 -1.1537067 -3.621745 2.2164497 -3.8608713 6.3047867 3.1813898 -4.007977 2.7628021 -0.43734914 4.198788 0.83172107 1.14953 -1.1888843 -0.15940481 -3.1553342 5.004729 -4.109477 7.3876786 2.3319154 -9.255189 3.436485 -2.4294002 -0.09968881 -0.22063212 4.6744847 2.50193 11.218063 -3.744614 4.1562567 5.741399 1.9856253 -6.8562055 -1.1890982 2.4906995 -2.1106246 -2.4117286 1.2717247 0.5665696 0.47490287 6.872284 -6.529264 -5.07585 -5.3388085 9.160455 -8.1503315 -3.3328915 1.2343762 1.2266387
x_12_0.0 2.5925677 -1.0175698 4.929014 2.963007 -1.6599647 -1.6852894 0.31369382 -4.548441 -4.647037 -8.998015 -2.9594233 1.9953088 -1.7160314 -3.989288 -2.5120678 -4.1339006 3.0118222 3.2840438 -2.2524908 4.81734 0.5190651 6.4027777 -4.7985907 -8.831401 -2.0321324 -4.693502 -3.127482 6.2765274 2.0122774 -3.5776212 -1.7150424 5.0105953 -3.8692803 0.78384787 -8.682584 -2.0344663 -2.929262 1.9078356 2.2274954 -0.52205795 -1.1142687 -5.8181663 1.6328492 2.8367882 0.9328083 -0.44473812 1.0619947 5.327902 -1.0134515 -1.6022004 -1.3889734 2.981883 0.53524595 -0.46899348 0.356068 1.061777 8.573836 -5.2948804 7.845428 -0.041733887 -4.522274 -0.34277996 -4.8940554 -4.736354 3.4199052 -0.90519977 10.926318 4.4193115 -0.9503916 -3.340063 0.17252727 1.4147165 -0.13893726 1.1757346 1.0990056 6.61049 -0.602153 -6.3690352 -5.0141134 4.8014884 -4.704836 -0.5076543 0.33559588 1.5509012 0.9758276 -7.213576 0.19749469 -5.5070243 -7.7739115 0.68466413 -3.084351 -8.341458 5.396086 4.512751 -5.130012 6.4003854 -0.683301 -1.6649412 0.07856314 -0.15762448
x_49_0.0 5.894453 4.690674 -1.6431032 -2.7695577 -0.33693925 -9.696906 2.332149 7.7101903 -3.1609342 2.7384033 -4.5955973 -2.383166 4.025186 6.517452 -0.22942857 3.2193186 -1.5634155 5.157992 -1.4761428 -2.4343562 0.260874 -1.8108828 8.5997925 1.3939478 -4.135214 -0.42897612 4.2748494 -3.2847369 -3.0562596 1.7873484 -0.92381555 -2.0358474 1.4218847 -2.8264892 6.037099 3.7248647 2.7183883 1.4677575 1.9808674 4.368769 -1.4718988 -0.6703687 4.7025676 6.797465 0.81483525 -2.115255 6.268293 -1.277654 -7.543403 4.3009653 -1.0331104 2.9345646 -6.810238 -5.5480146 5.717554 -7.290888 -6.3260446 -4.331832 -0.6457834 0.5612861 2.1095679 1.1051923 -6.126784 -3.1870928 8.995763 -4.0229907 -2.495956 -1.0002949 -5.293192 3.8985562 2.1215205 -0.6434654 2.6742008 8.154189 1.3887209 3.860643 5.9390163 -4.1491857 9.269271 -5.575607 4.758077 -4.2316747 0.120080434 -0.5764182 -1.9650472 0.254376 1.1785157 4.35603 2.784713 -7.074687 4.3888764 7.159098 2.4039764 -4.496586 4.0349865 2.4106212 -1.9124748 6.443976 -4.467726 1.19865
x_68_0.0 1.165116 5.741176 -2.0110316 -4.514788 4.6481504 5.6125436 -10.203533 -3.6453297 5.0602612 -0.68730253 -1.7879689 -2.523663 -5.2488637 3.5045319 -2.078755 -4.739821 -5.4302435 -6.222245 8.612627 -0.12693523 4.677143 3.116234 1.3428658 -3.5856113 4.074663 -5.5130014 0.22349666 -9.194828 -1.0938898 3.3435967 1.0716921 7.4610157 -3.9394307 -0.9742096 -6.247348 4.1765 2.6674223 -2.4820445 -4.634024 0.6063957 0.1894072 -1.8815757 2.3152463 -0.27971938 -1.3487062 -3.4303315 1.7847319 -2.560801 -5.664466 -3.9810658 -4.6678925 -8.819314 1.144405 -8.74174 -0.09526983 1.0185676 -9.746391 4.34466 -2.5316038 -3.6090488 -1.2604061 2.7237215 0.23744753 3.3565228 -0.65853417 3.818894 0.80354244 1.0213588 -2.6906872 -1.0468819 -5.471996 -1.4117826 -0.15806156 -2.3480763 -1.0166714 -3.1851368 -3.648062 1.1873181 1.4138012 1.8189713 -2.6846073 3.8113234 1.0533693 -4.5919867 -7.6214037 -5.0068583 4.005238 -1.1393042 -6.302175 -0.79964936 3.0136697 -1.4763827 -7.558356 -1.070092 -2.1911633 4.4726715 3.759705 5.651336 3.944911 -7.9221587
x_76_0.0 -3.28915 -6.68381 -0.8229987 0.47036955 3.8325758 2.1963098 -9.388667 -2.5966256 3.7058706 -9.230381 5.9673247 3.4327059 -10.827587 3.6278272 3.2763534 0.5572747 -5.2564855 2.7718709 -0.92017764 2.9081373 3.7388058 0.9386936 -7.502508 0.40165618 -3.8542907 -2.9959474 -7.409484 -2.453523 -3.274956 1.3795246 -3.1345456 1.5049471 -0.18865624 -6.9922276 1.6205001 -3.8361568 -2.0337708 -0.64900964 -5.5138545 1.0977974 0.86543447 2.9861546 1.767268 2.8082662 -4.188461 4.43331 -0.913064 0.6137904 1.9313078 0.7278657 -5.37094 -3.5139716 0.056989066 -2.3695936 0.4963284 1.1690205 -8.442202 0.029492166 -10.095443 -1.1958059 -5.0362372 2.734716 0.9588162 0.14907768 1.5305096 4.2695456 1.426535 3.9014952 5.8709116 -4.21929 -1.355336 -2.186891 4.9203243 0.9251434 -1.2874038 -6.195252 -5.5535393 4.9210925 -3.2883542 -6.396236 3.3568149 3.7316906 2.7293944 2.6453233 -1.9532341 -0.5735728 3.8287017 -0.5033583 5.2107515 2.9900007 0.2063607 3.3098314 -5.1009126 4.218082 -0.81013566 -5.035009 2.729711 -7.965813 9.651231 4.769832
x_64_0.0 -0.66039735 0.0013299222 -4.4589753 2.011778 -6.0698533 0.59090847 -13.483533 -0.6439969 -1.2919468 1.6215566 2.0677009 1.2219771 7.4908853 2.906958 4.531121 3.6365871 -7.348059 2.5726886 -1.7648226 0.79190373 -1.1480083 -1.6613004 -1.9477266 1.8721305 1.9792076 -1.506875 3.604254 -5.8466477 -7.366278 9.221379 1.9982332 4.5242224 -3.2036095 -2.1762323 3.4976308 0.1352685 3.4522324 -1.7064824 -5.231212 -2.1108797 6.3321238 -9.052409 5.5931034 4.1672006 4.182807 -3.688491 -1.2941881 2.4407113 -0.9923758 -7.3393784 -2.1983826 1.9855837 -4.3153815 -6.87825 2.6741128 -8.594781 -3.2723804 1.841606 -5.906588 3.743295 -4.4769487 -3.9938536 -2.3019168 0.7613968 2.9134932 -3.1224194 1.3366728 -2.0892363 6.094721 2.4087534 -1.0252806 -0.9236171 -0.3978207 -2.9502344 -0.014229915 0.27524054 -5.2769337 1.1736012 -1.317781 4.6115355 5.5952077 11.792449 3.502751 1.4827613 0.6881382 -3.3328083 -0.73202986 -7.57937 0.5142197 -5.6497636 -2.2181404 2.0258024 -1.7349286 5.5088596 1.9585694 4.32778 -4.0345984 -3.1624918 -1.8762747 -3.890715
ethnic_0.0 -0.34116393 0.97649735 1.0253536 6.888293 -1.3307868 5.869522 -6.574092 -3.0129712 2.286395 -2.388189 6.026503 2.9299324 -6.00553 3.1807854 3.266429 -2.6514025 -5.901276 6.8938193 -0.63815767 -3.355713 -0.5237026 -0.5147854 -3.8419409 -5.053286 3.4404767 -4.4838195 -2.2646456 -7.5042076 -1.3907876 -0.06547664 -2.3223426 -4.756885 -1.0982115 5.3023343 1.1500388 -2.3824308 3.1599343 -0.39083126 5.649573 -5.000212 9.187327 -0.4412754 -1.0792391 1.1800762 0.19356321 7.034303 4.6421986 1.6507463 1.5467497 -1.6714956 -4.0817966 -2.9208388 3.0780566 -5.4856806 2.8502991 3.719886 -6.672434 1.4950453 1.1324865 -7.54914 0.8075668 5.3163557 8.509121 2.4250288 -2.903404 0.05235291 -2.029697 -0.3262502 0.4274817 -9.6142 1.5574887 0.34507996 1.6766659 2.067881 3.385817 1.8968042 -8.06077 7.5795493 -6.7922173 -0.26545647 6.504983 4.6453457 -1.8797507 1.6759087 -3.6085403 -0.93707526 1.096653 2.5460246 5.8901873 3.2977011 -2.7799857 -1.070332 -9.71705 0.9280972 -0.98317784 -1.3092879 -3.97479 -3.6262865 3.7671273 4.3248024
x_28_0.0 -1.1784155 3.2768397 -3.0235057 -0.79255223 1.326281 -2.835293 7.1850324 3.7665677 0.63537145 -7.791184 8.178882 -1.8883251 -1.6276001 1.564043 6.6180468 -1.6642989 -1.1324201 3.7987554 5.7557716 0.54682404 0.41333365 -0.0014990529 -2.8063936 1.0615023 2.423082 -2.4272199 -0.65840596 3.2806404 8.425164 -4.6064186 1.7845116 2.309935 -0.12793149 3.1228194 3.7389994 5.2174454 6.4685135 3.883013 -5.065196 -6.5504613 -3.9450793 4.7338905 -0.08990841 0.13233387 -3.5316002 -0.8288589 3.7402623 6.1574707 0.8271934 -3.322655 -0.5867276 5.9729805 -2.322736 9.380269 0.10008265 -4.897803 6.8549523 -3.229482 7.340323 1.9116571 -0.51139075 -0.5230141 1.3835173 0.6664743 -4.9399505 -3.9774487 6.8031745 -2.514316 -3.0769582 4.475106 -2.8087485 1.8436532 3.9748485 -3.868206 3.7853615 -0.22472787 1.5760233 3.1324382 -8.592336 4.8599534 -11.493244 -9.6142025 1.1688643 1.1174369 0.8149171 1.5154645 1.7682909 0.09149074 1.5252104 3.382271 -1.7179992 -2.834225 2.7733002 2.8297124 -3.9419234 -0.13310546 7.765205 1.0132331 -0.6155214 1.1137286
x_27_0.0 -0.098176435 -1.8553942 0.65362936 0.37106583 0.85408026 3.004673 3.91856 0.16188104 1.9027698 1.7287728 7.510333 0.35635588 1.3320696 -3.6369488 -2.3344047 -1.831193 2.6967652 2.3810847 -0.9722428 4.5461955 5.30883 2.4451969 -6.3673844 7.684273 5.8089933 2.2672913 -3.9946604 3.9525871 10.944457 -10.239034 5.0805316 -10.738815 1.6044413 3.3594222 2.4549344 -0.96287763 4.906979 0.29609147 -1.9715768 -3.8522491 0.40626585 3.2814605 3.690016 3.1496127 -2.5673196 -1.2462305 2.6218762 6.0409193 -3.749624 -3.459444 -4.3406916 2.0327654 0.69599235 4.7181787 -2.6939042 -9.232934 2.3904245 -4.31924 7.517964 3.9684649 -6.869364 -1.9673215 0.26333466 -1.9842371 -3.1576402 2.8335087 0.7666411 -1.1487615 -6.582528 2.3744912 -9.261163 4.037018 -2.3907013 0.8636142 1.0772562 0.07839684 -0.18844357 -3.5331714 -7.552393 -1.6710393 -11.090821 -5.642044 2.485101 0.28739628 2.2262793 -1.9219552 -5.4609127 -0.748717 -3.0254326 0.652854 -1.1102624 -7.003454 3.1210897 0.48303202 0.5896306 -1.1796098 3.0879946 -1.0431907 3.825587 -2.2861164
x_26_0.0 -3.7290854 -1.8046103 -2.1691954 5.5146046 2.2178395 1.2700816 3.767493 3.3423016 1.3114759 -6.624696 1.8835562 4.6486583 -4.2373486 -2.1469748 6.841727 0.34689507 3.933302 -0.4183969 -2.1866765 6.145976 1.4045305 1.2858229 -3.1240304 4.602737 3.8021088 4.889583 3.6745389 4.9760647 5.7495623 -2.0930853 4.1721683 -11.027005 -1.8808916 10.260863 0.9791677 3.5839036 2.0060384 -1.7601111 -5.3290095 -0.72686946 3.5980346 -1.0387019 -0.019418728 0.44441542 3.813508 -0.31321484 0.8432663 -3.7276223 0.03177884 -0.3980862 -3.7254813 5.047774 3.6791055 4.1098003 0.7754728 1.3986708 7.429403 -1.9395765 8.481568 0.79773206 -2.7762601 0.19420192 -5.1105523 -2.2697103 1.0118272 -0.30790937 3.256755 0.27684486 -5.034481 -0.19283053 -4.5587893 0.7892507 -4.9604797 -6.0621047 3.4967976 -2.8024805 0.46789473 -0.34439814 0.26353025 1.7403153 -16.011463 -4.12168 -4.1346655 -2.835884 -0.48035064 -8.194754 3.6313572 -2.0218446 3.3235292 -3.1724353 3.1446495 -6.294994 0.33407366 5.8557525 3.4178596 -6.878379 7.596611 -3.26137 -0.29551852 -3.4200664
x_45_1.0 2.0786636 0.5224125 0.9925032 -14.539932 5.9240074 0.33832344 0.40760934 4.5187206 1.2232493 5.3036423 -5.841735 0.17525898 4.878929 -6.078972 0.9014055 3.6038117 3.4647954 -0.6045574 -6.2117434 -4.7756033 -4.441125 -5.6054726 4.613304 3.1226594 -6.373478 4.069975 2.452723 0.9671441 4.9086633 -4.0263906 7.0072913 -2.2155938 8.014623 -1.0302433 -0.61283594 -1.1076146 7.173686 -2.5386207 -2.8992627 -1.3914874 -4.198217 -2.7266867 -4.5602455 -1.2660301 4.5044723 0.26608986 -4.839762 4.204495 6.988043 -6.077324 -4.934616 1.7309966 -8.119525 1.5862843 9.423593 -2.6905735 5.1724463 3.4422255 -0.96826035 2.4762428 0.67211676 -2.288102 -4.28135 5.765508 1.4597627 -4.8570414 -3.9130661 1.2782965 -0.24418332 -0.5167844 -0.26969302 -4.657229 2.1791365 8.763179 1.3692116 1.785482 -2.899131 1.6244504 1.0693653 -2.1600528 2.9053228 -8.122902 -6.30577 1.645549 2.117208 4.103243 4.0231457 4.988574 9.902225 1.6714869 5.166201 2.6055107 1.8612444 -0.60525894 3.4067166 1.7719947 -5.5479455 7.7741075 0.5659082 1.4891654
unpayOtherLoan_1.0 -0.37735015 -0.92565024 7.858114 2.690697 0.41830882 2.6557024 2.1743076 0.39965177 2.0789695 -0.5476155 3.648884 0.8477855 0.97858775 1.1702771 6.684832 3.790575 4.675034 -1.3215007 3.4236622 0.8957272 0.11940882 0.46728027 -2.543031 -1.7663376 -4.6716084 -0.62724346 -4.948366 -0.89921486 0.14972626 -4.5505104 -2.7506838 -3.4262753 -0.31602505 -2.2676482 5.1661425 0.46848473 -0.8408298 -2.49557 2.1485357 -0.81998533 -3.6330914 -1.6541615 -2.19031 -1.9126525 -3.741191 5.9032254 1.1883388 -9.313611 3.9718025 -0.16952972 -4.205546 -2.052814 2.3152592 4.209762 -0.637654 -3.3436995 -5.431152 2.0128286 -4.3533535 0.9109634 -2.728352 1.7983588 -0.9843497 -2.6527817 3.1149032 -0.6276076 -0.40899858 -7.0187488 0.7556724 -7.992304 -0.5457403 4.1357756 -5.620142 3.3990805 4.9382358 -1.6972922 3.0097482 7.383407 -0.8014381 -1.5431207 2.0317712 -3.2240658 0.51672184 3.2881134 -6.1995597 -0.17600064 1.6291405 0.08639124 2.1596727 1.0921501 -1.4150349 -0.4210486 -2.777959 -2.366702 -4.0950522 0.5613668 -2.3626986 2.8707058 -1.6848098 10.343204
x_48_0.0 -0.08571234 8.463798 -5.7346582 -8.069944 -6.3272433 -6.580393 4.8097076 2.010552 2.9458864 -0.29964876 -4.126579 1.6411656 8.432668 0.38347274 0.46947363 3.8838773 2.5186815 0.86890996 -3.1585712 -4.922949 0.58772427 -4.71302 10.978483 3.8023262 -0.24377473 0.7869045 -1.4362435 1.2943465 -3.6119945 6.736611 4.4782395 -3.563069 -3.5801244 -3.7641459 -5.4636254 -4.8033915 1.8180842 -0.21702747 0.6179068 1.4964942 3.337202 5.889693 2.53177 -6.0659895 -3.8269382 2.9808164 1.6027464 -10.620394 -4.9159055 0.27799365 -1.9863379 1.366576 -5.8134904 -2.888764 4.132752 -8.376041 -0.45965347 -7.3125734 -6.461578 5.8411827 0.86622715 -3.9019449 -1.9654962 8.117427 -1.5235482 -3.585533 5.7428694 -3.1929755 -2.8531797 3.7774553 4.6965275 4.36504 0.73171717 6.37826 -3.6853306 2.261049 2.7667382 -4.795617 5.6172447 -0.18723066 5.0020185 -2.1928468 -7.349805 1.2489113 0.38383314 -0.7643821 -1.0245607 0.24906848 6.115477 1.5115854 2.6541655 3.5636702 0.94028986 -3.7323105 4.6950245 2.1954443 -2.620969 7.1772633 -2.1143286 3.0599616
x_43_0.0 5.3423214 2.0055313 -0.69720656 -9.444828 -6.1850424 4.7376537 4.7668715 7.914687 -0.5215835 6.770226 -0.35651475 -0.47632897 0.36222133 -4.387189 -4.748824 -3.570204 -4.0496826 -2.032746 -0.54999757 -4.95652 -0.35527357 -5.043859 1.2126967 3.0922716 -9.198069 5.4320254 3.4794364 7.337215 0.34550706 -0.97356343 2.710249 -7.403202 3.1170878 -3.5249465 2.8874266 2.6225777 3.6108673 0.6612057 1.2880688 -4.567514 5.198801 2.1397483 -5.3218656 1.4098878 -1.7204211 2.8596022 -2.2496753 2.6034744 6.1189704 -0.4358007 6.56344 3.9830515 0.29669058 3.486223 0.5978752 -2.2697713 3.3984115 -3.8879433 -4.611907 1.1016804 -0.5271616 4.608816 -8.840251 6.429451 2.730399 -5.0190034 -1.6136022 -2.6252632 3.2432647 5.675758 0.08672494 1.9384221 1.8203952 -3.183733 9.966349 2.9864006 -0.2922502 -1.83529 4.156096 -10.977739 0.73251885 -8.925991 -11.446563 -4.63772 -1.8181024 2.8801157 -0.0367606 3.4371953 -0.020724043 1.288075 1.0509261 5.785102 -0.98227125 8.449563 -4.6596637 2.9775567 -4.0300655 0.45939752 4.3371477 0.53868973
unpayIndvLoan_0.0 -1.5932286 0.53314036 1.9157584 -0.28486967 1.9879348 1.95912 -0.59596944 -4.2995114 1.5537752 -2.8865852 -0.6859636 0.39798814 4.3311677 -0.7711405 -2.7964172 8.381013 -3.3173366 2.8873386 7.327143 5.42769 0.3199742 -1.5535595 -0.58563614 -3.8453817 -4.528188 -0.8000885 -3.9820402 -4.073276 0.047763962 -1.5105232 2.2120392 -3.5401146 -3.8286684 0.14794384 3.9771857 2.9191916 -0.0048612393 -3.3955834 4.005813 -5.490178 1.2156281 -2.5955915 3.3545291 -6.2243714 -8.173206 3.575994 -5.4699874 0.6678992 1.0104864 3.3674743 -2.479183 -0.11711873 2.824425 5.189185 1.5198797 2.6288362 -5.1394815 -4.182396 4.1498346 -0.7797231 3.5791264 6.934553 0.28141594 0.578425 2.458818 4.2242413 -5.343469 -3.1793857 2.8106744 0.51566505 0.3952062 -0.59464777 3.6486712 7.246551 -0.9932531 -7.505743 3.0456567 4.2803035 4.3175707 -0.2358125 2.9505777 -2.6152582 4.074524 2.3050323 -2.1164432 -3.3353183 -1.8697585 1.3163508 5.6688495 4.4936543 4.3178525 -3.5728996 -1.2169942 5.3191185 -3.2515192 -4.228873 -0.089423336 2.1179163 6.151711 3.6570837
x_47_0.0 -2.3223627 3.2645898 -1.2903172 -0.2662539 -5.202827 -2.1566968 -0.32827964 4.5396967 -4.6759663 8.172167 -3.0262344 2.9606557 5.9187336 -4.855304 7.714208 3.324862 -4.8614163 -0.6414331 2.3647993 -5.2593055 -2.4894037 -2.2610073 10.071738 4.427481 2.7709155 0.4612095 -0.07928972 -0.20405665 6.9091425 -1.9090959 2.6303513 5.119992 3.1928616 -7.923476 -0.46668243 -5.989868 1.5479902 -2.1532876 3.1616206 -3.2528818 -1.4139862 4.544371 -4.379165 -0.9788557 -1.1566144 0.82422835 -2.7831419 0.111323945 -5.4040933 -0.31321776 -3.677149 0.6751472 -8.578288 5.5676312 3.8243535 -0.6453736 1.5748228 -6.1539397 -4.566102 -6.39116 -3.7327316 -5.82476 -10.908322 1.2088618 -0.7683662 -8.438419 -6.29987 -1.4398416 5.38972 5.216918 4.8227515 -0.3404662 -0.90353376 2.444748 3.3802433 6.0870256 4.2908316 -6.5269475 10.05838 -1.8538423 4.957372 -6.0165787 -1.5378674 -0.9035892 -2.0594883 -1.5356517 -0.6872027 0.7049295 6.9126735 -3.8481672 3.845414 2.230706 -3.0650735 -7.1048527 6.4636865 -0.94974756 -1.7023494 5.462706 2.6349516 0.9323014
x_54_0.0 3.4873583 -0.7884108 -1.672343 0.30067798 -2.242472 -10.411833 -2.3548067 8.220022 -0.89163893 7.3199034 -4.675651 -5.173008 6.2516446 2.6348534 -0.87283176 -7.0855556 0.6116068 -5.5129414 2.8619936 -6.4282775 2.815178 -2.5888884 1.8701937 -2.1959915 -0.875599 -7.1007566 2.8331835 7.235918 -9.346853 -3.272209 -3.1700099 8.087455 -2.1228166 -3.7000756 1.8818604 -3.9636805 1.2089119 -3.8314853 1.6387742 2.5591085 -0.5684566 -8.860597 -0.31381702 -3.5597272 7.771912 3.2387848 -5.3204904 -0.34435934 4.9482727 -5.0567193 -5.6087794 -0.15464447 5.911083 -6.1915193 1.7617165 -1.7521379 2.3954854 0.17127118 -4.0746026 4.1261907 2.6599102 -5.059086 -0.09341598 -2.9619787 -6.1014338 3.6707575 -4.7505302 -1.235191 -6.9224734 7.256895 6.7320175 -0.064486 2.4666994 2.0317338 1.687871 -4.1724577 -2.8042104 -2.2547116 8.11472 -8.613292 2.0075896 7.272282 -1.3148693 -4.3773685 -2.2141259 -3.65911 2.0861611 -1.7499921 -1.0363692 3.5258055 1.3555126 3.307125 -2.2745104 -2.2305927 -0.04648919 1.1588237 -1.8840897 2.6971848 3.7589629 -0.9417115
x_72_0.0 -7.3339434 0.14385006 1.6317418 2.8466547 0.9797451 5.732918 -3.9350288 -2.36614 -2.9945345 -5.59369 -5.822208 -2.4554949 1.2041326 6.6602025 -7.100174 4.0651045 -5.261007 -4.4999423 0.114993155 3.68843 5.2894773 4.2305255 -3.359465 -6.7386055 -0.5830384 1.0453752 -4.5137453 -9.260802 -10.238232 2.428132 0.67638904 5.5622835 -1.9626241 4.0761228 -3.6360638 -5.385289 1.58375 3.3772457 -4.0395184 -4.9663363 1.4558316 2.8505297 -2.8829675 4.122605 -6.7786994 -3.3497388 6.0154076 -2.4053502 4.8359814 -1.1866031 -11.397681 -1.9006528 1.274742 3.317108 -5.535912 0.073021114 -2.957672 6.2020974 -1.1602311 -4.5763865 3.5553355 2.4418364 2.2463696 -1.8305458 -0.795313 1.364101 -0.9868884 -0.89180934 1.9504313 2.9453204 -2.817326 -3.3142977 -2.995286 2.960063 -0.9023792 -6.862704 -7.637479 6.6326737 5.1952386 -5.2969646 -3.7616258 6.2555523 5.8609295 1.1960343 -2.4286773 -2.1136763 -1.3428907 -1.2333549 -0.25512716 3.9112606 -5.440706 4.159223 -4.0302014 -2.854457 -7.4045053 -4.121982 -1.8410527 -1.3733609 -1.5917574 -9.671435
x_41_0.0 3.2163985 -4.5763626 2.7027059 -2.7877162 -0.34103808 1.3705478 9.563099 2.5813897 2.7809098 -2.7442617 3.3867924 3.4583523 -1.0437014 -2.140875 -6.947038 -4.115568 4.7652273 -0.39237565 0.3839067 -5.403729 -1.4376764 -6.0300026 5.4011736 5.228635 -1.7575153 5.3795013 0.9821797 11.786326 -3.826962 -5.686046 8.745271 0.5543032 2.6475163 -1.7932581 3.615745 -4.6408687 9.871832 -2.7779284 -1.4599309 4.8389425 0.5882385 -0.5903353 7.525749 -4.232357 0.929189 4.6160903 5.732774 1.6324258 1.0571992 6.141123 4.229488 6.0016503 -2.857298 9.448413 5.914865 3.3106906 4.0986853 -2.4001782 -3.013509 -7.4335494 -3.2860866 0.90625423 -4.3969116 5.207595 2.5714073 -2.536297 -8.563957 -4.675428 0.987322 0.49831352 -1.5137557 -0.9737558 2.807577 2.5623095 2.925479 3.3532472 6.191984 2.1722643 -2.1072729 -6.0756626 8.342677 -1.0957661 -3.0476468 -6.525452 -4.6982822 -3.8209376 2.2391233 4.2672415 -0.38869408 5.194337 -2.8888893 -0.9448185 4.407178 5.0692225 0.8835536 -2.2415354 -2.2019444 0.4900951 -2.9051754 -2.425974
unpayNormalLoan_0.0 2.274131 7.283685 1.1089524 1.9930192 -1.4124318 4.2587223 1.7680418 0.5809833 1.002693 0.170655 6.321322 -3.1024613 -3.6375444 5.9085927 6.155691 0.28965652 1.9239969 0.71453935 0.7893012 0.46911982 0.91204643 0.41473985 -0.7367131 -0.054065328 -5.041389 4.537816 -2.3756526 3.4304442 3.7644556 -1.6068773 -4.631936 -1.2874874 -1.1818348 2.4326909 0.441608 -3.3543887 -4.43214 -1.7993556 0.22776298 -6.1080165 -0.88151073 -3.3957021 3.705086 -2.8134952 -4.6671114 1.9334416 -5.9528856 -5.4497056 7.3211017 4.08446 -2.1576333 -2.0579758 0.4739376 -0.21640895 -2.696681 2.1099389 0.8954446 -1.5707706 3.2093039 -1.8680075 -6.7199974 -0.23136961 4.829568 -7.2389956 0.43511546 0.3022762 -2.5537524 -1.9020203 1.3610532 -5.3501325 0.3752926 0.63870203 0.29919362 5.1348653 -1.507606 0.3575354 -1.225677 3.0554671 -1.5584695 -5.1350822 6.131051 -2.398149 -0.24303338 2.3814647 -1.206892 -0.33511004 -0.9249591 5.9747586 2.999758 1.7003173 2.5756168 4.911133 -0.7642515 -0.14644432 5.2003856 1.3918662 -1.0494982 -2.9854505 -3.4002612 9.155756
x_53_0.0 -1.204831 0.24575678 2.9156332 -7.377012 -3.1755168 -0.68836415 -0.27878797 8.624019 5.289515 7.2472563 -5.8345494 -0.46261275 5.193853 -4.681468 3.9639902 -3.9850147 -7.558692 -9.673058 0.6934036 -5.033422 4.5543313 0.15056175 6.175568 -1.1012045 -3.3418875 -1.5653247 8.414677 1.4694287 -16.714914 -1.2147969 2.955524 3.5605114 4.3817954 -3.2942863 0.7429648 1.4177873 -3.7413201 4.7987947 0.9752048 2.3905394 -1.6139725 -0.5093636 -1.1629674 -5.5363145 4.9708457 5.07116 0.48724675 -1.1396024 0.6155547 -4.586836 1.2709215 3.4469707 -2.5270197 -5.220524 2.0051088 2.0066493 -2.759535 -8.351131 3.0116978 5.6383934 -2.6569362 2.3241923 -0.14632227 -6.28839 -0.76138383 -1.4480686 -2.1098475 2.7225602 -2.7786834 4.2184134 2.1255898 -4.7137437 -3.2285721 -0.33652517 -5.832376 -2.3953187 4.1450443 -2.3168511 0.7296141 -3.7327554 5.4030695 2.3216133 7.679366 -0.34648564 -3.6801834 -2.0957522 2.8383858 -0.9062664 -6.0222535 3.8895352 4.680759 2.962472 -4.860322 -2.5114973 3.191582 2.9530828 -6.825706 -0.14393452 -4.2980247 0.8846681
x_74_1.0 -4.737848 2.400282 0.49875328 -0.34120488 10.616924 3.0175638 -8.761462 -1.8958176 -3.6899774 3.505429 0.5112807 0.95617807 -4.082912 10.754843 -4.0647674 3.5947075 -1.3092201 -3.3814714 9.262015 1.7972246 3.9775808 0.4851739 -4.6277843 -5.5143247 -4.8275595 -5.0548806 -1.4045306 -10.763727 -2.7717648 4.841325 3.4867127 3.5235941 -3.5106058 2.178433 0.69880617 -0.04017246 -3.566579 -4.4675407 0.77715003 -2.990603 2.219844 5.5286326 0.25255728 1.8688629 0.26140338 4.92226 -0.6727862 -0.18863511 -3.126506 1.0677658 -7.0700307 5.583927 2.3978636 3.0996146 -3.9389083 -0.10183091 0.012159592 2.2296655 -5.8590207 2.2929852 1.8125116 -2.3761718 8.068484 0.98387015 -1.9330345 2.759069 -1.3347487 3.8463776 4.513244 -6.2926154 -5.4097137 -4.3562465 -6.0327454 -1.255851 1.123688 -4.3412175 -5.2740083 -0.36645144 0.13270818 -0.82641333 2.1799448 7.8889656 4.5018554 -0.24615704 -10.649933 -2.2867446 -2.8715415 2.940343 3.308386 1.3831115 -5.8487067 -1.0506585 3.7746828 6.706377 -6.9097686 -5.530266 -4.079767 -8.519865 1.3678106 4.1218443
x_50_0.0 3.8582273 4.307853 -7.3433127 -7.9618387 -2.009305 -4.463383 3.7956717 0.63768446 -8.035787 3.777923 0.54736346 2.1649103 7.011002 -0.22107956 5.821436 3.3221889 -0.9527149 1.4636909 -1.8625554 4.5409794 -2.4437754 1.8432376 2.5435743 5.494913 -2.375567 -3.8347497 6.215351 5.635908 -8.852718 -0.74881506 3.390262 0.14306334 5.239858 -7.25954 -1.475495 3.9798014 6.594502 4.012327 5.5867133 1.234154 -3.360136 3.0498006 1.1032137 -0.9417908 -4.307629 -6.832027 1.8296262 -8.253713 -6.456063 0.39816615 1.2224107 6.7626576 2.4307761 -7.143626 -2.5097687 -5.386823 -1.2157453 0.8268407 -2.2215643 -1.9955803 0.48465317 0.8182374 -3.5385928 -1.3121023 -2.4115422 1.5390472 -9.048206 0.9676217 0.39515495 -0.6847301 8.000822 3.9873705 -2.0144541 1.0306429 -1.4537731 3.8969684 1.1226743 0.08483297 8.270051 -0.6798591 9.209855 2.465682 2.4468112 0.42959315 -0.7907498 -3.677011 7.8183184 5.1522965 1.0736883 -0.88887215 8.021774 4.1711917 5.435118 -3.1795375 2.008225 7.2966228 -2.211034 8.364461 -1.6809492 -0.35912207
highestEdu_-999.0 -0.6519738 -2.4371195 -0.9160321 7.07444 1.093028 4.4989595 -14.907296 -6.1531086 8.698841 -4.2129364 6.553291 2.8325312 -5.6687 2.032791 1.4922746 -4.0374126 1.0084102 0.9296765 7.3534093 2.5442572 -1.4989773 -7.9075418 2.0759678 -2.9539409 -0.21813095 5.6154566 -4.129441 -6.252199 -4.265186 0.27781478 -3.1051679 1.2409486 -0.94203967 -2.7907758 2.4371426 -0.5542379 -0.14314237 4.276563 2.012755 -1.489199 2.7622871 3.6088414 -0.91742146 -0.39919543 -5.1277366 -0.6329548 -0.41372526 -1.183979 6.503526 -2.550302 0.2723753 -8.211867 1.1192065 1.6910547 2.8161085 -1.0784783 -3.0723178 10.312924 9.782108 -1.9056588 0.49011305 -0.2068753 1.5642499 0.10219211 2.7517626 1.5673518 -2.9701731 0.19203633 -2.1999464 -13.666601 -3.0130386 5.611228 5.06976 -6.7574716 1.9647281 -4.1086745 -4.9198217 -2.346983 3.8339105 -0.077475876 6.0271287 -1.1972568 -2.655755 5.385386 -3.5052598 1.7549508 -0.6434253 0.17285004 2.5671082 3.251987 -11.288682 3.320207 -0.045230843 2.9618747 6.3211784 5.179649 -2.937131 -5.410909 2.860818 -0.7687229
x_14_0.0 6.18405 4.364506 5.450076 1.9106855 2.1446917 -2.5534813 -1.5318086 3.210301 3.1176283 -7.0069766 9.88941 -7.236151 -0.51538265 -4.6275744 1.832749 1.9610169 0.5410453 -0.18632777 -2.4126384 3.0598981 -0.97221154 -1.3567718 -6.792009 -2.3173506 3.6554918 8.771043 3.7405288 -1.8611407 6.237525 -1.6629423 -2.3613467 -1.8046576 -3.7665465 3.1505828 -6.8238916 -2.8725603 -3.884178 1.1232511 4.457781 7.614479 -1.2430367 -8.775251 -5.668546 -6.91215 1.2029399 -2.8937314 3.92234 4.544377 -2.3088033 -1.0895195 3.1166997 4.0223947 4.8969345 -0.49491608 -1.3977922 -0.9202993 6.117451 -0.8191345 3.2990186 0.14187832 -3.9167235 1.7950656 -3.064536 -1.1638179 -1.7220747 -4.637416 4.7793236 7.0687656 -2.0146914 -1.570564 -1.4841257 2.383086 -4.80016 1.1805722 1.9106294 4.0736036 2.999564 1.3029118 -2.137764 3.4232488 -0.24022149 4.499993 6.7289243 -2.471439 5.922791 1.0562474 -3.1321142 -7.1144176 -8.41163 3.2290068 -4.658902 -0.98178995 6.2062135 4.1057115 -6.6538553 -9.055837 11.10651 0.22717683 4.5856624 -3.4675522
x_61_1.0 -2.027046 -0.44178307 1.2095113 -1.0986946 -3.4523394 -1.3992847 -2.7441995 4.4102736 -5.029759 8.369225 0.9490503 8.2456875 0.19786902 2.0408525 6.736152 -2.7036092 -3.322216 -2.6219952 0.7134236 -0.20591378 -2.48428 3.8509178 4.482374 0.5958574 -9.462424 -6.236984 5.1881514 -0.8759235 -0.6584287 4.900722 -0.54658526 4.105617 -2.7557392 1.7143027 -5.011381 -3.6873116 -1.8126942 -0.39385667 -3.031485 8.540234 3.4202948 -2.72041 -2.428235 2.6647873 1.9575081 4.267177 0.34145102 1.0068421 2.6793709 -7.150842 -6.1734715 -2.2931807 2.9432397 -7.401948 2.4535291 -1.0568087 -4.54663 -3.5677776 3.6807082 3.0934298 -4.7047634 -0.9850053 1.561802 6.343269 1.1974587 2.7113225 -6.1961308 4.779586 0.86218077 13.825331 -2.794505 -3.4595976 5.0130157 0.94412035 -3.2804182 2.3432496 -0.39004606 2.4458432 9.30901 -1.625535 2.7979875 11.720493 -4.113543 0.7392048 -0.13587467 4.515858 2.9279382 -7.0975714 -1.7979829 0.5101585 -8.608165 1.8207104 4.785381 -2.9240606 0.15142809 1.6023985 -3.7672668 1.6493375 -4.1450877 -1.5279604
ncloseCreditCard_1.0 -3.2275426 -2.5142448 -1.7289081 1.1230531 1.7566448 0.92541605 -2.4484856 -4.3691177 -2.2015662 -2.4474583 1.7803775 1.3533313 5.987187 2.5414143 -4.497467 0.9034017 -0.83596754 1.3303491 9.136943 -2.432195 7.2059937 4.8824043 -3.647751 3.1784723 -0.9807314 3.3718543 3.2669773 -2.9961555 -0.9976707 1.3402158 2.938605 -3.405088 0.048692934 -5.5955143 -7.045148 5.775345 -1.2006203 -2.1670709 -3.8703578 -2.8904364 0.2681027 1.6019998 4.371582 -6.792254 -1.1745415 3.6909027 1.6431353 2.1127791 1.2461568 6.849004 -4.1849155 -2.4772608 -9.483006 4.0485363 -2.132782 0.4792209 -4.63059 -0.58860403 1.5363885 -4.9289556 11.422963 0.5457332 1.4655938 -2.038005 -3.2887945 -0.56559277 -1.7996244 3.780114 6.4987555 -5.955076 -0.43964967 0.5438348 -5.324841 7.5397515 3.0584116 -2.5842764 -4.309259 7.3232474 1.0817779 -4.0440993 -4.6674175 -5.7614746 -3.7933786 -3.9654815 -0.2794865 -1.7858306 1.5415012 0.76309973 -3.8918722 -0.33865327 -0.4089812 2.6935096 4.202175 -0.8191414 -2.1428018 -3.6143677 1.3056277 -1.7938515 1.9460297 2.553502
x_66_0.0 5.5585303 -2.5690284 -3.1399064 -2.033775 8.013274 -1.1498075 -7.8150535 -7.391092 1.9598303 -1.8906828 -0.85216075 -0.21418984 2.0070145 6.755302 2.9721413 3.2974586 -11.01177 -0.53075236 -0.09368611 -7.16002 -4.843893 2.9656966 5.9362135 5.2691684 9.372075 -2.6506414 -8.674227 -4.6160064 -8.443275 5.73917 -0.28344998 1.6044676 4.093144 -0.84339654 -2.8344548 3.5072424 -4.2671704 -1.5345407 -1.0415932 -1.0492918 -0.40572178 -0.55458504 4.9483266 3.2911837 3.76805 2.2379074 6.9004836 2.7669168 2.3642604 -5.7181616 0.7239915 -4.135564 4.073661 -4.9700103 2.5191915 0.6728495 -5.3228803 -3.6017747 -0.26953572 3.4026124 -2.8764174 3.2301464 -5.2858934 -2.3447585 -3.829998 3.6301057 0.73515826 0.58406854 -2.5020592 -0.9316876 2.1513243 0.8959402 -6.9601727 -3.6523323 -5.484332 6.053935 -8.840774 -1.4192394 7.0052204 5.436276 -3.2735763 6.152537 3.3004327 -2.4244595 -1.2612511 2.0133708 0.75305283 1.0461228 6.337477 -3.4665332 -4.5885625 2.145891 -1.7629176 2.895828 -4.86179 6.220116 1.3735713 -2.6110477 5.4660454 -8.376196
x_25_0.0 4.682914 -5.210909 2.8816564 0.51276445 -3.0994945 -2.2088192 1.3131591 -0.37691623 1.4927589 -5.2869096 4.8811617 2.9715543 -2.6235383 4.807647 2.532735 0.8653067 3.9847233 -1.0638372 -8.879059 6.2822304 1.6344119 -0.6488082 -4.8282332 2.2177389 3.2837498 0.21617097 3.117376 7.655531 8.164223 1.1134365 6.138817 -3.8659198 -4.6791205 -6.40114 -2.483705 0.36291626 2.352953 -5.0138865 -3.7161913 -9.900588 2.993918 -0.8107093 0.2262392 4.4168015 1.4680443 -0.07450957 3.4296808 2.17429 -1.9249645 -1.8131802 -0.7161053 2.892025 6.7330513 1.8720967 -1.7169555 7.702383 8.147674 3.3945098 8.066387 4.707717 2.3625484 3.7112522 -1.2198347 -0.69895345 -2.1461678 -7.3209844 -4.685403 -2.8785133 -6.5064845 4.2210813 -11.525833 3.8645587 -5.5617895 -1.1127785 -4.242953 -1.4476126 3.1223824 -0.50487465 -7.0072875 5.5859346 -9.555774 -8.806847 0.5004154 -2.0822804 -3.0836089 2.9895346 -3.378574 -4.716424 -3.1285152 -2.5128567 -1.1234022 -4.6659627 -0.72645736 1.8531598 1.7223507 -5.767675 6.9574747 -3.0007458 0.6248291 -0.98591185
gender_2.0 3.859874 -1.0360945 2.254602 -4.091432 -8.644425 -5.733204 -0.31072506 1.2626847 -4.13311 -1.9901279 -2.6967664 1.0218738 -0.1492126 -2.652797 -6.7659283 1.9111786 -1.1395472 -2.3169928 -4.1791596 1.7989273 0.64381295 -0.38036647 5.30241 -7.0149093 0.2055472 -0.48867247 -0.16564454 -0.88941354 2.220354 0.41941357 3.7877798 1.5932882 1.5595596 2.6186428 0.4355387 0.58648145 -4.1191707 4.100034 0.9180389 3.2545557 -3.8173194 -1.4616644 4.241285 0.49538466 0.8725013 -3.179888 3.8877602 -4.0507116 -1.4497157 -7.0887012 2.3297057 -4.775167 0.44397008 -3.2010856 3.6138644 -1.6436331 9.372552 -1.3991636 -4.987138 -4.363424 -3.4144394 0.5060931 0.21962269 0.4614986 -3.2390263 -1.0588403 -0.5981765 9.038653 -1.2224878 -3.3904278 -0.8315033 -3.1847775 -0.017696701 -3.8753989 2.1115139 3.9201088 -4.786707 -2.5454965 1.4151927 1.0793967 2.113403 4.649449 -0.7152815 -2.242001 -4.67531 2.2351236 -2.0627713 -0.6112089 -2.8405213 -5.0332465 -1.4267898 3.6595151 -1.2050626 0.92885625 2.7997918 -2.7655272 2.5618956 1.503082 -0.8463776 -0.84472203
x_71_1.0 -4.782829 -2.1942387 5.8366575 0.9504441 5.0132446 8.437922 -11.496127 0.4931143 -0.9226181 1.1597699 -6.0344462 3.1878192 1.2039862 8.960568 -2.5321126 3.863124 1.6045301 -8.475359 1.1965957 3.2136042 3.927215 3.5353363 -0.06373599 -9.85356 8.06335 -7.6630335 3.3297064 -4.072256 -6.9365582 1.0933143 -0.94155204 4.621177 -6.636916 2.8839345 -3.6099958 -2.5783226 -1.5819473 -3.7139108 -1.8813684 -3.2538056 1.5175748 4.460465 0.11427587 -6.2766347 -1.5874206 -7.141025 1.8834556 4.5171003 -0.022082917 2.714218 2.5436847 -3.4752288 4.747017 2.2371573 4.3689976 -9.545019 -4.669276 -1.8444116 -2.3581045 -1.4255079 8.169718 3.8119705 6.4850507 -2.859521 -1.8371149 12.205368 1.4467722 2.5708485 3.9719634 1.3233529 -5.9854655 1.260994 0.7305245 -0.6517333 -0.87899303 4.2243843 -5.2640433 5.4250727 2.549804 -3.3420088 -1.2579883 2.5737455 2.5179594 3.4230268 -6.4801655 0.43735072 6.9790187 -1.7730862 -0.35635027 -2.1810992 -0.35032216 3.9708993 -4.4808755 -1.4075197 -2.0808997 -2.006195 5.0200515 -2.0882773 2.5488656 -3.0994568
x_75_0.0 -9.93267 -8.002159 -0.38294223 -3.2400115 2.4941015 7.141868 -6.7261353 -8.966537 4.597043 -2.6441302 3.8631582 0.003551166 -3.4207518 8.9093 -0.42955336 1.4052588 -3.041432 -6.2009087 4.1812572 -0.1283809 -1.9264694 8.102417 -1.0704151 -6.05085 -2.5426145 -4.357529 1.6480663 -8.306379 -3.7807689 -2.8464487 -6.6910343 -0.7106145 2.6351337 -2.0593696 5.796922 -1.9375281 6.7682495 -5.2305965 -0.4575494 -3.6979673 4.186841 -5.2261868 3.3085754 -1.4221923 -4.2101088 1.0105242 2.0460658 -3.3011873 6.6746426 3.7798002 -4.135373 2.0215917 4.1890035 -0.39355966 -4.887234 3.3123646 -4.4940114 3.2874353 -3.5691757 -0.049842406 -2.0123734 5.0704794 1.790847 1.243042 -0.5868598 -0.6804092 5.0165024 6.863714 6.7902584 -1.1690674 -1.8449585 -1.1744996 4.956936 2.4296973 1.772525 -4.5486097 -3.271841 2.2736614 -0.4085048 2.6970704 -3.2595181 9.044371 2.194771 -0.31428587 -2.109141 -5.964772 -11.295262 6.345365 1.8821046 -0.2208561 -7.569863 5.9539027 -0.073750086 -1.8270795 0.9580156 -4.222349 -1.294238 -1.5716654 5.4242487 9.167854
x_51_1.0 -0.8887839 0.7567521 -7.50795 -3.6496093 -1.592144 -4.271839 -0.81863004 5.2929115 -0.92504865 4.573177 -2.4477398 -1.5801046 3.5099902 -3.620588 2.5846024 -3.709625 -1.0212948 -7.2568383 1.2359567 -7.320976 -4.908719 -4.9098616 3.225382 1.9974312 -8.477243 -4.107937 -2.3593752 6.4060884 -9.51001 -0.2932654 -2.3742144 -0.6562724 5.4502087 0.87440723 -0.83357406 2.099772 -4.653584 -0.0025098657 8.104266 5.56915 1.5245409 -2.47198 -1.270365 4.585996 1.2820196 -1.9233767 0.3570286 -6.9634933 -4.8390865 6.854433 -3.2982662 -5.9676704 -1.0881518 0.34913093 2.9833195 -10.363354 1.0251784 -2.0572598 -3.419114 1.4795806 1.692194 -0.122441806 3.855948 -1.7178748 0.7499193 -1.3349185 -6.770356 0.07711708 2.645015 11.144226 8.005072 -4.191698 -1.394318 7.100536 -9.123095 2.6381638 1.9976363 4.1424184 2.0293515 4.2627835 5.751745 -4.512323 3.0923288 -4.972331 -3.7384474 -2.2045736 0.84922045 0.52051467 -4.9173965 -7.685011 1.5820239 2.8722603 0.16347507 4.3904185 5.100817 5.9296126 -1.5021197 8.795108 -2.5304394 -3.1133492
x_63_0.0 -4.247345 -2.1091535 -4.2336884 -1.7101698 -0.7609253 -1.9324857 -8.028297 2.565509 1.1240244 -0.32644883 0.9973694 1.6798888 1.3601403 -1.1497674 -2.6907344 0.86524147 -2.91353 -1.4070904 7.222287 3.6462042 3.6174872 -1.6254126 -3.2802978 2.8965564 -1.3758543 -7.3668504 6.697243 -3.2280166 -4.9776964 -3.1667728 -4.578389 1.838337 -0.14251493 -2.5763867 -1.7773067 -5.1468897 -8.460361 -5.87842 -0.3805268 -1.0609192 2.6044939 1.8543137 5.2622824 10.541396 1.5846049 -4.916883 -0.54579335 5.5988164 -1.1194206 -5.099888 -1.0820793 6.747079 4.743104 -7.361862 4.9615817 -2.9348307 -3.9155717 -0.8073084 0.4490595 -0.12614006 -4.1129193 -1.0539422 -6.328461 7.5277143 2.972512 -6.206256 2.6147573 -4.4651127 -0.04118522 -0.5043698 2.293141 -0.9521272 -0.41806555 -1.2684754 -3.9682007 3.12375 -7.7957354 -1.5214838 1.4218878 7.3700147 5.2628307 14.150938 -5.8768444 -3.4407523 2.8904986 3.9999666 1.2344756 -7.657819 6.5458946 1.6351755 -0.010158577 9.966883 -2.5439389 -4.8001976 1.2616656 -3.5983026 -4.7122245 -0.08989879 -6.819348 -5.345615
x_62_1.0 -7.3879585 -8.806489 -4.4355392 0.3640139 -4.503202 0.23292668 -1.5327532 1.3202693 1.642562 -1.7206599 -3.236092 3.8333745 -6.4307575 -0.8912794 6.8152766 3.3237157 3.1483545 -4.5314612 5.96464 3.1431308 1.3377855 -1.2075021 3.0077972 -2.4219983 -3.1338513 -4.213673 2.821074 -2.986745 -0.62004834 8.536146 0.5462455 5.4000826 0.7902782 7.970204 1.6462622 -9.742424 -3.4871187 -2.6446373 -1.8528663 3.623814 -0.9187026 -4.753383 -5.2542915 8.35796 1.0751879 2.4747162 2.7964542 2.9123325 -0.2708118 -8.151661 -0.9476552 3.2684166 -4.5642095 -13.796997 1.4275706 -1.6641732 -6.7482038 2.9626253 -0.060916804 4.6751637 2.642754 -3.5303164 0.8963528 0.6865297 -6.919988 0.60086495 -6.5224385 0.40817225 1.5893816 9.003015 -0.71359515 2.4020107 0.677787 1.0078851 -1.7163886 11.792804 -0.5922806 -2.0992653 2.834284 -2.884117 5.3360844 6.6252093 -2.2047284 -2.7811873 1.9920858 0.38652402 -5.514247 -3.6015487 -1.0402739 -0.045964498 0.6640398 6.228789 2.6493127 8.039468 -1.2233853 2.831454 -5.0292807 1.8104867 1.7595291 -4.131238
x_52_1.0 4.479003 -1.896823 2.620625 -11.169765 -3.0491624 -0.1505208 5.6718936 7.4986563 -7.5206237 5.9695334 -3.515566 -1.3678514 8.362788 -5.197607 0.9622406 -4.0745854 -9.15772 0.08076648 0.8709805 -0.70014095 -1.9199558 -4.5419335 1.4466108 -0.044372782 -4.2432756 1.1428527 8.456005 5.44889 -12.405047 3.7713919 -4.9049387 2.2234764 -4.6897116 -0.13361478 -1.7071408 -2.271061 -5.22153 -10.517749 -0.5531242 10.221687 -5.7883744 -1.7012973 2.6335342 -2.9994345 2.3422887 -3.1695316 6.321904 2.9404285 -5.089262 -1.7090707 -1.0926131 -6.7568703 3.0497785 0.51898295 -4.728318 -1.1445837 -4.2648115 -1.5299869 0.3229069 7.1903367 0.7956412 -8.69834 -1.405865 -7.644978 -2.732348 -2.0104733 -3.5698185 2.16751 -1.0207754 3.363011 7.8920693 0.034665488 2.6038206 -1.9014051 -2.1141365 -5.216329 3.3980265 -1.699465 0.9229996 0.8949023 4.720435 1.7755388 -0.7667238 -0.05568396 -5.9853406 -6.579984 0.28602627 9.128498 2.4216366 3.443435 1.2638164 3.9797854 -9.561209 -2.2142012 2.3852744 4.7407875 -4.415801 4.0902 -5.824016 -1.678715
x_67_1.0 -4.9153495 0.68951255 -3.2122304 3.3973033 9.731167 -3.1369731 -9.753818 -0.42187995 -2.8895805 3.4987726 -0.07402381 1.3471252 0.4687127 1.340284 -4.1492505 4.1625957 -3.3757303 0.525487 0.12413738 -1.3215476 4.5488586 -7.8559747 7.3291364 -2.6347854 3.2708967 -7.2270265 0.60550064 -6.037379 -3.222228 2.9800425 11.759903 0.10642731 -5.9235587 0.4987746 -1.0835353 -1.3663707 -2.6593153 -1.9768269 -4.7917657 0.18787026 -1.3764181 -0.007092058 0.7047178 1.5672381 2.356251 4.943503 -3.7249045 0.49277306 -1.2863094 1.1304572 -0.2912008 -4.743734 3.6377954 0.82040703 -6.4259057 -1.7856146 -7.6774006 5.6219444 -0.49000764 0.75168645 1.7665592 10.0651045 -5.484333 0.71775556 -3.173666 0.63833034 6.90211 5.204382 -6.411343 2.3081148 1.3182591 2.3863094 0.8930265 -5.771557 -3.188735 6.834349 -13.757221 5.2902365 2.2974243 4.538855 4.57896 0.7718035 6.6086373 5.002095 -1.6394587 -7.7138066 4.2222295 2.8840806 -11.281022 -4.618838 1.6428021 1.5774127 -5.337205 -6.266512 -3.73487 4.2286897 5.696237 -2.0649374 0.61881965 -4.304978
isNew_0.0 3.2454288 0.54780746 -1.6633085 2.4457102 -5.6618342 0.6408835 2.0244823 -1.8343104 2.1447177 -0.19388674 4.4584618 -0.24906184 0.5711857 -3.009485 6.0109096 1.454437 4.234101 2.6014457 -1.6671258 -2.8210146 2.7781522 -0.3832267 0.33999497 -7.103907 -2.486277 5.935246 -2.4648187 4.7955823 5.156991 -1.2814313 -7.809465 -0.8300759 0.43722388 -2.469515 5.2087197 1.1645005 -9.296307 1.1453203 1.065054 3.5278795 2.852108 2.014753 0.35299528 -3.083584 4.6976433 -2.1354852 -5.464443 -6.6249447 3.4151278 -2.4403253 -3.4709466 0.5470906 1.4484316 -1.1259423 -5.7257347 0.9096846 1.110608 -5.2853165 5.130669 -0.31642887 -1.5030861 1.4609836 0.54789084 -8.141062 -1.8140197 -3.4651191 -6.182261 -3.9243782 -1.5564803 -5.7682734 -1.2071095 -1.1000453 7.53771 -0.0350167 -0.77025384 -1.9721292 -0.26921314 6.020493 -3.6978872 -3.6672752 5.620556 -0.8231361 -3.0307503 0.34487957 0.6048163 2.2324147 -1.4368317 3.4941764 3.0475667 -0.7096579 1.1044424 -2.0261927 5.9425087 -0.16569601 4.472081 0.689104 -3.352831 1.8307168 -2.570755 8.823732
certPeriod_631152000.0 7.3040113 1.9804801 0.74411654 0.0026753466 -10.280056 1.4368663 5.940835 0.5809518 5.523384 0.8457418 5.499898 0.35462368 1.789173 -3.2143586 10.219587 -2.0773718 7.2145357 5.570537 -0.7476907 -0.76382697 2.3132303 -1.2267404 1.5496024 -3.4011626 -2.3752651 5.985631 -2.4998872 6.988075 5.4562626 -3.0501409 -11.296403 -0.49254563 0.27367973 2.1961088 6.0977025 -2.8261552 -9.337281 3.4870882 4.630725 0.4571244 3.6863232 -0.03907151 -1.4152397 -2.999203 5.5849543 -1.1858801 -7.146895 -8.206477 3.2113008 -0.8535782 -4.9427333 1.5183711 2.0707626 -2.5776453 -7.398387 -0.01812413 3.2896008 -8.504656 4.4786816 3.1799695 -4.817601 -0.0902509 0.7873709 -13.092587 -1.42129 -8.292766 -8.8670845 -2.4189005 -2.5998425 -4.6695986 1.6705931 -1.1505227 7.290198 3.3882716 -3.411666 -3.4619393 0.07016224 8.107206 -0.9501625 -4.4324484 7.1473575 -4.477569 -3.5116956 0.53717744 -3.770221 1.0512321 0.2103229 4.6419544 2.8971295 0.08143815 4.1054835 -0.42037466 8.6774435 -2.2949145 4.59156 2.5493958 -0.93074065 1.9223553 -6.939684 11.825704
x_65_0.0 -0.21834685 -0.45786715 0.9596591 7.6019063 3.6455202 0.23595697 -13.289179 -0.16982839 1.4972099 -1.1122788 -8.619474 -1.3584198 -6.419446 -1.1750846 4.5356913 3.1521137 -12.380681 0.46159375 1.949661 -2.059485 -6.3001294 0.5530294 -1.7562078 1.4251589 6.2511578 -4.9590554 -7.4656754 -6.674604 -8.619777 10.89105 5.24715 -3.059999 4.34707 -4.2908564 -4.082699 6.8932242 4.309172 -1.0409144 0.56425864 4.8067126 5.319816 -5.310048 3.4166834 2.9900277 -6.813997 -2.957327 4.4296837 8.432107 -4.448143 -7.996357 0.061844017 0.1901213 2.8804207 0.3061532 -1.1641778 -0.081293836 4.1356444 -0.16385 -7.56097 7.7956634 -2.3024912 -2.3892202 -2.9647112 0.61988604 -2.0405126 0.5741957 -2.7570715 0.6958987 -5.8436046 -2.0065444 -0.5441098 6.741023 4.4996967 -0.09024224 -3.924637 4.423089 -3.8285859 -2.6534455 0.87059706 3.8463793 0.139378 6.250608 -5.672177 -3.9307933 4.394889 -1.8112483 1.7415811 1.8191489 -1.7235109 -0.5139127 3.944121 5.933487 0.45136783 -7.2480774 -0.44659618 0.8830043 -0.5518896 -5.186577 -4.684677 -1.9833709
x_46_1.0 2.690428 6.5155625 -0.36628324 -5.685277 -3.5680153 -0.76968455 1.3838615 -4.043031 0.99269676 7.2727814 -7.9108334 -5.12617 6.749841 -3.7672832 6.68405 -1.296254 3.6564445 -1.4722492 0.9527639 -4.186985 1.1065191 0.5809279 -0.52305394 2.856909 0.18467964 5.602142 7.881004 4.7023687 7.9953985 4.110105 4.8422093 5.6786103 -2.367131 -2.7166853 8.547004 2.8634486 6.6365285 4.421691 8.371777 1.9341896 -0.7545052 4.091633 6.4816327 7.856904 0.14259398 2.8661635 5.5108986 -5.5536537 -0.04853959 -0.35835677 0.92168266 -9.48987 -3.26008 9.27054 4.5236173 1.7829067 -3.0031333 -7.6572704 -3.3456087 -0.8493427 -0.6861151 -7.4351616 -7.38426 6.486745 -5.498006 -4.7272334 3.7070901 -3.0617042 1.3631757 7.7368207 1.3779402 7.974893 -2.2360895 2.9872043 -2.5967584 1.3555068 -1.6778694 2.7210193 11.30766 1.5436199 7.431228 -4.1163797 -3.0034852 6.9987807 3.3672738 1.3943119 5.349501 5.9403625 5.273492 -2.955958 13.377255 7.722789 5.432981 -2.3827226 2.073073 -5.646218 -12.821641 0.0029076063 4.8167143 0.9664357
loanProduct_2.0 8.284017 -5.5597086 -1.5123879 -4.556651 -4.020381 -5.56275 -0.46575975 2.5360234 -9.772364 -2.7956612 -6.40634 -4.306367 -1.7015597 -2.912081 -4.383366 2.496166 0.50822 -2.3094332 -2.4180071 7.7040844 1.9198408 -9.264324 11.437411 -10.014729 1.659991 4.2692137 -0.037465937 -6.540159 -0.17401364 4.923542 2.3277562 -0.677897 9.991179 -4.312282 2.076472 2.1130803 -6.0378675 2.745584 1.7121783 -1.1495123 2.3629928 5.502858 6.272909 5.25943 1.9657633 2.698321 2.2909048 -3.9818063 1.69504 -1.6000534 4.601743 -7.122505 -2.3673365 -3.9263766 5.054781 -4.2929497 9.709293 -1.0419288 -5.680617 -3.921084 -11.782409 -0.25282943 5.757464 -1.7465076 -7.368426 1.1098465 -1.313614 10.134198 5.344981 -3.183951 -0.61980146 -4.541437 2.5405467 -1.1488112 3.1299443 2.92865 -2.0618143 7.112269 7.626762 -1.1579506 2.9250312 8.310176 -7.1989756 2.6339982 -10.139288 -2.1351552 -3.1505253 -0.7597202 -2.80835 2.274498 -0.17941761 5.654621 -5.3544803 -5.9638367 2.762377 -1.4264323 -4.5974526 9.193204 4.034792 2.987103
x_46_0.0 -4.562188 -1.6187469 2.5521808 -4.7120137 -1.8716774 0.21070988 1.4092015 -4.8298078 0.47680363 7.6953707 -2.9745314 1.2946507 4.977757 -0.042953417 2.258123 6.508957 2.3255515 5.502907 -2.6066413 -11.496424 -0.53497434 -3.3492124 1.6192285 3.4803054 -6.095385 3.461016 1.9715393 -0.8719109 3.1211925 -0.045419503 5.0642123 -0.3793075 2.0306566 -0.47830644 0.022578908 2.867456 4.1722918 1.4270554 -3.4680245 -3.8476489 -1.8030957 1.637946 -5.2778964 2.990495 2.81373 -0.2713834 -2.9614635 -3.0851831 1.0859716 -0.44776243 1.656825 2.1264865 -5.0779924 4.213912 7.971268 -2.3156984 2.491089 -6.3942204 -1.0421679 -5.413318 -3.7469497 -12.028926 -5.611668 5.352211 -1.3373824 -7.9508743 -0.7853449 0.2330003 -7.804829 5.793654 1.3363338 0.004957415 1.441082 5.5852194 -0.12468816 1.9608902 6.020188 -2.8069592 3.5547135 -1.5254196 6.28151 -1.6025906 -8.511839 3.9364135 -4.2124114 3.4931424 4.3926187 2.9349835 3.101593 2.133735 6.705514 10.004562 0.80394715 -1.493455 2.8653939 0.16119066 -4.0833864 6.195262 10.749266 -0.7429718
x_65_1.0 -6.14999 -3.3159566 2.6522317 9.999891 0.082632475 3.1618516 -6.944132 3.5606725 0.9795594 -2.9756997 -0.3159688 -1.6786895 -5.3032284 -1.8855443 2.3048747 3.5580997 -12.723381 -6.2515497 4.5474243 -1.9399972 -5.172791 -4.891686 -2.5044723 -0.08490917 4.28462 -5.6664386 -4.3530836 -6.451411 -6.953742 11.805002 3.0962434 0.041444663 4.407608 -3.6111836 -0.088055894 5.029368 0.33209503 0.44119513 0.010566481 2.0256064 10.323239 -9.225776 2.9759626 6.971126 -4.6360784 -5.0126977 3.834735 5.1510262 -5.430107 -7.0177717 -2.9664567 1.9955086 0.82461077 -1.5269802 -2.2835078 -2.059785 3.6289754 3.2972496 -5.608163 5.041314 -1.1631467 -3.162638 0.19594008 6.3275514 -3.820119 2.1654174 -0.27740765 4.767098 -6.4454947 -1.2707003 -1.3679272 1.6854671 2.8762913 4.702846 -7.6738 5.1167593 -2.6813173 -3.0971062 2.5611198 0.9677523 2.9122589 4.234219 -4.6135707 -1.0408919 4.9402184 -0.099077836 6.2719355 -1.4502223 -2.124565 -6.651316 1.8976862 0.9792027 1.8297973 -3.4584916 1.394496 5.2497888 -0.49006972 -2.6905086 -1.0102879 1.0362616
isNew_1.0 4.5509906 0.8522621 -1.874797 0.95808625 -5.55831 1.0713458 2.5992813 -1.9333549 2.5627668 0.6056195 4.54307 1.0030295 2.5313113 -4.609321 5.698367 0.24948804 5.4197164 2.7738326 -2.1398375 -3.984509 2.5943387 -0.250926 -0.4019671 -3.352478 -0.7534287 4.303847 -3.6138291 2.7148638 4.3375745 -0.15122677 -10.241122 -0.3208815 -0.26629165 -1.5734857 3.1476443 0.28134298 -8.803422 5.417809 0.54561645 1.9334999 1.5539807 0.2135982 1.3752985 -0.8021099 6.1170926 -1.9234813 -4.4660015 -5.147514 3.3248477 -1.1887372 -3.5641015 3.1061363 2.4741535 -1.0172774 -6.5774016 1.0298362 1.7867656 -5.2016606 5.2464657 0.6108968 -1.5304791 0.90647835 0.6596748 -7.681941 -2.0652404 -3.2152078 -6.565552 -2.5350313 -0.3663746 -4.610588 -1.154115 -0.20106213 8.362688 0.95379776 -0.7180097 -1.6182584 1.0951313 7.232908 -2.500061 -3.6552896 6.467525 -2.018796 -4.700016 0.6816302 -0.6240465 0.35619664 -3.3313005 3.393732 2.087004 -0.8546428 3.9034686 -2.8209682 3.8037457 0.13732973 3.763662 -1.3630295 -0.42145905 0.9024628 -4.224977 10.161996
x_67_0.0 -6.7483068 -0.65008163 -7.294922 0.9134465 3.6434157 -5.720229 -10.893643 -0.65919137 -1.6783826 3.609784 -1.0644178 -3.6494126 0.44959465 -0.5526934 -4.8931007 -0.32600117 -3.7399755 -1.7100987 3.1278815 1.902944 4.979222 -2.1248388 4.7105446 5.439817 6.0416255 -3.2473698 2.5314007 -6.249054 -4.153152 5.384323 9.522877 1.4399344 -3.249632 -0.052165795 -3.5824442 -2.6953497 0.8011703 -1.9362744 -4.396698 2.3987558 -0.20263723 -4.865275 -1.1787941 5.174328 2.0015144 3.8187938 -0.7701656 -2.3240983 0.7762128 -1.1202598 -0.6542203 -6.737726 4.6146593 0.04726506 -6.005686 -1.5311598 -3.3626142 0.62074417 -0.33875525 -1.7894776 1.9396344 11.135535 -5.566845 -0.7308957 2.4193337 0.10317835 4.1132913 6.752946 -7.667905 -0.07486484 2.9840138 4.247909 6.633703 -5.1237965 -3.8219044 7.562006 -7.688665 2.8758466 -1.748067 6.093283 -1.0034488 3.7738347 8.514723 6.5301833 -4.256096 -3.235138 3.997123 3.7288556 -4.0183754 -3.254268 -2.048415 2.0850332 -7.639072 -4.650643 -3.3937 4.4766665 3.5501716 -0.09979212 3.2083611 -1.0584937
job_16.0 2.0852013 1.2863753 -8.416849 9.15053 0.83199584 0.5187771 3.0807774 1.49933 -0.6729973 -5.133238 -6.7068157 -4.6362348 6.5448112 0.24753013 4.89098 -0.1174234 5.33258 1.1734388 -1.6755794 5.9761076 -2.6836214 3.451616 1.2941722 7.022357 -2.7969599 -4.0732284 4.916103 3.5779219 0.5055812 0.19236863 -5.106489 0.4326697 4.933335 3.2210505 0.6407102 6.4329515 -6.4234133 -0.034773424 -1.4711051 -2.9673598 3.6281505 1.0512514 -0.9575208 0.13310152 4.0104904 1.8034272 -6.2790494 1.5433532 -7.5767727 3.7058232 -0.37139452 -2.642343 2.358521 -0.09102889 1.8492724 0.83787686 -3.2562268 2.4531567 0.8939742 2.907711 -2.8836079 -1.8886565 0.08648418 -3.0641036 -5.993788 0.26498047 -2.601395 4.9429326 -2.4669073 -4.4167476 -7.393302 3.3213112 -0.9737791 2.976264 -0.105029255 -0.6696842 5.1849065 -3.5303926 -0.95610243 3.6681633 -7.178132 1.651162 1.9537089 6.2090836 8.289036 1.1303275 -2.0590754 -4.619985 -6.142817 5.744309 -5.4224725 -3.0221536 -7.6840715 -1.1300083 -4.6031046 -0.7024877 2.2722511 0.9276183 -3.341232 2.2985396
x_52_0.0 -0.12470508 2.309389 1.666749 -4.1607494 -0.9989519 -4.063273 3.9861448 2.4139273 -3.6141734 3.5989466 1.0430307 4.8396206 3.8102415 -6.5126443 -3.1013062 -1.143248 -7.9736423 -7.141843 4.3885155 0.04086392 -0.07254704 -7.847112 7.7574863 2.4265049 1.3877934 2.4514654 2.072787 8.298689 -10.260042 0.16932875 -4.095816 6.557784 5.433085 -0.27159065 1.5474262 1.9073466 -4.3166547 -2.451826 6.5494466 4.7429233 -4.3273935 -5.8621593 -3.4521215 0.35677958 4.43762 -2.5148194 0.87622625 -5.5527253 -2.1620672 -0.09460776 0.6337865 -1.2729983 -3.3813388 -3.4983523 -1.0382109 -0.35344195 -5.962706 -0.55257106 -1.8503398 6.322685 6.299822 -4.4339547 3.5381908 -2.3727672 -1.3795712 -1.7081265 -3.4866867 2.8801281 -4.2213974 11.155932 -0.6378619 -5.2876554 -3.132567 8.109542 -0.05768707 1.8249388 2.3290958 -0.84441173 0.071311 -1.6384342 5.4425244 0.7124693 -1.993147 3.4052162 0.59742904 -6.499998 3.902625 2.257493 0.2622895 -0.9380736 1.9845713 4.608355 -4.7384977 2.0414252 2.4997706 7.911468 -3.276566 1.5634842 -0.43964142 3.0887008
basicLevel_1.0 -0.9371757 -2.4034119 1.099693 5.4393907 -2.6663096 3.4522805 -0.39326042 1.4398366 1.0634273 -4.3240542 10.945133 2.9435985 -3.6289957 3.6314 1.5410212 -0.99013025 6.9376583 2.6859 0.30758536 -5.100974 -0.71823174 -0.16367978 -6.672499 2.1425023 8.355185 -0.6513628 -0.39859334 -4.0947266 1.3332217 -3.939838 2.7960773 3.7997737 -7.4725475 1.8093412 1.8771518 7.464332 -0.63067955 -1.0463172 4.156333 3.7490025 -6.486672 -3.737988 0.77581173 1.5079327 4.0002146 0.38885474 -5.220376 -1.9681022 0.31170738 -0.5899738 -5.2963643 2.860734 5.4234533 -2.4532068 -3.4805248 -1.4130162 1.406652 -4.1203165 2.0276964 2.751056 1.5335257 3.470758 -2.152551 0.8083784 -2.403183 8.947619 -1.3264202 4.077759 4.37609 9.503044 6.166983 -3.0349326 -0.30220348 -2.6268404 0.22658779 -3.2691402 4.8888836 -13.980841 -8.963749 4.9018326 -8.303039 -3.2632418 3.4594982 2.0644708 10.083391 4.7753944 0.6754744 0.5606976 -1.9855676 5.830375 2.8047097 1.2741205 -2.0839872 -0.66108924 -5.3631997 5.4113264 -3.96444 -3.097426 -13.871158 -8.528368
x_62_0.0 -2.0161295 -10.163142 -0.54098886 -1.9712961 -6.167917 -1.4218793 -0.46574903 0.35738033 0.071580485 3.500885 -5.960276 -0.56011367 -4.4719305 1.9527206 5.796801 0.8848657 6.4145823 -0.7141805 6.858841 7.1871037 -0.8488363 0.69658417 0.18784982 -2.4681687 -4.9960465 -5.908556 2.7563863 -9.185024 -3.9212437 7.2327456 -2.683389 2.286351 -4.006821 1.5252521 3.3293488 -10.07773 -2.2268229 -2.6100717 -6.7335925 8.419229 -0.25292635 -1.7777574 -3.5121536 2.4115884 -1.0337297 1.5314502 2.6086438 4.598137 1.5388565 -8.110908 -1.8225893 4.1217203 -5.083228 -10.739758 2.0635045 -0.61201966 -3.997879 0.9435457 3.2218137 3.7825842 -0.35409313 -2.5423636 0.96847665 -0.8910319 -5.7309747 -5.264424 -4.6992326 -1.7390592 3.5956116 0.7271141 0.911746 7.269 3.0421183 -5.9344187 -6.2203875 10.800431 -2.0173717 -4.8850293 -0.034837347 -2.9067621 1.378856 8.427584 0.22920215 -8.318335 5.9140906 -1.6583828 -3.9081655 3.0524652 1.9707571 3.4528747 2.0054698 5.8354936 -6.546867 3.9995365 -3.4942837 -0.8170116 -5.9674315 -3.243458 2.4314275 -6.4702525
x_63_1.0 -6.401458 -3.344872 -7.60988 0.40495464 -0.3943446 -1.0600163 -3.3106415 0.25679845 0.80678433 -1.4988651 1.5529829 3.9468026 -4.2130527 -2.844931 -3.619403 2.1125166 -1.567292 -6.0552053 6.83398 3.756944 4.0961 -4.494521 -3.2604373 0.07063198 3.6327648 -8.087054 5.5945272 -5.032533 -2.2479594 -3.721236 -5.9496136 0.0064598313 0.13980314 -2.202467 -1.4169902 -5.3204103 -11.054439 -1.8367159 -0.39814675 -1.7459984 2.347841 0.36306846 0.98540163 12.771276 1.3852276 -4.1878386 -0.1311715 4.175476 -2.700087 -4.6663013 0.3222235 4.160075 4.053201 -6.435231 7.4140453 -0.850584 -3.825322 -0.5183935 1.8137709 1.7292 -4.3950953 -1.6971766 -2.4588194 8.255267 2.7250543 -6.709427 0.5265154 -3.279202 -0.8636241 5.5811586 0.76871145 -0.65168536 -3.7768345 5.104598 0.40532 2.6049309 -9.231162 -0.55153877 1.6214111 7.612818 6.2805905 13.670666 -4.200614 -2.753918 3.7680426 4.025718 3.2564847 -7.2119875 5.6025944 0.9774679 -2.8056004 9.213157 1.6550754 0.38616207 3.964644 2.3320937 -1.1466137 -0.8829633 -5.767116 -2.2246597
basicLevel_3.0 0.988712 -4.4153657 1.5679882 4.13675 -1.105042 2.42328 0.70588464 1.9961889 -0.29058912 -4.8676 10.306636 1.3511864 -5.4801865 2.273443 2.448248 -0.68455505 10.130802 4.719664 1.808357 -3.6802926 1.4658748 -1.4899931 -6.838476 2.7410884 10.9316635 1.7745478 1.2679982 -5.001335 -2.344385 -4.516388 4.800517 3.0945358 -8.854446 1.559378 2.553639 9.620877 -1.4061712 -3.578602 4.111434 2.2528443 -2.675823 -1.5803714 -0.4259586 1.938359 3.6632624 2.0358865 -4.8969197 -0.8894475 0.753012 -2.4561932 -5.9383583 3.747603 4.8891077 -1.3578384 -3.4038126 2.3081596 2.0482202 -4.2715282 2.0369887 3.0888555 -1.2111003 1.7030311 1.3059905 0.1096115 0.20728146 8.998149 -0.48145446 2.56063 8.566714 8.713047 5.3800583 -1.7105051 -0.12753719 -0.25055146 0.6116365 -1.9386826 5.0508437 -10.149617 -7.364052 4.744702 -9.623942 -4.501933 2.1135182 2.0551465 9.45333 2.8277488 -0.25784278 -1.7014577 -2.626325 4.540234 1.0829548 2.1185882 -0.33372986 -3.9335914 -5.043564 8.500234 -2.437346 -0.9495281 -9.565943 -7.6856756
x_33_3.0 -2.0072908 3.7003713 4.5112433 5.0271115 0.4377986 -3.2309575 3.8089018 2.2176192 1.1441809 3.2373438 0.813187 4.385342 -2.243129 -3.4695685 1.4120692 -1.6184524 10.267421 7.333721 -8.244006 -0.14126842 -7.591532 -5.2722545 -11.701327 5.030502 1.9800005 1.7887044 -1.0515822 1.4631188 -3.43728 2.6398165 -3.4085824 4.7331305 10.259198 -4.750873 -3.2377923 -3.7333539 3.2558534 -3.2572608 8.181155 2.637188 4.838061 9.579847 0.64473265 -5.8214397 -1.7120869 -1.8151016 4.241919 -3.9647996 -1.8476578 5.31016 8.0175085 3.8023536 -9.259946 1.8544905 -0.12365943 4.773803 -2.071445 2.6060262 10.179684 -5.59586 2.2890093 -5.5586605 0.7751224 4.602692 9.364261 5.473946 6.3400736 -1.9576668 -3.6597505 6.5568724 3.643578 -8.070253 1.1618502 -1.0157906 2.8013327 -4.8560653 -6.6676373 -7.5852337 -2.6744802 -1.7812272 -6.6706185 -7.897539 10.071626 -2.9440572 -5.3420725 -1.5814638 -8.300519 2.6617632 0.50269705 3.711742 5.568056 -0.72553706 4.4184046 -0.20742162 -6.252486 0.42561987 6.3601403 6.3921585 0.47088593 9.452851
x_33_1.0 -2.12485 3.5741594 4.6213136 5.0011597 1.1139052 -3.4454234 3.9353585 2.2992795 0.39001727 3.6265125 0.031607196 3.9651637 -1.5877839 -3.6237974 1.4769343 -1.1498197 9.815598 7.5717726 -8.115244 -1.1004866 -8.497128 -5.2515526 -11.801852 4.195459 2.7102377 1.6191249 -0.47213635 1.2480617 -3.0393713 2.0896037 -3.9359002 4.9682226 10.632491 -4.1261773 -4.34188 -3.623395 3.1299036 -3.7010434 8.188698 3.028762 4.9367485 9.87824 -0.23986097 -4.7679806 -2.6637518 -1.9433278 3.9556196 -4.341199 -1.4828254 5.1678505 7.755067 3.606071 -10.627699 1.3920201 -0.6707002 4.831056 -2.457572 2.2867877 9.293468 -5.0944376 2.2561488 -4.7243385 1.7318821 4.486431 9.664683 5.5367393 7.372604 -2.6107655 -3.5091355 6.001828 3.0175035 -7.7605424 1.7616893 -1.710802 2.7081735 -5.550801 -6.9353766 -7.175093 -2.3646767 -2.048826 -6.054326 -7.5658755 10.35166 -3.0727317 -6.148861 -1.5284243 -8.635419 3.1435008 0.88103384 3.2816403 5.7050843 -0.18839154 5.156962 -0.2214913 -5.559103 0.9249623 6.783845 6.0664005 0.74311596 8.664387
loanProduct_1.0 -3.1208482 4.2710257 1.5213652 -6.9224772 -15.015161 -4.227878 2.2437432 -4.758073 1.4499236 5.30977 4.787917 6.2453923 -3.2690558 0.12713808 -10.562551 13.294648 -15.423834 -6.6639304 -3.1704037 -10.804513 0.07262811 6.989862 -3.9187753 -1.1495861 -3.348434 -7.5253305 -1.4985689 -5.6514273 2.5259514 -6.7660546 -3.1828768 7.387054 -7.739219 12.313292 -4.9867377 -4.810039 -0.5871595 3.8864496 1.8640215 7.78498 -6.71087 -0.879649 2.782626 -1.548629 3.7223277 -6.5208516 2.8858514 -9.78926 9.516096 -7.9090014 -1.8347507 -9.490283 -4.5385275 -1.3446867 6.2116566 -6.647412 5.5044274 4.207096 -8.174218 -1.5243412 6.791762 6.3783746 -9.02926 0.3618276 3.6018143 1.3405823 -4.4576797 0.21215484 -1.8214786 -4.1994042 1.4414965 5.931374 4.560776 -5.0244837 -1.6359496 1.1420519 -3.8729832 -10.553026 -2.3555388 1.1055369 15.180151 -3.9587858 1.8085731 -6.920423 -5.07648 2.431818 0.71752566 11.385652 3.9132755 -6.3498583 7.710358 -0.93038213 9.77041 -0.902586 1.8218265 -5.3978763 3.0465841 -10.814355 -5.529428 -0.9154603
x_34_4.0 -7.6508217 -0.025230082 -2.5154006 -4.0280166 0.29361722 0.76180685 1.735712 4.639294 -2.7617497 -3.2035687 -3.1297555 -2.6965022 -6.9051886 -4.1063704 -10.920634 -10.781536 -0.31847596 10.678129 -9.674791 -1.94189 1.1666304 0.8712621 1.8658786 -3.76324 1.7603078 2.9912744 -2.7410698 2.59491 5.3169823 -6.6810675 -0.87375003 -3.997848 2.634222 -3.7591648 4.39983 1.5742197 5.913661 6.5642734 2.3989434 4.10154 -7.619807 -7.6619086 -7.5880346 -6.7506266 -2.2106895 0.5484765 -0.5286168 -0.23004943 1.5760225 12.743025 7.3671527 4.39076 5.1954412 0.68827957 -5.8619733 -0.3434033 -9.796818 3.494224 0.3740537 2.3661323 6.9213963 -7.492771 9.284304 2.2987964 2.0427766 -7.768999 4.4159245 -6.030322 8.344858 -3.7593162 9.682154 -6.6811786 -3.6778693 -0.8254855 -5.1159797 4.0706253 13.216517 -0.86593294 7.07154 -0.56742424 -2.3100586 -1.6680617 -0.9981345 -1.96371 -9.265283 7.2614164 -2.3945382 -5.6074533 4.58396 6.821369 4.3456964 -11.178991 6.8520875 -5.772158 5.473111 4.707201 1.1834608 -16.605331 2.7306721 -2.3809605
basicLevel_2.0 3.6817014 -5.273797 2.5707135 4.3432713 1.1614 -1.3168801 1.1228744 3.5240884 1.3631488 -5.4070945 10.990678 1.3531784 -3.2809536 -1.9519672 4.673975 -0.7344877 12.360983 7.455019 4.030649 -1.6534082 5.0359774 -0.112333074 -8.143121 4.819316 11.251841 0.42706424 1.7343785 -5.803265 -3.9009247 -3.9686687 4.6470156 2.9867513 -8.574616 3.550508 1.5286185 11.972109 -1.1700716 -6.915851 4.745573 0.51723933 1.3504424 -1.1147287 -2.2329137 2.8347428 4.7138143 1.5290169 -4.7416153 -0.54928035 3.1709492 -1.0312668 -5.588144 4.9960566 4.3152394 1.0434984 -6.3152404 6.523397 1.3719649 -2.9201658 2.473887 4.202848 -4.3658814 1.473315 3.7144876 -0.6340834 1.9157063 11.473973 0.9276883 0.075583026 11.039575 7.326008 4.1473417 -0.7901147 0.37001935 2.7260196 -1.5740331 -0.2024478 6.498677 -7.5249376 -5.6873617 4.0877104 -10.033578 -6.0718217 1.0491643 3.0785544 8.974532 1.9049467 -2.1396244 -3.6801143 -3.6993835 5.283381 -0.12471134 3.1000874 -0.32040343 -5.2591743 -3.88766 9.788095 -0.7268135 -0.69653726 -6.8037686 -8.311298
linkRela_0.0 -10.7551565 -4.68992 3.4348245 4.022528 6.5432253 1.3715836 -3.7465038 -10.585597 2.994965 15.623484 1.8097878 -8.502094 -5.83086 -3.7452526 -11.507405 0.36853796 -4.9625764 1.5772454 -3.8967226 4.8549733 -6.3946924 6.2850885 4.505539 1.0425011 6.9309697 1.2712945 -4.1810346 -0.47753453 6.9239936 11.718715 -4.374008 1.0349947 -7.900659 2.9572918 5.35569 2.1250632 -4.2751036 8.496523 -2.0649378 -5.9352436 0.19080839 4.5848956 4.759704 1.4477134 6.774469 -4.2769384 -0.44285718 0.936148 3.4285586 6.873701 3.2786553 2.8773842 -10.415469 -7.849106 -0.8218051 8.859783 2.1636024 5.600431 -1.0585115 5.035271 -6.251827 -1.0154351 -6.7683167 4.488266 -2.2184925 9.574128 -0.78864354 -0.5910023 2.5102494 -3.487771 5.033856 6.0943346 2.7295957 -0.7379454 0.92864513 -3.2130115 -0.104946 13.876873 -8.215855 -3.027442 5.578531 -2.3900194 -4.4927025 -12.599192 0.26929915 1.958752 4.7424574 -9.51692 4.4982276 2.364885 -4.0866423 -0.068959825 -4.5974607 -1.0879376 -6.7014294 3.3725526 3.3358846 2.688179 -5.478648 0.3800651
weekday_6.0 -0.87882626 2.8883612 -5.558658 -3.7424505 3.2464259 6.9450274 8.274465 -5.718094 1.3759098 6.5808053 -0.61697054 -3.9049518 -2.0409405 -1.6874071 -8.705037 -6.170365 -3.89334 -1.3562199 -6.5565686 3.3518293 -0.6176047 -3.6945066 -0.7464482 -8.227836 5.544815 -1.8433481 -16.653101 -7.2795277 -3.1044326 4.4175353 -1.3508384 6.739842 2.184097 0.82960063 -4.8274927 2.6162949 4.757356 -3.1631434 -0.7093444 -4.159212 -0.6845727 5.032099 2.2981172 -5.0411363 3.779248 5.744813 -6.458698 0.45380017 -5.3368206 0.48706937 1.8071754 -0.7804826 -0.7894244 3.2028594 0.4885476 0.86049676 1.6948154 16.90527 -1.0914183 -3.7241273 -0.76537836 4.4199686 -1.4659681 -0.44857475 9.11621 4.791901 6.491259 -4.747684 2.0336292 0.1327961 -5.1192517 1.8784292 -5.1431127 -6.9481997 1.7065873 7.2725205 9.885426 -3.230908 -1.6235878 0.05338883 -2.6750329 2.0994053 -2.392178 11.228528 6.828597 3.2053943 11.114358 5.7765036 -1.7300507 -9.391588 -2.8194644 9.140654 -0.66937524 1.6060365 2.642623 -14.7304735 -2.0562599 3.9568868 2.5977678 -6.5995736
linkRela_1.0 -10.555578 -5.178594 3.6933596 3.9532006 5.7690425 1.263874 -3.6069565 -10.514734 3.1732376 15.428173 2.2934706 -8.593644 -5.913995 -2.9187224 -11.176026 0.17385449 -4.8185086 1.3113853 -3.8273277 4.6457653 -6.093248 6.37974 4.3028164 1.101767 6.7776623 0.87244904 -3.9658072 -0.23197138 7.11809 11.823355 -4.5027103 1.0479555 -7.72107 3.1185908 5.3771043 2.2400143 -4.6338563 8.437779 -1.795229 -5.5393643 0.16029195 4.246 4.770927 1.2362123 6.511171 -4.291523 -1.0579236 0.82245463 3.8402455 6.8306217 3.3709607 2.7556853 -11.061267 -7.665613 -1.2424195 8.526018 2.1916714 5.312861 -0.81278986 4.860439 -6.1146007 -1.3706943 -6.7498474 4.679966 -1.9370325 9.134405 -1.2261133 -0.93861777 2.4735818 -4.223097 4.440333 5.8827734 2.0726702 -1.0556889 0.40034318 -3.0797544 -0.34150603 13.933743 -8.058983 -3.4522424 5.7934113 -2.3355742 -4.4993696 -12.424181 0.4798053 1.0489135 4.877803 -9.705435 5.0285425 2.3501427 -4.213436 -0.19314687 -4.460359 -1.6282884 -6.9436164 3.2658696 3.4863007 2.9750896 -5.930251 1.0179653
x_51_0.0 -0.13475056 -2.638325 -3.9974353 -5.360615 1.3768426 0.88768977 -0.9816498 8.019239 -8.978383 9.303619 -7.2171926 -2.884593 5.7051296 2.418573 2.7430334 -5.2960577 -1.6823843 -0.102297135 3.8090236 -6.1482096 -2.0103822 -4.122929 2.7763839 0.7812775 -9.319182 1.4984087 -0.15206696 10.392859 -11.154848 -1.8091167 0.6402438 -0.070693396 6.043026 -3.2686934 -0.8833929 2.5010173 0.4421917 2.5658808 9.422463 11.269064 2.6303108 1.8844131 2.845554 -1.1292661 0.75559646 0.9935929 1.9580196 -4.496307 -1.6327845 3.9935353 -6.4258075 -6.366302 -1.0034356 -1.5904809 3.2368128 -10.029332 1.4964128 -2.7331612 1.27644 1.8714496 -2.6302726 0.34798205 0.8915067 -2.4676282 1.9340539 -2.991959 -2.5187225 -7.298084 7.194054 1.7682433 11.097078 4.272319 1.4990852 3.7171469 -11.48913 0.49311638 5.376233 0.19149859 0.46384478 7.467336 6.628191 -5.824463 0.50386715 -8.848166 -1.778447 1.9930017 -3.9745414 5.9573293 -2.2137096 -4.5185423 4.6362176 3.6667511 -6.136918 3.3853097 2.3925993 -2.4259067 3.0676835 6.688522 -4.9588037 -5.116599
x_75_1.0 -4.864074 -6.087092 1.1579312 1.0105767 5.250887 6.014015 -3.4671028 -8.12931 5.338405 -3.8949003 4.1946993 4.8103166 -1.7557911 8.849108 -2.3456028 1.6869584 -4.1157093 -4.303483 2.3512 -0.7052476 -0.020951934 7.128707 -0.15318653 -7.918223 -2.6546762 -6.48597 0.08127845 -5.4937677 -0.2246701 -1.7467167 -3.7757823 -6.223342 2.2811632 -4.450324 9.352479 0.050614964 2.938805 -5.541581 -2.727299 -3.2471128 1.6952196 -4.00701 -3.152782 -6.3605547 -1.0182949 0.50704414 -0.87777114 -1.5659405 4.274819 4.1383414 -4.540315 5.873299 2.1189117 3.252925 -0.9924429 1.8114245 -7.3374476 5.682748 0.20709087 -0.98194605 -3.2694066 2.556623 2.8531415 2.0161955 -4.8254457 2.2614434 8.122721 3.1341538 9.99346 1.8071003 -2.6580114 -0.2509297 0.5652965 1.2520872 -0.04047177 -5.131608 -5.9578195 1.365234 1.7839682 0.73272866 4.8961086 2.6414447 -0.85660464 -0.98163635 -2.6545663 -9.47575 -9.484351 7.5222635 -1.3213421 -2.3400233 -6.403347 8.824965 1.9741893 -3.4606388 -1.0938026 -5.0118303 -2.1724465 -0.8539745 1.2629716 7.798873
x_71_0.0 -7.41056 -1.5722724 6.336479 -1.248523 2.7361298 3.579163 -13.1661 -1.9460351 -6.853674 -0.5969754 1.2338718 4.890722 6.430675 3.9335504 0.46534702 0.7672461 4.4822984 -7.490925 1.7545172 2.3766243 3.3296156 0.7334509 0.81918114 -9.768304 6.375835 -7.1001005 7.469544 -4.184151 -4.203452 -0.020321207 -5.0209026 1.7654958 -5.6961284 4.0718813 -1.941194 1.9029498 -2.5818348 2.7315567 -6.1546 -1.8421187 0.7528384 5.7263045 6.750702 -9.046021 -5.749358 2.6130657 -1.9704275 3.873792 0.2896941 7.487107 3.1465623 -3.8000596 1.4980792 3.4962673 -0.22947575 -4.5297337 0.03422993 4.646177 -9.815686 2.7840817 5.564617 8.055226 2.843207 -5.2865767 4.7408404 5.29279 1.1266099 3.6562169 -6.363151 4.1005845 -3.2033083 1.1393945 -1.5255635 0.51941854 -0.17113934 8.143427 -7.612558 3.5152197 2.1769907 0.10811297 -3.171576 0.19795942 3.086572 4.025524 -5.0649433 -0.30623907 0.58475727 3.4975388 -1.2688137 0.7326899 3.159898 -1.1892854 -4.3192415 -4.744726 -3.0676844 -2.4399052 2.2528644 0.89124316 3.7249694 -12.099434
gender_1.0 4.104519 -1.180037 2.102028 -3.3982844 -6.5309906 -7.7538214 0.22561096 1.0036263 -4.9504986 -0.66542166 -1.1848679 0.20372117 -0.42995748 -4.3256917 -6.4736104 3.0300753 -0.67183274 -3.4904866 -3.07383 -0.08981809 -0.34930757 0.7188886 3.4422817 -6.7546573 0.26369408 -0.16915695 0.7361642 -0.5217449 1.9749042 -0.30111104 4.6671743 2.0369112 0.8467307 2.652085 -0.12613618 0.39680293 -2.770361 2.5318937 1.0487612 2.2528062 -1.3217292 0.6756731 4.4274154 2.1825335 0.4025724 -2.8486977 4.3818088 -4.0342674 -0.32427394 -9.189571 2.528242 -3.6204767 -1.5443554 -2.7667465 2.4502327 -1.0840781 7.1128297 -0.51450706 -4.6046867 -2.610707 -4.3794656 1.8966086 2.6244535 -1.0505044 -1.9512708 -0.9301922 0.80713326 7.851768 -0.5655134 -3.5937867 -0.47412246 -3.5575829 1.6932135 -4.945261 1.6144625 3.5287871 -2.6907182 -1.4110738 2.5900192 0.34056887 4.044997 3.3728514 -2.7239547 -2.531398 -4.171851 0.98930967 -2.4821587 -1.1613798 -0.8184073 -4.3701024 -1.4760348 3.6198685 -1.2133135 0.024576833 5.2246118 -1.9891194 3.0627732 0.46766484 1.1216675 -2.6777508
certPeriod_315619200.0 6.327589 2.3298101 1.1167768 -0.85417575 -10.042089 0.5745912 5.661456 0.8773903 3.886338 -0.5142438 5.203539 -0.3383612 0.5116473 -3.8595333 10.9610405 -2.7464142 6.8234076 6.362733 -0.5271817 -1.9124471 0.68977886 -0.7829517 2.5091302 -4.363859 -2.8587139 6.0420504 -1.4501908 6.71902 5.5868664 -2.827804 -8.739628 -0.89970887 0.51273024 1.6185488 6.2088304 -4.747633 -9.816983 3.1387963 5.0173755 0.88492805 4.1959558 0.5216056 -0.6104475 -2.9806027 5.239449 -1.9420977 -7.4456544 -9.089973 1.6715996 -2.3553412 -4.90478 1.3208435 4.2893114 -2.7185483 -6.463721 -0.62252975 3.3267856 -8.427617 4.5897627 3.3360455 -5.3712583 0.74602187 0.40043175 -13.730798 -1.3308533 -8.484996 -8.896485 -4.527123 -2.9143941 -3.1330423 1.0240794 -2.2208133 7.6559772 4.095901 -2.5468855 -3.4638712 0.55441666 7.434152 -1.8792877 -5.5620365 6.479427 -2.5624926 -2.492378 0.35512155 -3.371245 1.4990131 -0.9471755 4.773315 3.891107 0.4602014 4.7235336 -0.2609629 9.219012 -2.4240243 4.9354677 3.3815424 -1.4555091 0.93643254 -5.7756524 11.536271
certPeriod_315532800.0 6.152133 2.2591512 1.1584579 -0.84198457 -9.875101 0.59054494 5.500456 0.94670355 3.7563553 -0.63121843 5.4618316 -0.4664719 0.3607914 -3.89469 10.989391 -2.5256917 6.748903 6.536857 -0.6491196 -2.324515 0.1793572 -0.9040725 2.5342836 -4.3862953 -3.066164 5.878937 -1.6264707 6.4780116 5.717857 -2.7539413 -8.3593855 -0.9986673 0.41484156 1.4985917 6.306526 -4.9848433 -9.858833 3.0811362 5.109712 1.0302222 4.324797 0.64342594 -0.48392844 -2.8344243 5.0679007 -2.2286355 -7.6862426 -8.98542 1.8708184 -2.2774966 -4.9955773 1.3120577 4.2298727 -2.6668007 -6.594247 -0.63420594 3.3658571 -8.290634 4.6450686 3.2705455 -5.1710167 0.93781054 0.37552294 -13.518899 -1.2780484 -8.705568 -8.864673 -4.8641295 -2.911007 -3.343533 0.98413706 -2.198243 7.3857665 4.043098 -2.675717 -3.1936553 0.60144216 7.420149 -1.919058 -5.5957947 6.545418 -2.3503034 -2.5423856 0.5171595 -3.08873 1.3183106 -1.0390683 4.825456 3.8175163 0.32386386 4.7557144 -0.0137831755 9.297532 -2.3183808 4.6327944 3.4466443 -1.5524572 0.91110045 -5.7857413 11.558346
x_25_1.0 2.201796 -0.8858189 1.3635712 7.448986 -1.5858101 -2.7437186 0.21655966 0.43451616 0.14998142 -4.6586013 5.8000064 2.3301988 0.11036136 6.9589357 -0.77126366 -1.9586004 9.209164 0.6191172 -5.2171745 2.3931546 -0.148505 2.105953 -3.1532307 -0.6065124 3.2171988 -1.4993902 3.5426006 7.9098444 3.9005253 -2.9121833 5.1472616 -2.5216172 -1.7435803 -1.1759076 -6.917737 2.9787571 -1.4303812 -2.3895266 -4.23664 -4.122128 1.9207293 -4.74821 -2.2830215 3.5199246 -2.0383646 -4.0013537 0.636063 4.955748 -4.2134147 -3.8045373 2.3438919 1.0749279 0.353838 -0.3602487 -4.0214424 8.336518 2.513558 3.4501827 4.5981083 9.274231 -1.7079564 9.292144 -3.5575428 -1.9899262 -7.792454 -6.311557 -6.0382524 -3.4022377 -3.9997964 4.165371 -6.7170677 4.491725 -5.0277944 -1.6692983 -7.1864634 -5.0526757 3.372353 -2.3198535 -6.310273 2.6986647 -9.4729595 -1.9971962 0.39434102 2.4554288 -3.901221 3.2212064 -0.5944049 -3.9278605 0.5061572 -5.3181405 -2.7727215 -3.7174158 -3.8712075 4.0045524 2.5597816 -6.401175 0.9192842 -0.9529231 -1.0633901 1.3159177
x_66_1.0 3.8629987 -1.9648274 -4.128408 1.871608 5.9932113 -3.1295161 -7.918487 -7.3300843 2.977292 -6.475169 1.2830312 2.0354273 -7.4248366 4.813124 1.3903219 1.6379732 -11.951474 -0.910834 -1.6380775 -8.496552 -6.170825 6.022175 4.847135 6.6447897 9.000104 -1.7686737 -11.747163 -4.175343 -8.198588 10.218184 2.6161587 -1.4943097 8.789273 1.7529893 -6.723121 7.2939315 -2.8092732 -2.774579 3.9268632 -3.8202853 -3.013372 -0.46381965 2.6883562 3.945543 2.9559963 0.38559586 3.8540897 7.5060945 2.1780338 -5.5047474 4.311159 -5.6132865 3.9125707 -0.48546514 0.75922567 -1.6074756 -3.0429304 -4.3538685 -2.89356 6.6519647 0.39181912 -0.4687273 -6.3044624 -2.973508 -1.3083305 4.4218554 -1.6633557 0.83258295 -4.07523 2.7642136 -2.6255627 -0.16895369 -8.12439 -0.72235805 -0.120559506 5.8680115 -5.4565578 2.502406 6.6275253 8.831617 1.1622638 5.816391 -0.22946614 -2.3388238 1.7325071 -2.7184458 -1.5353891 -3.8129938 5.819089 -3.490276 -4.405716 2.966988 1.5335265 1.4451317 -1.9265872 5.277702 0.39305508 0.5845948 2.0928843 -4.9901757
x_61_0.0 -1.7615652 -4.545418 -4.260661 1.0623744 -3.7508013 0.86825866 -12.909923 -0.4412427 -3.5619419 7.074164 -6.437601 2.6073256 0.9732733 -1.3783855 8.4110155 -1.7277912 0.016181821 -0.9379462 0.8581799 2.0615883 -16.04694 -0.61201525 -3.8619466 0.7961259 -11.202716 -5.2059937 -5.370869 -0.8382631 -1.291997 0.87941986 -0.50518376 1.9698687 -6.6955733 4.956346 -1.0168036 -0.19382983 -3.9761906 -2.2849076 -6.6212687 11.454495 4.1479807 1.991829 -2.9223647 5.34365 -7.635168 8.901907 4.3164945 5.9587193 2.093693 -2.7447155 -6.2884264 -3.5907671 5.2729745 -6.1878967 9.122396 -1.5493996 -0.56196326 -1.9724767 6.1816688 -0.6422608 -7.3545785 3.6782455 6.0512047 2.5445547 -0.37476805 -2.71341 -3.6877499 3.1374412 10.008959 3.8264527 5.7323623 4.488936 2.916514 -5.721149 -13.73899 3.2643144 3.6557953 3.3060749 -4.05078 -6.8350573 -4.312094 8.610089 -6.887874 -10.786702 -2.246868 5.9757075 -6.177445 2.6317236 -4.137167 -0.4578036 -6.109264 2.6864653 7.285794 -3.5517085 -3.3078654 -4.5445347 -0.29235563 1.0972369 -5.731558 -5.851892
ncloseCreditCard_0.0 -4.43852 -1.3577737 -2.40607 0.7705452 3.0172698 0.64567834 -0.8542829 -3.3963711 -3.822968 -4.110768 2.9244523 -0.18972734 5.429732 0.88643813 -2.7536106 -0.24806757 -1.234138 1.2644265 8.752077 -3.9490285 5.822249 5.703644 -3.2100217 3.6582417 -0.37409368 5.139251 4.3034606 -1.243443 -0.537524 1.9190346 3.884928 -4.2936935 0.9502775 -7.235421 -6.8702674 2.9305737 -1.0890179 -2.6742423 -4.344714 -3.2642357 2.1540463 1.9175358 4.505141 -6.231642 0.2606238 2.5172458 1.7482867 2.151466 0.27884656 7.033401 -4.266287 -1.8767672 -7.9198194 3.081083 -1.5795895 -0.09783568 -4.4004784 -0.28385398 1.9468151 -3.7639227 11.295293 0.7884327 1.5376345 -4.1004543 -3.1498158 -0.73613864 -1.4707433 1.6457102 4.6436687 -2.191024 -0.5890017 -0.6803605 -4.423476 7.965749 3.5739512 -1.5491985 -2.7508743 6.203757 0.8717214 -3.675001 -5.285847 -4.8398514 -3.0935152 -3.7106936 0.4235586 -0.7596467 1.2928513 1.013188 -3.385604 0.18928307 0.92510766 2.2760901 4.567578 -0.5924263 -0.849661 -2.2771251 -0.5254916 -1.3360844 3.359617 2.3055754
job_4.0 -1.9358727 6.089859 -7.8611856 8.774649 -1.2569855 -0.29286128 2.6776216 -0.016117888 2.149297 -2.6449533 -6.0559173 -0.8959558 5.326971 0.9542034 2.685873 1.2217256 -0.6206035 -0.23387185 -2.3208594 1.9696734 -5.7800317 9.712001 -1.5173146 8.759424 -5.590377 -6.5150175 5.9968204 4.684174 -0.72465867 -3.5638165 -4.150637 1.8314034 3.3017726 6.430434 0.02372712 2.6468346 -7.14297 -0.19935648 -3.2848368 0.3325736 1.7088835 2.3625655 -1.1436733 -2.016055 4.2119436 -0.1569236 -6.075213 1.152106 -6.783461 1.946446 -1.636646 -1.7972203 2.0816693 -0.16961011 3.0429466 0.06861003 -4.8066745 5.1632686 -1.2917557 1.5473568 2.3878 -0.81206244 -1.6414213 -2.7014592 -4.838662 -1.7949021 -2.812451 2.5172338 -6.7592516 -4.770351 -7.254027 7.8206787 0.35415703 2.1301184 0.31002933 -2.7631512 5.243573 -5.5867476 -2.0658212 3.2419276 -3.4458716 -1.8416244 3.6340537 4.2383876 9.949656 2.4745548 -1.4809542 -2.2650337 -3.3778028 1.1883466 -5.4321494 -4.607547 -5.346103 1.8731296 -3.4223828 -0.88059294 2.5808234 -2.3652155 -2.1544032 2.484327
loanProduct_3.0 8.245747 -7.750265 0.42352682 -9.7853155 -6.822702 -7.5779734 -2.3260756 3.3973815 -8.571749 -5.2934065 -11.370766 -5.5849695 -4.1706505 2.4745646 -2.1800845 1.2800494 -3.9269378 -0.15048759 -1.2647291 1.0022612 7.809046 -10.388666 11.448106 -10.346825 4.9757066 3.378317 2.446746 -0.5386615 -0.4484198 6.1109715 0.2676093 -3.7185085 7.893452 -0.88936454 8.18458 2.8536317 -8.796408 3.043292 2.4273314 3.3080423 3.6686277 6.6888824 3.2484946 0.0129223345 -4.5772724 1.0617167 -1.0910934 -0.7178572 4.689508 -0.25440893 1.0885223 -8.524245 -1.6689416 -5.272413 0.51515704 -0.7052449 8.496972 2.0321918 -4.122946 -8.631634 -11.715395 -5.463383 2.0483737 7.877423 -0.71517694 4.0519066 -7.134293 11.52859 6.312944 -5.84657 -2.5740235 -2.1575906 -1.2234073 -0.5083428 -1.4386888 3.9626536 -4.5209103 6.490526 -1.5461004 1.0634813 -0.3533129 8.954383 -2.278239 6.567649 -9.524409 -7.4822464 -3.3662355 -4.2672615 0.71646833 -2.7462928 -0.7583331 9.519111 -0.945845 -7.0947695 -1.3993804 -0.40548512 -4.12389 7.483737 5.0457473 2.8751905
linkRela_-999.0 -11.707199 -4.3759217 3.1456256 4.6112204 3.7790532 0.46942773 -5.45314 -10.3321295 3.5395691 15.310874 1.9290372 -8.464398 -6.256841 -3.3429456 -10.846864 0.94413805 -6.245816 0.55653054 -3.4760444 6.436918 -5.445439 6.1412826 4.861947 -0.4549005 6.822342 2.0977933 -2.9557261 1.1969069 8.509429 11.479903 -3.2922342 0.109357364 -7.0461936 2.5844371 7.2287602 2.5558772 -4.896866 6.5111847 -1.9533093 -4.018095 0.79659206 4.6084285 4.985388 -0.20127547 5.454078 -4.4781647 -0.551274 0.29638204 5.1528883 7.181258 3.2431545 1.4245062 -12.109825 -7.959395 -0.8739097 9.256033 3.3461761 5.824458 -2.019867 4.3933077 -6.192753 -1.286953 -7.3020077 3.0990946 -0.5562463 8.515844 -1.4363377 -0.81461346 -0.52151763 -4.090039 5.736152 6.3897896 2.4018312 -1.5106102 -0.21335451 -3.4864728 -0.33663073 12.49097 -9.045706 -2.2213583 4.5618668 -1.9235538 -3.5512702 -13.517918 0.8393722 3.9786868 6.360006 -9.5081215 5.876061 3.166977 -6.4559307 0.26855236 -1.9147569 -0.275527 -6.125043 5.2491097 0.8728124 4.890058 -4.309875 -0.7421244
job_3.0 -1.2840756 6.5361934 -8.109531 10.156612 -1.1657735 -1.4723871 3.3496406 -0.2432205 2.1266563 -1.5275842 -5.243786 -0.61498445 5.2310524 -0.13782784 1.9492671 1.515411 0.1385353 -1.5480012 -2.3860404 1.0315015 -7.119194 10.288713 -3.295276 8.786669 -4.955586 -6.679751 6.210315 3.95706 -0.9801915 -4.8242936 -3.6943052 2.0943522 2.6028438 6.585246 -1.6460024 2.5660532 -6.767037 -1.7580448 -2.9882681 0.11905077 2.015328 2.7875595 -1.0441481 -0.56164765 3.8378456 0.4826504 -5.8264127 1.0204861 -5.236973 0.9945121 -1.2432443 -0.38750303 -0.31724826 0.23204412 2.7768345 0.9776091 -5.6227593 4.8292866 -2.227734 2.758466 2.818607 0.5926817 0.3393921 -4.659467 -4.337454 -2.4462008 -1.5445993 2.416192 -6.2777753 -5.3292966 -7.8508406 7.6864543 1.8269165 1.0201845 -0.10662445 -3.6226394 6.4805727 -4.536749 -0.1286079 3.154929 -1.6407834 -2.3007522 2.9258347 3.4956098 10.121401 1.8947223 -1.1152785 -1.7251158 -2.879418 1.8746165 -5.7740226 -4.471863 -5.133245 1.2678435 -2.23995 -0.20943107 3.1470976 -2.5182276 -1.339746 0.6025816
x_14_1.0 6.7968807 4.478948 7.0281444 4.7363844 1.7140495 -3.1801736 0.058130175 -0.5270809 2.8901193 -4.536632 8.10891 -8.115623 0.78602487 -3.8135579 1.8227609 -0.13219486 0.33114186 -1.8502176 -3.7128007 2.578869 -3.1498437 -1.9441736 -6.9281645 -3.336833 2.9501715 6.9339204 4.445771 -2.6090596 6.5190306 -3.3759243 -1.3618107 -1.5057412 -1.4224298 2.8771439 -7.3404574 -2.8293676 -4.6897335 0.61871207 3.9899156 8.140292 -2.406244 -7.627806 -5.4445863 -7.136799 -0.11609304 -2.29236 2.239149 3.253924 -2.173746 -0.9157919 3.7936134 3.8699868 3.1757958 -1.5519398 -0.6260199 -1.3085293 4.460863 -2.1784098 1.3849219 0.49773854 -2.2456114 1.4767919 -2.502429 1.0730001 -2.039798 -5.834782 3.1725206 7.723673 -1.8391167 -2.5456553 -1.0008414 0.86870956 -2.706964 0.6783153 2.1034667 2.3105268 1.9311386 1.3543788 -1.9012755 1.7206875 0.5130539 4.53088 7.011789 -0.9762666 5.8447733 0.8378255 -3.3375988 -6.348642 -7.052638 2.405216 -4.9187355 1.6555911 5.1605654 6.4569993 -5.6996465 -8.681484 10.467783 0.20202667 2.3517468 -4.6179056
x_33_2.0 -2.272836 3.232388 4.6817603 4.459015 1.8377934 -3.8993936 3.5131109 2.4959028 0.14773503 4.5780253 0.3782881 3.360019 -1.4679508 -4.3102565 1.1036419 -0.2592598 9.524533 7.293419 -7.0655065 -2.7631905 -8.518413 -4.7121367 -12.031252 3.357169 3.6523213 1.7826822 0.029294569 0.7218549 -4.0005846 1.3418173 -4.072007 5.247233 9.977197 -3.4447565 -5.4138165 -3.591085 3.0932574 -4.4225707 8.24725 2.6920776 5.714503 9.61232 -0.7909712 -3.5595446 -3.2216477 -1.7417341 3.55329 -4.686093 -0.71145695 3.669034 7.346109 3.631633 -11.701857 1.0164202 -1.0917145 6.0674915 -2.9793153 2.2434137 7.7085085 -4.477516 1.9612371 -3.5671432 2.8632092 4.175323 9.990211 6.060122 8.194939 -3.298601 -3.0038877 5.7610636 2.074711 -7.116097 2.649393 -2.251377 1.9386336 -5.634668 -6.6927385 -6.0445476 -1.1995013 -2.6933203 -4.700629 -7.0713487 10.072194 -3.1707647 -6.858842 -1.9439578 -8.193603 3.5390801 1.5557029 2.9147887 5.0174236 0.5918249 5.5204835 -0.86868614 -4.761717 1.703427 6.91173 5.2540646 1.9565911 7.5126143
weekday_5.0 -1.1108857 3.4888425 -5.036225 -4.2689342 3.7145026 7.4438186 8.237766 -4.9971514 1.3072792 7.4408536 -1.6436241 -2.9053068 -3.874881 -0.3173712 -8.5782385 -7.071258 -3.8104627 -0.08288827 -5.6105475 1.3882451 -1.0464512 -3.9971466 -0.554591 -6.9242477 7.123079 -1.0302361 -17.496958 -5.082118 -3.1706843 3.1247714 -3.579364 5.469891 0.8005362 0.85469407 -4.1204047 0.53013116 4.431749 -1.336725 -1.6612109 -4.175254 -0.25669298 5.8895044 2.4037468 -5.359779 3.4444017 5.2251654 -5.9008408 1.3391404 -4.789429 -0.8889797 1.022823 0.9499767 0.5465569 2.0432966 1.1990825 1.8855871 2.42185 16.484125 -0.29734224 -2.6768875 -0.23615977 3.8953762 -1.4101517 3.065665 9.558046 4.180794 5.6502314 -4.228671 3.09552 -0.35331324 -4.397804 2.084496 -5.281855 -5.835319 2.802527 6.281118 10.8739805 -1.7859188 -1.2498181 0.35271463 -2.734756 1.3219677 -0.88423526 15.574081 5.728061 1.364019 9.709331 6.2012997 -2.8549664 -11.32828 -0.9324024 10.015596 -0.75829065 2.0544167 2.0315814 -13.793764 -2.0360904 4.7871017 2.5159736 -7.329611
x_50_1.0 6.560208 11.387617 -5.159491 -9.818472 -5.084048 -0.43491334 -0.6608881 -8.752122 -6.458137 -1.7293915 -5.642303 -6.63044 7.561964 -4.4396 8.977518 -0.5020969 3.196664 -1.9298308 2.4980137 7.3579717 -2.7758095 1.7950566 0.5544532 6.1446247 0.45254764 0.6153285 7.218095 5.262439 3.6585617 -0.062898695 1.2924563 2.3809154 5.189068 -5.745447 4.2614293 5.4688606 6.659409 2.9390535 11.441297 2.152823 -2.848093 6.0120406 6.918877 5.2994266 -0.6162825 -3.0358982 8.68943 -10.064307 -0.78521436 -3.7422588 2.440685 -1.9456372 2.8900557 2.5504549 -7.284581 0.4882403 -5.61882 3.1781526 -4.2149525 2.056004 2.813002 3.1171358 -0.025549712 2.2881336 -6.4014544 6.9542413 -2.8108199 3.5076594 4.6021557 2.05518 1.2950267 12.311002 0.17798772 5.2080727 0.5803506 2.4933798 -10.9162 3.965877 10.137616 3.4685705 7.4792523 -0.58314073 11.476929 2.8394232 3.1033254 -3.2824368 14.9970255 2.8232453 4.5690107 -7.5608673 16.918392 1.8027191 8.308401 -0.44274 3.9987128 -1.2119206 -11.106715 2.0412738 -7.1968675 0.5247982
