1798 100
x_0_0 0.19023779 -1.2243133 1.548936 -1.0091077 -3.90155 -1.6367987 -0.91353583 3.6590316 6.0918975 -2.0881572 0.77315617 0.8050523 1.7401519 3.7555072 -0.9233695 1.9469342 2.2653968 -5.3044167 1.5526632 -3.3252857 -2.478517 7.8940525 -2.0706823 4.6643934 -1.6328636 7.2789164 -0.80154544 -5.0772 -2.0572138 -1.9527329 -3.7368796 -0.5084807 6.0954065 -2.4920855 -4.7126236 -0.5260857 0.6844782 -3.9222703 -6.55279 -3.5953193 -1.6060566 -2.1948822 6.22126 -3.018454 3.353295 1.5232255 5.862338 1.5052291 -0.11938799 -4.7396955 -3.5734386 -1.2540985 4.1842837 -1.0439143 3.9078286 3.7523122 -5.359932 -1.9112853 -10.166064 -0.20854756 -3.547565 2.362045 -1.1849905 1.996264 1.8845806 -0.1718075 0.94899917 -0.90884906 1.9320856 2.6904538 -3.6557677 1.8887389 5.2928023 -3.4983149 9.147851 -1.3146297 -7.687132 -3.5690596 1.7158104 5.51668 7.2622833 1.7988006 -4.4807563 2.3701446 -15.368576 1.3303088 0.63527685 2.3718224 0.40927297 -1.7561202 3.2381833 2.7208986 -2.5888784 -2.502764 -3.427369 -4.545084 2.1212766 2.8395295 0.6971653 -5.276489
x_1_0 0.3705086 -1.4810679 -4.0489726 0.026938314 -10.9618025 -7.1143847 6.008184 3.5715735 0.9179272 3.1730235 -0.5301405 0.7345283 0.7895577 -5.280334 -1.6340766 3.2305686 -4.6867023 4.5044103 -1.9697385 -3.6535861 -2.7800136 2.9405155 -2.1731749 -0.4825848 -6.3172255 7.7828627 -0.3369125 -3.1672804 -4.8559113 -1.1892242 -1.5623538 -0.77958316 -0.86321604 -7.423702 -2.0304863 2.5672297 1.4012188 -1.6984146 1.687783 -2.9207854 0.76682574 -1.4167644 2.9046555 1.4465624 1.8896037 1.870301 4.0468516 -1.8702402 4.8714437 5.552771 -3.6373637 2.604998 6.6251397 2.7098145 2.5214062 8.201867 -2.1100085 -3.2631948 -1.2293341 -5.8132386 3.51314 -0.44001052 -1.6731892 10.229297 -0.16095944 -0.1587217 -3.8431747 -2.8087032 -3.0747705 2.7782314 -2.147186 4.0126085 10.345526 -6.238622 -1.70738 -2.173973 1.2555468 -0.7564032 -2.8770866 6.9197197 1.9349042 -0.28001127 6.737896 2.2613437 -8.69483 -0.4311525 -1.4162465 -5.7016706 -3.0457013 5.531239 1.3434846 -1.3283265 4.875497 -2.0105116 0.6628656 -0.9913259 1.5330137 0.84842134 -0.35718066 -1.1816044
x_2_0 6.7779384 0.068841495 -5.1763535 5.631801 -5.122958 -8.582106 4.497906 2.66702 4.5345697 1.231924 3.2745066 0.9542031 3.399083 6.821439 -5.7989044 12.594945 3.167607 -4.959201 -2.5092518 -5.9540277 -2.1073506 8.824907 -3.3483722 3.9712665 1.8304048 -1.1421636 0.67173064 2.2947035 -0.3352124 -0.75240326 -5.2878532 1.8051057 -3.045895 -6.9179897 0.8398414 -0.34193343 -2.0106688 0.14112595 -4.242626 1.2798766 -2.3948278 0.33047804 1.778614 -1.7756269 5.3934474 4.610712 2.8470833 2.2696395 -0.31884202 -2.5093358 -1.6326386 -0.78072155 4.9149485 8.126601 6.1598363 5.0191245 -1.2045498 0.2227059 -3.3857753 -3.2158632 0.36060518 -0.32303327 -3.6955032 3.3815498 3.5580943 -0.26280686 1.1629398 -0.9467317 3.087212 0.79759365 -3.5737627 0.032535985 -1.2440451 -2.6023965 -7.6669497 -3.1360087 -2.6878312 -1.4126716 -1.3593746 0.18089132 4.0468216 3.9348595 2.2603674 1.5265355 -0.18765202 -2.353507 -0.18983607 -7.356607 -3.0859518 2.9121068 -2.5073662 3.2761786 -0.19972894 -3.337952 1.1793808 -3.6510837 -1.1709015 5.5507164 -0.8786135 3.9471922
x_3_0 0.0045394115 2.6863246 -2.804754 -6.5006323 -4.330007 -5.012411 3.4968092 -0.83648473 4.310373 -5.6354647 -3.3272526 3.1567671 6.6699724 5.3339605 -2.8062108 6.8909197 -0.76487815 -6.1243634 -2.5050397 -3.9837942 0.5241352 4.4371934 -2.330224 -0.27691603 -5.865984 3.6140282 0.302818 3.893311 -1.1732184 -2.296833 -9.747572 1.9936507 3.1205783 -0.3497286 -0.111848086 8.897046 -3.840739 -1.3326964 3.472745 -1.8002179 -2.8351927 -3.9785004 0.4891744 -0.6428866 4.857941 0.78573316 6.7825685 -1.6293787 1.6464983 -3.9708326 -0.6756678 1.912916 -5.862031 4.3837986 1.8257703 1.1516575 -4.6163654 3.2765725 -4.7283626 2.3748806 9.184911 7.3612742 -2.9257557 5.4769845 -1.76039 -0.5468201 0.27180803 -1.1109462 -0.7101557 -2.5500565 -2.3312633 -1.404954 5.775231 -2.2981315 -10.450669 -3.6591575 -1.7704467 -3.7644584 -1.2271 0.9556242 0.09879468 1.9372584 6.271028 -2.856469 -6.8500843 -0.78046036 -1.1906054 0.36002898 -4.655713 5.042287 -4.080933 0.1267986 -0.5964357 -2.4354208 -1.9850771 -2.3521605 0.9905916 0.75746536 0.21702093 -3.0314834
x_4_0 -7.3033075 -2.5804029 -1.3991827 0.7598065 -4.887766 -2.9890516 2.7292025 -7.4497213 5.3752213 0.3312865 -0.06648276 -2.344269 -3.017628 3.080948 -7.9296002 4.4940805 0.16352424 1.2546762 -7.3797054 -1.3512158 -1.449877 1.4328865 0.5000128 1.2126102 1.0044572 1.6029066 -1.4506465 2.3712997 4.3908515 1.9386678 -1.9477675 -1.3181229 4.706789 -6.879292 -4.3692627 7.3382244 -0.67811006 0.04599545 -6.591276 -0.14113101 -4.8578568 0.94686246 3.2082076 0.76919657 1.319975 6.40115 -1.8833616 4.9722576 2.4346488 -6.673892 2.3449721 6.793368 -2.2034035 3.0587218 -1.1727569 -0.24285653 -3.1781285 0.0065028337 -9.205662 1.0881859 4.0530224 3.8428888 -1.377348 3.1699667 0.51152354 -1.8434441 -1.765445 -3.4471014 2.3966362 -2.7289662 -2.8033495 -3.5467234 6.3562174 -8.7662525 -11.169744 -0.6485717 -2.4587097 0.5835101 0.5409055 4.2807016 1.7453917 0.89582413 1.7276549 0.41264302 -4.2224603 3.7145495 0.90845466 2.919007 1.997453 7.9444237 -2.855792 2.1729176 -0.46481296 -1.6775815 -6.1485624 1.0299472 2.4213712 6.621671 -0.8860816 4.794406
x_5_0 -1.2104481 1.2747136 5.5783906 -0.53442335 -10.531411 -4.317217 8.909336 -3.1802905 -0.39748755 -5.6465836 -1.4371678 -2.1202056 -3.1240954 8.69255 -2.2761917 -2.0189612 -1.1108408 0.6501909 -7.0007477 -3.848377 2.575977 0.93533057 4.759039 2.4117587 -2.5408878 -0.9022694 3.8758173 -0.661837 5.291023 -4.788555 -1.2546532 3.512911 -2.6956072 -5.7727013 -0.580457 2.842199 -2.8017 -2.1083941 0.61767495 -2.9522502 -6.8775897 3.8186665 2.537581 1.7209374 -1.5689771 0.6117143 5.6869054 4.095655 0.56196374 -4.958408 3.040648 6.159082 -0.15106118 2.6983767 -0.68538094 5.379177 -3.9278908 2.824941 -3.9577544 3.5687563 -1.2605753 -3.093261 -2.2382386 2.9673774 -0.6357285 -4.627632 2.391394 4.2714148 4.402261 -5.7787395 4.8062696 2.260771 2.943524 -5.2726207 -8.24123 -8.54284 -0.9517781 0.57552564 -3.3644662 2.494358 4.1956687 2.6325607 0.1782048 -4.0881066 -10.47602 2.1410675 2.1817498 0.88177 -6.8392687 1.6700159 -1.2350464 -1.9006023 1.2755812 1.2861528 -0.6922442 -0.33971474 -6.4168224 3.4100797 1.6514529 1.387113
x_6_0 -5.2223396 4.5495963 1.5095603 -2.3225493 -6.191274 -2.7231252 5.800154 -3.0204773 4.1822615 -4.025672 -1.5450331 -0.41597292 -7.2902083 4.386891 -5.6691675 2.2727344 -4.757283 -4.400577 -3.1253774 -0.50639004 1.5871769 3.4618273 0.37047362 -4.855898 1.5109849 0.36622658 7.4705324 0.02113644 -2.5503728 4.8860455 -6.362287 7.273745 -7.2977376 2.0800273 -2.992714 5.605705 -2.166334 -0.744848 -2.315928 1.6015905 -6.0668097 2.2745838 0.7208919 -0.30423665 -0.9346995 1.6222986 3.0128183 1.6056086 -0.8496121 -6.858916 -1.6921375 4.9395647 2.4653282 -1.1547943 3.942998 2.696354 -0.8179456 -8.321844 -7.971909 0.42713496 4.01458 -0.83309114 -4.517872 2.569126 -5.3396025 -0.42859688 2.7297225 2.4483705 6.2583704 1.5988668 2.124312 -0.33506122 3.8571901 -4.9989457 -3.1116455 -2.4021084 -7.4937387 -5.286825 4.2576714 4.4645815 2.7904286 4.6579003 5.3752775 -5.0092645 -1.3444016 3.6240537 3.2764912 -2.0963473 0.14497098 3.8282125 -4.4375076 1.3267434 8.91628 2.1825294 -1.7863829 2.008297 -1.762319 -3.5478306 -0.97266716 0.4245861
x_7_0 -7.2564344 1.5299219 -1.8530737 0.9528427 -2.8788273 -4.317688 3.5634153 -4.43174 1.614972 -5.4417906 1.1259539 -2.4718506 -7.7613974 9.558569 -4.7393055 0.9398092 -3.052667 0.16096005 -5.524728 -0.96522486 1.9265763 2.26656 -0.626023 -2.8861485 2.2866871 3.6515875 7.1153197 1.0251656 1.3892303 -0.9913427 -5.0729623 -0.14115255 -4.627313 -1.7623448 -5.8243265 -3.844393 -9.769393 -0.8019129 -1.0717754 5.0008245 1.8422121 -6.6342607 3.7226932 -2.3307745 4.5209093 -1.0110852 3.5356338 -2.6140068 1.5563785 -2.844093 0.7683144 4.6517086 3.8459089 -3.4982467 -0.577673 9.206624 -2.7301576 2.2216308 -6.1448865 -1.6252745 7.4773583 -0.73460126 -0.074919425 1.0656724 -4.3552895 3.4973533 3.7644148 0.48515072 4.250182 -0.075513035 2.154583 -2.6926534 1.0378861 -8.397353 -4.5227747 -2.7687507 -3.0429132 -3.4721358 3.3243904 -1.1038047 3.931903 -0.4778925 4.319915 -6.3752837 -7.269279 6.570708 -1.632539 0.21991926 1.5839615 2.6139586 1.3500248 -0.95509726 -2.5975952 3.7701383 5.30125 -3.5439563 -0.8487839 2.1229782 -3.2057328 1.2900652
x_8_0 -4.356407 2.8476832 1.5132036 -2.2186165 -4.3476005 0.9309202 3.2132447 -4.676052 3.5657408 -5.1907144 0.5165424 -5.043504 -5.8264813 2.3979223 -5.0933704 -0.5310285 -5.211622 -2.5815628 -2.964375 -7.7775364 1.4271158 3.5369232 -6.8414965 -1.1171296 1.1732278 5.755293 10.417464 -6.8804436 3.1742418 -1.164387 -6.01562 4.1485224 -4.8321147 -0.9128794 -3.3156724 -0.64926904 2.4365845 -1.0458366 -2.4180584 2.1271389 -4.334466 -3.2578042 -0.76787776 -3.940652 -1.1174749 2.2883518 -1.0903455 2.0945458 4.824872 -2.8003857 1.9379311 -1.3622394 -1.4115541 1.5081322 4.317362 5.136213 -3.3436527 1.3458427 -7.5265093 3.33402 3.6499717 2.9533565 -2.7705412 1.0822376 -5.0034733 -1.932553 5.7351093 -2.8851588 2.242627 -4.632606 2.5873063 5.3640413 0.6625024 -1.391799 -4.0027575 1.0502031 0.31487092 -0.2838942 -3.0898824 5.071089 1.82581 -3.9682348 -2.0992785 -3.8121808 -3.944345 3.69202 3.3846195 -7.01838 -1.7752248 5.9912586 3.733128 -0.035368193 -3.1593068 4.6586366 3.5514865 -4.071587 8.512304 -0.91973674 -3.340532 0.83475256
x_9_0 2.9511313 4.1247754 3.0434453 -1.5424308 -1.0729641 7.580655 7.5657725 -3.152942 2.3296983 -1.2928461 0.31489226 -8.081104 0.8069492 -1.4592342 3.2156954 2.0776918 -1.7658262 -1.3236343 -7.203423 -5.5363503 -1.696143 8.530364 -3.873734 -0.88384813 3.529486 -1.4701581 3.4347558 3.0925 -6.8659115 -0.9470088 -6.5632153 -1.8208532 -4.9809318 -3.0135176 -2.0945022 -2.120688 -5.0900183 1.2333827 -6.96587 3.589987 0.7058309 -3.6603544 1.0981793 -1.7689381 2.6712122 -1.5671573 0.42952225 -0.77797234 5.095192 -1.8150132 2.0269547 -0.31808662 -0.9914313 0.38459346 -0.41258374 7.7483044 -5.183706 -2.6490839 -7.0916195 4.640297 0.8910586 2.1800327 5.2710576 3.7489731 -3.0579622 -2.8825712 4.712063 0.061607912 1.5455223 -3.1558192 3.0810332 5.3403835 5.7235975 -0.7166901 -2.867221 -7.05015 -0.5455834 -2.073813 2.6371746 2.7668247 3.6635854 1.0283775 2.0749059 -2.9636633 -6.337565 4.216605 2.7163038 -0.8051202 3.0098546 4.98561 2.9290068 0.47707474 3.5543175 8.967637 0.09820974 -2.9512665 2.6802526 -0.6049347 -1.0314445 1.0555001
x_10_0 -3.2636368 0.12159496 5.3288603 0.4964836 -5.4858394 2.0622816 2.6212568 -0.3454894 6.0253997 -4.165372 -0.84726304 0.27580294 0.11708672 -3.1620057 -0.41650593 1.7272598 1.2329638 2.072673 -5.5075154 -2.496855 -0.009651312 3.552019 4.2505155 -2.7890644 1.0746293 4.8878593 0.97764313 2.06421 -7.098497 -2.5055957 -7.159841 1.2208399 -5.5318522 -1.0522865 -3.0950673 -4.262161 -3.7408226 5.2152433 -4.3439016 4.7016053 -4.788419 -4.295525 8.5392065 5.2995915 -2.9782705 1.9777277 5.852341 1.7294724 -1.8734385 -0.6399662 4.101968 -3.9149063 2.480997 2.6161556 9.133069 2.2752035 -6.223845 0.87366325 -1.1463928 4.6197305 3.0717256 -0.6518734 0.4289997 -1.4047488 -1.9945117 -1.3574106 4.460544 -0.34077308 -0.7863289 -1.0585878 -0.9190747 3.2544625 -1.5909257 -7.0436277 -5.7749076 -2.9868112 -4.7143416 2.0905821 4.2239404 1.3049858 2.849058 -2.0320973 -1.2777842 -0.41129413 -6.85487 1.9784601 -2.8013515 -2.7610137 -2.592516 9.5595875 0.38777977 4.599916 0.91502976 5.0776057 1.0592135 -4.7246447 8.099941 -3.2168586 -3.758564 0.082227305
x_11_0 -2.3171299 3.116229 -2.2674649 -1.6541954 2.6633463 -4.8621516 5.994075 3.8237138 -1.6594462 -6.42821 1.4471745 -5.736224 1.5834022 -3.218429 -0.501057 1.4234184 1.0823747 -1.9704119 -2.3744388 0.6659654 1.0140506 3.8563712 -2.2445076 -3.2135773 -1.7279806 6.52781 -2.5672994 0.21392347 -0.14827058 -5.730199 -4.3781734 -3.081449 -3.1284437 -4.984298 1.6833177 -4.4674997 2.6491466 3.4358108 -4.6075234 4.3027825 4.0451517 -2.5652263 2.3532937 2.358243 -6.0551324 -1.5094239 4.1186843 -1.0947443 1.1322613 -1.9505241 -0.6869868 -6.02546 1.7451252 -2.7868593 2.7295938 5.5716124 -3.2745783 -2.8289366 -7.565165 2.7885957 3.905367 -0.86332065 2.1819403 -2.3688421 -3.6839633 -1.1178683 6.5198455 1.4841548 9.183665 -2.5367606 1.9462761 7.5797253 0.98191094 -10.2698965 -6.0186005 -0.94194907 -4.4244037 -0.23416808 1.9184946 1.1331981 -0.69919395 5.3285937 0.84780735 5.2739124 -4.2637587 1.1914115 2.8313746 -3.6306417 -3.1262884 5.1231422 -0.08648007 0.12661573 1.9510134 -1.5820814 -4.7612762 -3.9897778 5.3609567 1.1377171 -1.4932691 -1.9000133
x_13_0 3.8124266 0.5473341 -3.8611867 -1.6831057 3.8865788 -3.8160925 1.0792469 -0.25702316 -4.8153615 -3.8018548 -7.4224234 -3.0769956 2.3097124 1.7636325 -0.3798326 -2.6004636 1.9392006 0.97352993 -4.2546434 -2.4621313 -4.943199 3.1211534 -1.0033977 -1.9379789 -2.3485484 -2.3797407 -1.3317591 0.7277421 2.3779964 5.8118486 -6.0825853 -0.8430773 -9.518954 4.0117188 -3.6447008 -0.046156112 2.2159276 -2.522869 0.07918577 -0.895214 -1.1818235 -1.7556202 3.4789824 1.5017959 -2.111186 2.12875 0.3949554 -0.41280934 0.7277302 1.3128695 -1.8600659 -4.156782 4.365357 3.519088 5.184991 6.5871506 -3.2167196 -0.5111033 -2.2463436 -3.8872044 -5.689329 -0.9745798 1.9142964 -0.48723078 -1.3192192 0.2817523 5.377894 -2.2833462 -1.6844056 -5.2238097 -3.139436 3.0226972 2.189065 -7.9160357 -6.4459486 0.05228744 -5.980739 -6.860371 -1.4208872 -3.1766224 2.4024472 -2.2636547 0.22502716 0.5236994 -6.5882616 4.332506 1.8886309 -0.4951247 -0.7885466 12.257415 0.41163385 3.6974626 1.5563728 -5.182712 -7.408584 -4.100614 0.5039669 2.3297675 -2.747636 -4.0830836
x_15_0 8.070195 1.892098 0.8914647 -3.6771128 -3.0992525 -2.593483 -1.2404246 -4.5925875 -5.502684 -4.5800624 2.505202 6.52978 -4.4445314 -2.6633153 -3.1916053 0.32060125 8.0674 5.0066953 -9.095166 0.83455175 -0.5372806 5.1410966 2.7807653 -2.9488418 3.8738604 -1.5009606 2.2856674 -2.9321718 -2.937761 2.4756055 -5.5093884 -2.2492578 -2.2065716 0.2704207 0.9809593 -0.85931975 -2.825632 -1.7323244 -1.2344599 4.403275 -4.9316688 0.8746825 5.0208573 -0.6263324 -5.8800793 -4.8277955 1.7692153 0.42480063 -5.2702174 -5.306306 -5.4219675 -6.6516104 1.8284198 -2.2229397 -0.73761636 5.166231 -2.0251374 -4.1294246 -5.641752 -3.0888164 4.714799 1.425985 0.6407483 1.6024526 -3.336374 2.5498726 4.1893096 -5.213616 -3.2530036 -8.717241 -2.5248904 -1.0566611 6.0619836 -1.1897131 -4.987882 -0.6813437 -1.6629097 1.144997 -1.9010309 -1.4768416 0.5415004 -2.4244034 -2.3888805 -0.13842401 -1.0174497 1.1424782 1.1662705 -1.9486051 -5.267463 6.709259 2.6509058 2.7577786 -0.8976671 -6.473261 -3.6962168 -0.32667494 -3.0733263 2.0307002 0.112000845 8.197638
x_17_0 -1.6592023 -3.1670117 1.6845866 -3.4536524 0.31280717 -2.5252943 2.6872463 -2.1926608 -3.2780824 -3.8986135 -2.9317033 -6.9855475 -3.662158 0.47350034 0.53100634 -0.365686 3.115544 -0.1400698 0.48347756 -3.6263967 -3.1461058 -3.3311982 1.6295862 0.22809137 2.6140337 -6.2277184 5.9273376 2.07298 -0.5370677 -4.387206 -2.8596306 -4.3238397 -7.8930283 -3.455443 -1.2406923 0.92292595 -11.7799225 -6.799632 3.5033333 5.594847 -1.918528 4.535058 9.086184 3.5061347 -8.382925 -1.6095172 -2.0130458 0.7763842 -0.5280087 -6.710816 -1.8738467 -4.2007704 3.9118052 -4.9502096 4.5613103 4.1185875 6.1791854 -1.5456178 -6.3045034 -3.1857398 1.504743 5.2053633 1.4396236 2.501717 -7.6134853 0.8511817 0.9353288 -7.331648 0.014419976 -1.1657879 -5.8022084 -2.9220862 0.24907927 1.5287769 -4.612775 -2.5042331 1.8437614 -0.54296565 -3.6641572 0.4468963 -1.5216622 -0.9011945 -7.4213986 -0.4023631 1.541717 -3.7566772 -3.29643 -1.6783592 1.8478506 5.01248 -0.75092226 2.8912535 1.5642236 -3.291921 -3.7108197 -0.4397377 -0.2986632 0.30471918 0.86429894 4.1802244
x_18_0 -1.629858 -0.072560616 4.821201 -3.7604191 3.0709412 -0.62794447 4.3035445 1.7450118 -5.120016 -9.416609 3.2804494 -3.554181 -4.327851 -4.40046 -3.3768795 -0.6594248 -0.65894383 3.0870905 -2.5326452 -5.740656 -6.4428062 -0.9666938 0.0017457842 -8.383923 5.3815446 -11.225503 1.4410189 -2.052184 -3.0742595 -3.4834375 1.3818796 0.24887988 -8.385652 -1.79517 -5.5216174 0.3939164 -7.630311 1.3590351 0.11700445 3.7402215 -3.974659 -2.4850576 1.8233223 -3.9430454 -4.2491603 -1.5900577 -0.7928749 1.3636056 0.2549702 -6.182788 1.2507579 -2.4679239 -0.12001448 -2.6063702 6.6391616 7.788841 -1.6860727 -1.5138353 0.2372765 -4.3408365 -1.6796362 2.3209138 -1.5915028 -2.387609 -3.2407184 2.258306 4.6264696 -0.82204455 2.5723948 0.5590143 -0.20592001 -3.4044797 1.9497876 2.3307765 -6.1515784 8.141187 4.7611904 -0.92206174 -1.3397679 1.6726484 -2.1159337 0.06437186 -1.8000076 6.222421 -1.2658523 -3.1941166 -3.405207 5.26035 -1.5252323 3.4281046 -3.5418143 5.200245 -3.8802457 -0.07270576 -2.5126557 2.6896803 -4.6414986 2.2864027 1.2149222 5.9331517
x_19_0 1.388262 -0.6896921 2.3872817 -3.9614913 0.1654925 -1.408463 -2.7584317 2.0375962 -2.2695034 -6.4440536 -2.8511033 -0.55215377 -3.8656816 0.45476583 4.5258617 -2.8517528 -2.4967566 4.1978335 -7.609503 2.3434575 3.5157714 3.5135312 1.6463288 -7.395674 3.16619 -11.0563755 8.212189 2.3862362 0.6217004 -1.9086207 -2.1559277 1.9582064 -4.153782 0.063986376 -3.6462963 -7.047911 -1.7882168 0.7792993 -4.1413894 5.099967 -2.0494983 0.90335983 0.33532313 0.8424496 -0.2153581 1.1532333 -1.303014 -2.7237015 -5.1196012 1.514368 6.590385 -3.2982612 1.1268876 -6.3811145 5.056376 2.367554 6.4928985 0.87305886 -10.098487 -1.1410538 -0.7338381 0.977521 1.1225637 1.7696241 -4.050382 -1.0863992 5.2040267 -1.4480982 0.914566 -3.7955942 -5.880324 -0.04185093 1.5261427 -0.9795425 -2.6273446 3.3059633 5.600483 3.2841203 -2.5435247 1.1525396 -5.314166 -4.531895 -4.234151 5.061759 -1.2370625 -5.4294534 1.6671604 3.9122188 3.254983 2.6128497 -9.322835 2.8215766 0.35252213 1.4623141 0.049823202 1.856937 -0.20772062 3.1187794 -2.1349041 4.6757855
x_21_0 -5.294977 5.250478 3.7900438 -3.4139528 4.2534103 8.363655 -0.24880557 5.4949894 -1.92769 -6.149136 3.866237 -7.6948347 -5.465476 2.3429947 2.2094727 -1.7185664 0.72677815 3.9686337 -2.3040137 0.47436538 -3.6848958 -2.107763 4.398177 -1.8261833 7.1205873 -8.1829195 1.0699409 2.1033893 0.34857678 -0.70052314 0.45498797 1.5029612 -4.593259 2.110974 -0.007845834 -0.17694287 3.5095928 2.1405675 -2.3098187 7.005758 1.2745527 -0.686062 5.6437383 4.715505 4.2887473 -7.3033566 0.99983925 3.5933137 -1.5158752 6.175457 0.38123626 -3.7030835 -0.7788823 -5.9961243 3.38645 4.061008 4.870553 -4.5341587 -4.0253844 0.6596901 -3.4701304 -0.12266864 2.1547189 1.3140454 2.4185781 0.979385 5.4772487 -2.2815237 3.3180542 -5.183006 -4.021532 -2.3802135 -0.90614945 -1.1479018 -8.277333 0.97383547 0.63004106 1.0862451 -2.4521475 -0.53852755 -10.1806135 -1.8992232 -8.324366 3.1269586 4.3918757 3.853055 3.0879822 -2.073826 -2.0967393 3.967211 2.188801 6.61641 -2.328136 -2.9911642 4.756734 1.2185351 -1.9273077 0.21539962 -2.9198132 2.080702
x_22_1 -3.474786 2.7020614 0.212448 -0.06265449 3.640243 2.5091307 -2.1569357 -4.607327 -6.3214574 -10.248573 -4.215461 -2.1471286 -3.9686277 -6.656246 5.03729 -2.2138648 -1.3057954 -0.97039276 -3.503374 -0.5408672 -4.897959 1.7998564 4.503286 0.10537474 4.697514 -6.399899 -2.2166538 0.91350144 3.9741778 -0.53810394 1.8177094 -2.2499673 -4.5340734 2.5400803 -0.30362022 0.41161963 0.049367033 -1.2462156 -3.62522 7.1522675 -5.2857084 -5.807798 1.4203521 3.3514466 -5.0085335 -3.33172 0.6258551 0.02292619 -5.2783136 0.2914385 8.673393 -1.1144023 -2.5252504 -4.116635 4.9290404 2.0127442 0.36771822 -3.2998676 0.4663881 1.6252196 -0.97127604 -4.4107413 10.527449 -2.6767724 -4.678152 4.593434 1.2650442 1.8062475 5.1812396 -2.9393358 -4.886019 4.179818 -2.8559089 4.26021 -1.6415353 -0.05681062 1.4822838 0.11192334 0.022489557 -4.5315795 -5.006757 -5.7450285 -4.3961596 4.767096 5.519286 1.1422157 4.3426623 -3.9132257 3.321256 1.8787334 1.8156738 3.5070367 0.18424068 -3.4117699 6.399794 1.5618206 0.67572606 9.288361 -3.0427966 4.4312854
x_23_0 -2.280686 0.9823603 3.3858654 0.8567065 6.858511 7.112769 -3.6121616 -0.84706324 -2.5750868 -3.2412984 1.1006107 -4.89326 -6.671762 -3.6562912 8.183987 -1.3117968 4.8081665 2.2195902 -0.541708 1.2229049 0.9688905 2.4862795 -0.46117985 1.0955349 2.385125 -4.3653636 0.9486449 -3.5872538 3.299858 3.645675 4.430646 -2.7514696 -6.2040534 3.7765937 -0.9418243 0.21289413 -2.8107598 5.0740676 4.5581975 7.463162 -3.3571098 2.522933 4.1450105 -3.0110228 -2.1216767 2.2988567 3.8313327 -0.7895196 3.2404368 -0.37212712 4.920846 -7.7437716 -3.4038007 -4.454227 2.6341736 3.4836407 -1.4137137 -1.7855473 0.093067005 -0.8345035 2.0753734 -1.9449513 6.9232454 -5.0708475 -1.377615 -0.6609475 2.757115 -3.144859 0.627839 -4.6856947 -6.502804 4.504965 3.1732621 -1.9786009 -3.1303675 1.0973539 2.2836983 1.0220307 0.5795386 -15.423269 -6.7816873 1.7239035 -4.853569 3.783649 2.927732 -5.570326 4.7568073 1.6265582 -1.1002729 0.48716757 -0.25105244 8.196352 -1.5075982 -3.4880922 2.391427 1.3800286 0.83779246 -0.7758954 1.4574258 0.9793075
x_24_0 1.4634241 0.27902862 -3.290572 -1.4594517 7.1766458 3.749775 -0.17517743 0.35978115 -4.1700125 -0.16945349 -0.52262855 -2.5258043 -5.114955 -7.7285357 3.420138 -2.5339017 5.6226 -0.948175 -3.5264838 3.8032846 -0.07406625 -0.09027528 -3.967163 -2.4034338 1.7920563 -7.02354 -5.419786 4.983404 0.15762597 -2.1403399 4.520689 -2.310811 -2.0555127 4.521908 0.49284112 2.1098325 -0.11231007 0.65457106 0.72958326 8.57685 -5.351972 4.0558796 9.976124 -1.7237902 0.5779706 -4.222151 -0.08549803 -2.2431922 -2.912117 4.094838 0.908502 -5.7523084 -0.8439676 -1.3416548 1.5073045 6.352043 1.3814924 3.6118731 -2.3740962 1.2299123 0.7306564 -8.134628 2.5089037 -6.118795 1.300428 -1.6883627 2.1339793 -1.5665643 4.2397814 -6.855511 -4.1864953 8.351263 -8.154393 0.7105148 -3.9140599 6.860897 5.016981 -0.18919434 -4.4732842 -5.797151 4.901158 -4.5392256 -7.065552 -1.3439065 5.281017 -1.7016438 3.0042577 -0.609022 -0.15891099 3.5247262 -1.2309903 1.8385749 -1.1471964 0.96255666 0.2868402 4.3218017 0.48239326 -1.0862973 -1.8838171 5.826628
x_36_0 1.124864 1.1888067 4.501267 0.59374124 -4.3751388 4.5195527 -6.9831977 1.0365528 7.500196 7.3986635 2.7148216 4.492582 5.9715447 -3.0237355 -1.5011233 -0.9926444 -0.0005806662 0.573275 3.0351892 3.9237914 0.82302374 0.5634237 1.3793342 0.33509544 0.5356716 9.1844845 -6.484177 3.0813992 -5.387238 -1.9753065 1.4181671 1.086443 5.5580177 1.2002035 -2.4510558 -4.9203997 -1.9286926 2.7233746 3.7507284 1.5722872 -5.679418 2.1933746 1.3239561 5.9260106 0.0063044196 8.142116 -2.8112965 -2.5071704 1.9130669 2.222467 0.8054629 -1.2873313 -1.9607215 3.0153625 -0.9182935 -8.815202 -0.84561867 0.48537225 3.337678 -2.1120317 -1.6625566 -6.1348286 -2.0261326 -4.7042794 3.7515821 -1.4088123 -0.7842814 2.5694206 -3.9548008 5.359502 7.528154 1.9209678 -2.4183197 6.166038 3.3546956 -5.99391 -2.7717383 6.164217 2.9444795 -1.4293191 0.09957883 -1.8457705 -1.8577417 -4.44679 -1.523149 -2.2090201 -1.3212037 -3.5273495 -2.3233743 -0.044519756 0.0055300337 -1.4103448 -6.9003363 1.4615837 -1.7644329 3.253621 3.7270796 -1.8263173 2.195753 -3.8563476
x_37_0 5.614041 3.011823 -1.5621777 -2.6053007 -3.8659348 2.0317264 -5.624899 -1.5518668 -1.5933946 4.81533 5.830241 5.7774315 4.5349894 -0.8326665 -4.4477477 2.8924775 2.3412917 -0.33424824 -5.844447 2.6684182 0.7380653 1.706388 -2.5381916 1.5636789 0.21448396 7.332595 -0.78142774 -2.131705 -2.475656 1.6058311 2.392086 -1.2850279 8.522048 0.040163066 1.9681915 -0.088765815 2.4400172 0.71781623 7.3158526 -0.62993985 -0.22032031 4.857536 -2.8132246 -3.2030005 -3.7522147 3.266493 -3.7101233 0.91641706 -0.079737954 -0.51374996 -5.712403 -1.1131378 -3.489148 -0.6198198 -7.8237934 -5.5163207 1.817281 -2.5667386 -2.1347888 -5.8789406 2.5600634 -3.3501518 -0.7432728 -2.936852 4.7233725 -1.2425209 -0.625728 0.37059233 -7.2375574 4.97914 6.8214087 -0.82443196 5.1328936 8.735925 4.8560095 -2.9242313 -2.5198517 1.2301023 -1.178091 -0.8803458 3.737672 -0.06513158 2.676633 -6.763949 -2.2525213 3.646825 4.043002 -3.4870176 -6.5858893 -3.8545892 2.7390823 -5.961709 -3.0856864 -3.746725 -2.11462 0.048593886 0.5012283 2.7394588 4.284198 0.8373159
x_38_0 2.463068 0.39944494 -3.4564664 -3.4566782 -1.9264648 0.71921784 0.941849 0.82026017 3.7448816 3.9188845 1.0057123 1.1800748 3.357961 2.5745742 -2.7139423 3.7158213 -4.1640954 -6.068183 1.1975614 -2.9710743 -1.0626805 -0.77192974 -3.4061406 0.9330976 -2.3533657 9.575522 -0.42703515 1.956834 0.512528 -3.7209516 4.825966 4.553332 6.1270657 -2.1812074 1.551378 3.860047 2.025868 3.4839835 3.5907025 -0.743809 2.165473 7.025815 -3.8488176 -0.6038675 0.21665931 6.1492977 -1.0009503 0.7504498 7.5120835 1.0277581 -0.76064193 2.530786 -1.6069278 2.1828156 -6.855926 -6.468325 4.738678 0.4834534 -3.3903513 -8.29864 -1.4358332 -4.634235 -0.70393854 -4.2385983 -0.47358474 2.3937871 1.72371 -2.727321 -3.6714923 4.2699847 9.190784 -3.583135 0.4200069 5.92177 9.181109 -1.7292743 0.029439572 2.1588085 -1.5923504 0.49742058 -1.5642337 2.3904276 3.4730165 -5.2494006 -3.5819137 -1.0281938 -5.147153 0.92956245 0.2450929 4.750864 -2.144662 -4.163299 -1.5999451 2.4367044 -0.14529754 -0.64938045 -5.6946692 6.2938075 0.49674597 -9.940523
x_40_1 -1.8594775 1.2852091 1.4358779 2.089276 -0.82083887 -0.23267613 4.4568644 0.93970674 1.2883247 -1.4327016 7.17631 -1.2079856 4.1439447 -0.13211639 -5.1522703 0.6308614 -4.821679 -2.2197597 0.7542661 -4.157283 -3.8187864 -1.4897636 -5.845091 -3.891959 -3.2425547 0.43455392 -4.807827 -1.8148347 -3.339039 -4.553973 4.1105156 4.611187 2.0519385 -2.3610733 -2.599807 -1.3236618 -3.182988 3.0691204 4.889275 -3.1490974 -0.17345104 -1.2816728 -6.5072656 -8.078264 -0.64776486 6.273157 -2.8916645 0.28400478 4.814828 -4.025767 -5.6977177 3.9224555 -2.9660392 -1.2389683 1.6956987 -1.7627621 0.18800296 -1.4670846 8.566002 -6.062442 -3.3389223 1.2563013 -5.6987677 -4.5785336 3.0193803 -2.141861 -1.7677187 1.1794437 -3.335496 13.887473 9.643927 -3.485505 1.4030012 5.360836 1.6897695 2.9940035 0.34269565 -3.1843817 -1.6067321 5.6149507 0.49805883 3.7718256 6.8611565 2.0774035 -6.075306 1.4185752 -2.2754247 3.681192 -1.052173 -4.5628867 -4.0725403 -4.371503 -7.271121 2.7806895 -6.2055187 0.53946275 -2.013132 3.2700818 5.253971 -3.9162362
x_57_0 -2.755867 0.72855276 -7.5688457 -4.7972445 0.06020116 2.304235 4.1501374 7.029414 0.038054097 4.8925548 -4.66668 5.720197 2.055011 0.014100062 0.96532136 -0.08571239 3.041469 3.1593256 6.903268 1.5733141 -3.0044308 -5.811959 7.5971174 6.771149 1.4921343 -4.6083016 2.0631585 -4.9451685 7.5194273 2.2667844 3.559315 -1.828813 3.31081 5.513011 5.518106 -0.010457718 0.6013903 -2.640924 -2.3407528 -0.44367924 1.4984143 -1.9572043 5.3677835 -4.2175155 0.5201287 0.48516557 -4.477903 -3.8567042 -2.2688925 -2.4089322 1.714038 -1.472208 1.4172649 -0.8411412 1.4578222 3.0488217 -2.894413 4.7512045 -0.42627275 6.5779095 -1.9766748 3.1466515 5.119977 -2.1707582 2.7624843 0.20079185 5.057326 2.2477262 -2.147291 -1.7067525 -3.6678321 -2.1329129 -2.208718 -0.19425365 3.0959916 -2.2453947 1.7997115 -3.1512716 2.7216396 5.5930786 -1.3695989 3.3769126 9.628398 7.1063166 -4.6620793 0.51369804 -1.5256137 0.46529463 -4.7582407 -1.0047647 -3.010006 -2.0394092 6.175078 3.6311738 7.7409472 0.00022351123 5.02936 -5.486089 4.649679 11.325995
x_58_0 2.0042224 -5.183311 -5.8390803 -0.48177105 -4.004081 0.94982463 2.9874296 1.8295487 4.400318 2.1540616 -2.2401853 1.2162938 0.8099389 -1.3429316 -3.6657257 -0.26636487 0.6865262 2.3198364 -2.060665 -5.126947 -5.579366 -4.446481 0.9614583 6.500701 -0.50264424 -3.326612 -1.8738875 -3.5562356 10.580426 0.45335346 1.5140921 -4.629619 -1.4154683 8.789447 5.420564 1.6188103 0.027263958 -2.504179 -0.33789948 1.3135902 -2.8240638 -3.5679502 5.9802275 -3.7831018 3.7882664 -5.5253057 0.30871677 -1.0650574 -4.913958 4.982028 2.4454644 3.1724865 7.302295 -1.6606263 -4.7145185 -3.2136142 0.032464884 5.858433 3.463906 5.6733723 0.73208785 6.330601 3.9578114 -2.7510915 -1.2019187 4.2199464 6.0412087 9.923732 1.6353785 -3.6486936 -5.3023334 0.10926754 2.0493646 -3.435175 5.4830627 2.6793315 -2.3884845 0.6465759 3.4333618 5.5336165 -2.8028243 4.813465 1.3623563 6.2555647 -2.9862432 -2.758106 -4.6565995 -2.9675815 -3.100286 -4.348511 1.9309611 1.33971 5.443605 4.111341 -1.8207017 -0.28127888 -0.36447516 -10.177662 1.528372 6.9444366
x_59_0 4.351311 1.623861 -1.3341099 -0.84776664 -2.5630288 2.204856 2.868087 -1.8345062 4.1350636 0.3616038 -1.9464537 2.2826524 -4.338141 0.5953615 -1.9443336 -1.5387408 3.01238 3.4633167 3.1458883 -4.8859844 2.9739165 -7.5819793 6.6882486 4.5576696 5.6821375 -4.5304055 -0.692835 -2.7234669 6.9508743 0.33793905 -0.84171206 -4.846205 1.9225445 5.3880367 1.3321869 1.342619 4.336499 -6.0677953 -2.1789572 -5.8544426 4.0331593 -6.8541055 6.0357337 -0.08640583 -0.57459325 3.1480317 0.79627705 -3.933223 -3.1700242 2.3451133 0.87367606 3.4511988 6.080002 5.5397706 0.84872496 1.9792207 -1.8418678 2.8436427 -0.90981245 6.4925594 4.0849924 0.44745377 11.147321 -0.06995515 8.207443 7.148589 3.0708966 4.9550657 3.1519902 -1.1256602 -0.9569059 5.006703 4.5118847 -0.29134813 4.9280367 2.5564547 1.3407115 -2.9342875 -5.011737 3.6511512 -2.6953962 4.7132525 1.5856572 1.1302254 2.354603 -1.0439913 -10.758238 -0.6776432 -1.0395218 -4.8336654 -7.7666745 1.7618785 1.3597316 -0.20493537 -0.96283215 -0.7280612 -0.45911294 -10.498019 2.5037868 4.9946723
x_60_0 6.6374803 -2.9194627 0.97705716 0.3773547 0.5295905 -0.20403521 5.0979843 2.5593717 6.5544057 -3.7732432 -5.0465436 2.5980306 0.18295471 0.41165298 0.29547843 -3.5210037 -1.7231749 1.2011086 2.3444455 -1.1329988 2.1932495 -3.9945652 1.454859 0.7757462 3.4603522 -5.0866594 -3.9112928 -6.3974586 6.266735 0.12690063 1.8135237 -4.9590573 6.45372 6.976746 2.481655 -0.34233555 5.765314 -1.2161642 -2.1113892 -3.953981 0.5000278 -4.638678 4.568953 1.6562095 2.4118986 1.0770735 -2.0072908 0.96732795 -0.9762124 5.7208214 -0.45938742 2.772877 -0.29400054 0.46518916 -2.301057 -0.3459748 -6.751315 4.0097766 -2.9024038 1.25163 -3.1744568 1.1762394 6.370184 4.552522 -5.491179 8.54592 -0.93188745 -0.7099369 3.2541578 2.8529902 0.04440104 -1.8320259 -2.561237 -3.6642904 0.06183771 0.8414989 1.4837927 -2.102186 1.4102455 -0.6636908 -1.3713874 4.7002025 -0.9577226 -3.4435835 -4.189322 -3.0219164 -10.866094 -6.282414 -2.864289 -8.107984 -0.8671196 6.1799426 7.9831634 -0.030999826 -0.2677985 -1.0083864 -1.4160646 -9.127778 -0.009524397 14.75304
x_70_1 0.39437646 5.502642 -0.63623685 0.05661023 -3.821243 0.8186686 -1.0350344 1.1563298 4.5414042 -2.452983 3.4410522 -0.26410878 8.152594 -2.9680045 6.634102 2.3106327 5.8073473 0.6099521 2.4367661 0.639881 -4.5725546 -0.4246272 -2.307777 1.3940247 -1.9490651 3.4727707 2.7984717 -2.8053656 1.3456167 5.8596935 3.2360408 1.6625038 0.10976778 2.7055879 -4.4621634 1.5880532 -1.8076624 -1.8008567 -7.2982564 -0.7732331 4.658104 3.0470865 -2.19021 -2.7255912 -1.6842077 -2.9498777 -10.6776285 -5.093048 -3.5924978 7.9761014 -7.1070685 2.5504382 -1.0462166 4.898596 3.391595 -4.7728763 2.3316467 6.02066 2.7755451 -0.8186795 10.400939 0.6293722 1.1265805 -3.1413376 -7.2172766 2.5937836 -8.79777 6.4376564 2.789096 3.3587537 5.3716826 -6.920688 2.1383233 -5.16675 0.35679722 -1.2914054 4.5344386 -2.110814 -2.784266 0.39806736 -1.5216762 -1.5045589 -5.83577 -0.51243234 2.759558 2.2529068 1.0532371 0.77066225 -2.1724625 0.78072023 -0.38058433 7.515607 1.5284401 6.190368 -1.9777226 -3.3576615 -4.738648 0.49130428 -2.4190552 2.299189
x_77_0 -1.4820077 2.402378 -2.464536 1.9205413 2.355635 2.8200486 -4.967184 -8.049874 -1.0924761 -3.4204109 4.128298 -0.7869703 0.12502037 1.3464133 2.8125858 -0.52571785 7.925101 2.9107683 -0.19094282 1.5207692 4.223794 0.12658505 -1.2823491 -6.146369 0.6169425 2.3101733 5.3115463 1.5834261 -5.021558 0.113258034 0.7605247 1.9331383 -4.265523 -5.472923 -6.6898394 5.780022 -2.5326028 -0.47809005 -1.2467039 -6.6855383 5.7117915 -6.660889 -1.7742571 4.9670396 -4.838499 3.0502236 -2.1659367 -5.8103986 -1.0618033 5.09066 0.031100083 3.4708478 -4.076339 8.216459 3.7371356 2.5545805 1.1551962 -2.2471745 -2.7206419 1.544929 4.52465 -6.5096245 3.5698638 -0.9109447 4.640776 -3.0661964 -3.6587818 -0.27900606 1.0748833 -0.55470806 2.9172747 0.19643307 5.1827517 -1.655851 3.7563126 -1.0285586 -0.04820681 -4.3868732 -8.433933 2.238465 -1.607236 -0.7699371 -0.98416716 -2.2611716 11.598899 -1.3744848 -4.1785927 -0.48631275 -1.6250322 -4.020095 -3.6576648 2.9319854 -3.7082589 -2.1427665 -5.259684 -1.4288493 -1.1767387 0.6905199 1.954753 -7.011509
x_78_0 1.3440819 -2.3646855 -1.0976869 2.606825 4.810239 1.6203097 -3.0949936 -3.6878757 1.7794987 -6.0451894 1.1902949 -1.1494712 3.0276449 1.0975722 5.250667 -1.431679 1.78571 0.49659285 -0.5947844 5.5281525 3.0184212 2.0067701 -5.6380935 -9.949234 -2.7625775 1.8486929 3.0737066 -1.6904868 -4.9755692 1.649325 4.22114 1.9939059 0.5929549 -3.0069814 -5.716809 2.852489 -1.684293 4.228423 -1.7860013 -3.446508 2.0187733 -3.7314258 -1.4044815 3.9051702 -2.2965868 0.21265118 -4.3707256 -1.7945544 2.3267918 8.491278 0.22562279 1.3231955 -10.214617 2.98433 1.5617337 1.3487935 -3.2242901 -1.4994111 -3.6457086 -2.502175 -2.3200164 -4.150783 -1.3581005 2.2552931 -7.9347935 -1.6597879 -6.515172 -6.6601872 0.8279928 2.4639244 3.7917745 -5.951626 -2.8504162 -4.0366383 -1.4135462 -3.0866246 -0.58597285 -4.524272 -1.4505999 -0.97205555 -0.38600448 -0.3743768 -1.5108528 -5.2112465 6.5042734 -3.7095916 -2.7410283 -5.7466526 -3.3147888 -6.449278 3.9018424 6.074493 1.9623415 -2.76932 -4.6662936 -1.0487683 -0.7567784 3.3431435 2.1762066 1.1734737
x_39_0 -1.4726402 -1.642279 -1.3204225 1.1004463 -2.5604937 -0.8122172 1.4587544 -2.4645238 2.7470303 4.69765 1.2307944 -5.8041506 4.8668904 4.2130914 -1.1108935 1.2408816 -1.8954949 -5.6465516 4.3805833 -1.899234 -0.780154 -4.0677605 -3.6154654 4.763209 -5.087398 5.2303696 0.2320773 2.2061384 -0.9658878 -5.7543955 1.4522034 -1.4959613 2.4268472 -4.231677 1.1016705 -0.41895854 -6.8046737 -4.8235946 9.884962 -0.11199134 2.0050488 6.029662 1.2216483 0.18738574 -5.3138924 6.480201 -4.912246 0.67893445 4.5862875 -3.767845 -7.194691 1.7254555 0.38923568 -3.2841206 -0.9012492 -6.2030587 8.797785 -1.2982183 0.8002106 -5.0070395 -0.26717964 3.4916773 -1.9340307 -1.1369216 -0.90738565 -3.5301387 -5.1100206 -4.3818097 -4.939995 12.112471 4.057134 -2.2011156 -1.1218027 6.836431 3.9770405 -7.1247993 -1.1881762 -1.5882977 -3.6908495 3.7068026 0.921058 2.1329644 0.14593448 -5.216755 -1.7228084 0.2909304 -1.5964541 -3.52067 1.9242563 -3.611005 -1.2822206 -5.9038134 -1.6047443 -0.38197985 -6.357666 -2.23273 2.3947737 1.2184538 4.097406 -5.1314254
5yearBadloan_0 5.251819 -4.2277226 1.4645485 0.73280674 -1.3019476 0.05772217 -1.1826202 4.7080464 -0.86047983 -4.8160796 -2.6715868 -7.0131207 -3.4584093 1.2349507 -1.0319185 -6.3877463 -5.764457 -3.3358123 2.218593 -0.78056794 4.547446 -1.060511 8.685645 0.32691342 -1.4331003 2.6193092 -2.6772687 1.9301968 4.2487745 -5.6185393 -0.20489389 -0.80563414 6.841221 1.7691873 1.524889 0.27545178 -0.7677939 1.1126462 -0.039666712 5.015958 -5.416889 -1.3279295 -2.5103495 -5.5089707 1.639511 1.3479661 1.5738895 2.7199807 3.1531568 0.10755607 -2.996617 -4.7720184 8.252675 3.2712443 0.19271946 0.44386253 -0.19422162 -0.028001955 -1.0796621 5.8547106 0.14338696 -2.5438163 3.753939 6.752403 1.876938 9.468241 4.038576 4.677605 -5.9682245 2.2835927 -1.3603182 -1.4288249 0.2678978 7.0828433 -2.4761572 -2.6476507 -1.3230196 -3.3574996 1.3026583 -3.2817492 0.7163139 -0.039826173 3.971932 0.2527292 1.3342367 -3.7313712 4.811049 3.4270046 -6.294031 2.342389 4.354205 -2.74172 -1.3837193 3.1688666 -7.247494 2.0081263 -0.5739755 -6.1396885 -2.3664546 1.5771636
x_32_0 3.4596896 -3.4993446 -0.7913856 -2.6311328 5.4581947 -5.117229 -10.834693 2.015793 -0.8382057 5.6790648 2.3740764 -4.6447105 1.2430986 -2.5188498 0.09176524 0.67009443 -0.015626783 1.8486989 1.4465891 4.3502374 -2.692721 2.0911531 2.20802 1.6911325 2.3031266 -5.9868016 -1.1409625 -0.33600387 1.3188459 -9.5562105 6.1215916 5.2911067 -0.40246937 2.9050088 4.088414 -4.1078615 3.5637023 -5.058166 -5.129667 3.135567 -2.2001767 2.111365 -2.7182245 1.8173898 5.4786468 0.2615021 -3.9200735 3.0838826 5.0889373 -0.72746307 0.6561786 2.2802763 -1.9499317 0.97782934 0.9728625 -0.08246157 3.8662415 0.7403346 5.2690496 -0.31437695 -2.1386416 -2.0543761 4.546008 -5.6194186 5.0979395 -0.44153824 -8.584063 -2.0476403 1.2699697 0.84658384 -1.9216646 -3.2574344 -2.1344242 4.7538967 2.4335349 1.7331984 -2.6926162 0.022092404 -2.6052685 -6.342488 -7.106856 1.0702256 -1.8143162 2.9701538 4.6524034 1.678711 2.3303697 -1.9871781 0.8601342 -6.790791 -6.814561 1.4884316 -4.165613 -2.233179 -1.0965979 2.6554003 -3.0648744 4.179563 -2.330783 4.1826954
x_42_0 -5.683118 6.8685627 -0.21017556 2.49013 -1.5182031 6.3810844 1.137472 4.2236257 5.4646287 0.5637049 6.0620213 -4.1183577 2.8586469 9.882342 0.20509514 -0.053173315 -3.4473858 0.9817979 0.29851937 1.2176657 -1.1205821 -1.47218 -0.30215478 1.9132524 -3.4187908 3.1969092 -4.1083016 2.3237379 0.728104 -2.0676723 -0.31917822 9.21698 3.9341357 1.0566187 6.958575 -3.6428192 6.415306 2.0642097 -0.93753767 -1.755859 3.5317452 0.034680165 -3.7739055 1.5823779 7.723338 -0.480336 0.22253373 1.0291057 3.2405038 5.8618755 -8.071807 5.026796 -1.8663123 -3.2643294 -0.09498449 -2.161475 6.5959554 -4.8864937 4.3860464 0.796226 -4.036653 1.7191902 -3.3389733 2.227259 6.9265556 -2.7481973 -0.56145 -2.622478 -4.28721 7.2234616 5.11774 -3.822513 0.19103229 -1.9669046 -2.856359 -5.4950023 -5.6241837 -3.6719468 -2.9904845 8.197725 -7.220875 2.1173232 2.9275305 -1.3826578 -2.047906 10.701311 2.092439 -3.9258509 -1.6339586 -1.5396769 1.3081477 -2.723626 -6.0347314 0.766528 -1.352348 -2.021824 0.0820993 1.6914613 3.281088 -7.7269754
x_31_0 1.2430234 1.7401062 -1.9461204 -0.65568584 1.211333 4.102229 -5.6959643 -1.6040277 -6.7680044 3.0862956 -2.3524327 -7.2470474 -7.182128 -3.7693615 2.6165707 -7.589654 -2.9307764 0.7953134 2.6137273 0.5120327 1.9293486 3.874853 4.726011 1.3980408 -1.8338408 -5.9935193 -5.1896043 -1.1179276 -3.2206824 -3.825185 3.7250369 3.8487697 1.8391385 1.3037695 2.2665298 -3.1464002 4.4925885 1.0929543 3.3276312 -1.7163132 3.2873487 0.2304223 -0.5954785 4.002211 0.4361905 -3.2698681 -0.2931809 3.116192 1.6711278 -2.9689748 1.6809912 1.1536607 0.990251 -5.6473475 2.7697973 -2.9666703 3.0873985 5.944679 0.69234943 -2.182559 -3.7485483 0.8951881 2.6972902 -4.4979553 4.3562455 3.121611 1.2352138 3.603634 2.9519434 3.955972 0.78235614 -8.379571 -1.093862 1.0280792 2.856988 3.7760808 1.5978533 -4.2782807 -2.818277 -5.2278466 -3.7783139 1.2761374 -3.0729697 -1.1962261 2.9508357 -5.7923784 6.9433846 -2.857256 4.8274727 -3.6592228 -0.63572025 -3.2203212 -6.2338867 -0.39895302 -2.0262327 1.8252249 -6.561404 0.49081224 -1.3647325 4.422022
x_69_0 -6.5802965 3.756676 -8.345581 5.8180346 2.333747 1.4536684 -1.8066334 1.4483514 4.049474 -2.7096488 4.9548097 3.0509021 5.2670555 0.77250147 -3.219575 7.765936 5.121716 5.121235 0.54427654 -4.0367618 -2.0721164 1.4747256 0.6718767 -2.7458923 -6.5796423 0.9179139 3.843444 -4.6191964 -1.0802058 5.5212126 -0.49195278 -2.7250435 4.166339 6.8725967 -5.0814734 4.247106 0.7859231 -3.7113767 -9.555322 -2.628961 8.24764 -0.31909692 3.1265714 1.8749706 -4.7866 1.6662179 -0.6223759 -5.5115676 0.10241652 2.9011004 1.8389177 4.3820195 -5.8214555 3.5718267 -1.7473161 -2.3771675 2.9206197 3.0753407 6.6507444 -2.9258528 1.5385563 1.9449592 -4.185691 -0.027255125 -2.857806 1.9385705 -1.6240394 0.5796575 2.4708452 -1.6987761 0.8573801 -5.723093 2.2243223 -1.5347642 -0.23287813 -6.4116015 5.3181567 -2.035672 -4.5313926 2.656947 4.520444 1.9532962 -5.671323 2.5545745 4.7058 -2.9040797 -0.76815796 -5.364647 -0.5470077 -5.2455287 -1.7351651 0.52681077 5.0397563 8.115197 -1.5885472 1.3908943 -6.435137 -3.405708 -5.82958 1.3687044
x_30_0 -2.2565758 -0.31504998 -2.9266317 0.35283726 5.685982 0.4200891 -6.6531687 -2.3271637 -5.6619196 1.8299954 1.9965024 -4.9794416 -4.851931 5.4045997 -1.5459584 -2.4821486 -5.932443 4.9755445 5.3464184 6.6222534 1.2483994 -1.0902349 4.5736003 -2.5002618 4.4151754 -4.155291 -0.06989939 1.6954627 3.658051 -1.8465511 4.498427 -0.56923586 -0.8213996 4.0657535 -4.714637 -6.9761686 -4.057391 -1.7937078 7.5200477 6.6239896 4.179183 -0.8105103 -0.106853135 -0.45765102 3.0770345 -3.401695 -2.0226057 -4.6432776 -0.69197464 0.90456283 1.2938467 2.3650181 2.1489913 -8.897693 -2.4989076 2.3783762 4.245486 2.8421912 1.8157929 -6.332274 0.2589594 -2.7043555 5.354288 -0.9072519 2.4050262 5.406432 0.06851683 1.2643803 2.0589552 4.790838 2.2394319 -2.399763 -5.5469103 2.638746 3.7967236 5.3037114 3.2531137 -0.40777454 1.673359 -5.1430964 -2.2126732 -0.4868022 -0.5812167 -0.56143546 5.1971245 -0.26561257 -0.06726667 2.285031 1.4252183 -4.6429462 0.26076987 -0.16296472 -5.3614135 -0.45658666 3.1621478 -0.30687928 -7.5402613 3.9456089 -4.658601 5.419525
x_35_0 0.6402328 3.9520428 -1.6414973 3.3637419 -2.8174531 4.1580963 -1.7217251 -4.0923047 3.7319808 6.882497 8.85181 -0.9178172 1.7318465 -1.4289382 3.1802843 -1.7647659 4.089421 -1.9690387 0.52460635 2.3617735 7.490345 -6.1920104 -4.2398157 1.4675659 -8.126544 6.6645184 -2.803599 1.8951273 -4.0615416 -0.94096935 9.76809 -3.168125 4.0278144 2.491655 2.9264407 -2.053869 3.0765991 4.195707 -0.3972573 -1.945891 -0.77786463 -0.5044833 -5.157198 -0.2508519 3.3032954 6.204876 -1.9414276 4.7580104 1.5717375 1.810299 1.6194173 0.18923469 -3.657834 2.7042344 -3.8364632 -6.5998473 0.41269806 -2.6864674 -0.29181474 -1.818431 -3.875901 -4.3192616 -0.052471135 -4.58349 4.0160728 -1.6075441 -2.232783 1.4332628 -1.8928558 7.5471997 -2.5585003 5.413641 -4.71024 10.500062 1.9052234 -0.4547126 -2.1676986 3.0105693 1.0536488 -6.057241 -0.340941 -3.751801 -2.8338556 2.0550616 -0.82948065 0.23045316 1.380883 0.39950073 -4.6736693 0.7427761 -1.6636871 -4.656354 0.1889459 -3.0522192 -1.1410406 -4.382137 1.4365628 2.2107794 -7.0994663 -2.1294034
x_16_1 5.273755 -0.39300984 -5.20474 -3.1685438 0.8993625 -1.9946673 4.553348 -0.057958756 0.40994892 -2.2781503 -0.853271 -2.1590264 -5.0452776 -0.39274195 1.9844581 1.1882695 -1.0680208 3.4397097 2.8753333 -1.9127847 -4.2167244 2.6487198 2.8385782 -4.9099364 2.8922668 -1.9398389 1.5334847 -0.45281035 3.0356703 0.14249891 -3.82053 2.6387982 -3.5611324 -2.2378027 2.9255073 1.3562542 -7.509634 1.4891838 0.030938994 5.820516 -7.4107685 3.199156 4.0374436 2.7546995 -6.1705723 -2.2135043 5.243607 1.0444454 -0.9288604 -5.2091875 -1.9304508 -3.3350968 -0.2712296 -0.6798764 0.26082104 6.98837 -1.6659659 0.16356835 -7.0814767 -3.7091856 -1.6116717 -2.9348192 0.3376776 -2.5312688 -6.024915 7.25939 5.270687 -6.1209636 1.405441 -8.369999 -2.4797611 -5.226023 4.4021626 -2.3933954 2.3793247 1.969678 2.850462 5.3756866 -5.420926 1.6652012 -2.7171655 -3.4408476 -0.3419152 -0.77831376 1.7184259 -1.0236468 -5.8081403 2.72192 1.5064577 11.928773 -1.5839491 6.098042 1.3292983 -2.48732 -0.1509107 1.4710978 -4.4919424 4.555496 -1.5915173 -1.0563393
x_44_0 -0.51396483 2.1334355 -6.4284425 4.0991435 -3.1102686 -0.4279092 -0.5544175 1.0138979 4.754852 3.3688905 -1.6061896 2.8165042 1.885802 3.4152775 3.5905726 -3.1191988 -0.60518813 -0.123972185 -5.575503 5.7802725 5.145755 1.2011096 -6.845042 -1.053245 -7.7043 0.37544364 -4.233589 4.734088 1.7200443 -4.8127675 0.5603073 8.849688 5.6894207 2.0875137 7.975746 -6.904027 1.9339681 1.1470487 -5.2932153 -1.2529494 -4.471297 1.8254755 -3.9072769 -3.508252 5.0033975 4.188789 -0.031057881 -7.2755857 -1.6354368 1.9288225 -4.8147035 6.1510572 -0.16340259 0.411975 -0.71211547 0.44609421 6.9489126 2.9570122 -0.52833873 2.9498465 1.3171457 -3.728647 -2.833943 -1.770121 0.8771485 -4.609296 -2.532404 -1.2756711 -5.0064325 3.8211362 2.205299 4.816289 -3.7198064 -1.9611712 2.194785 1.1125784 0.16013283 -3.8734083 -2.124409 8.635328 6.812773 -0.31136158 4.6698275 -5.1463594 -5.431378 4.4332366 -0.4655343 -1.1302332 2.8183239 -0.7391453 -6.6996975 -7.436123 -4.8129463 5.503944 -6.360685 2.6546693 4.914385 0.8196779 5.0446396 -1.8593628
edu_0 0.2896042 -0.66357 0.8802995 -2.2011063 -4.7553167 1.6112448 3.4066494 -6.240154 2.12314 5.754335 -1.2867006 -2.24606 -0.8941681 3.720695 -3.3258235 1.109947 1.1521723 -2.4014888 -0.09971476 -1.0907148 0.38916966 -2.9037673 0.2885158 -2.6718454 2.2399824 5.5851746 2.0557914 0.49398857 3.90782 -4.588023 -6.037936 3.3069224 1.824805 -2.0771325 -4.521473 2.3035522 2.491349 2.07848 -2.777109 -0.49906105 2.0185292 -0.7929611 -1.0184846 3.2862253 5.5264764 0.8874119 1.4307603 3.2819417 1.2408409 -4.759315 1.6806638 8.999595 -0.6177738 -0.5449315 0.42315477 1.8487363 -5.997736 1.3143333 2.641189 -0.079767406 3.4817314 0.40179136 -0.21612209 1.1583719 2.0342844 -4.406496 0.7858974 3.4797761 5.2531223 -0.43136376 2.110328 -0.8482262 -0.55864346 -0.6515192 -0.09283457 -1.2274503 1.1703081 -3.8256524 4.508755 -3.0530105 3.4147723 1.3073565 5.644173 -4.8894167 -1.3762327 -1.190969 3.8597972 -3.499838 -1.5757395 -0.73006 0.8819153 -0.81645256 2.642801 -0.21281628 -0.33704206 -0.42786884 4.407774 -0.41792557 -3.9611053 1.8256865
x_73_0 -9.576932 6.7441225 -6.0883293 1.9297918 2.7927446 -3.5825205 -7.824048 -0.41124836 -7.12858 1.7193663 2.4984822 2.682443 11.552324 -1.6788975 1.7904131 2.3609686 5.8800025 0.8030126 4.880352 -2.5822585 0.3997952 5.0591536 -1.3937001 -2.4397821 0.7388103 -1.8105178 1.7918512 2.2903957 -3.3344407 1.1896472 -3.10789 -0.5644488 -6.4014874 -2.2960923 -2.8169913 2.1925528 -0.16786568 7.394191 -0.97964627 -1.9311603 2.544526 2.9531507 -5.401529 0.81664395 2.4899635 -1.127918 0.53126407 -0.9454613 -1.6514398 -1.0479958 -6.420417 7.7266064 -1.8816056 -1.5951375 1.31411 -4.3371873 -3.7571769 -3.7774622 0.044322755 -0.86338335 -2.5300183 2.2156096 -5.021039 0.34232637 -7.4718723 -2.7677581 -8.677686 1.3922698 0.33187336 0.2287384 2.6228502 1.1125565 4.6853037 -8.029922 4.19395 1.6081165 5.0679803 1.5757365 -1.9837269 -0.7245972 -0.16661479 -7.3160186 -11.604687 -4.364086 4.2188125 2.8118892 -1.3251678 -1.9941149 0.6982057 1.6627477 -2.2033832 -2.9235399 -2.0242186 4.4991226 0.33419824 -1.6317121 0.9769653 2.3824713 0.90412563 0.24160275
x_29_0 0.9832552 1.136067 1.271221 -4.154867 2.580787 2.9685483 -3.096796 -0.47841945 -3.796209 1.5058594 0.2947785 -1.6259195 -2.955388 -2.330742 -3.1635544 -0.83425426 -5.7502637 -0.68974084 8.340884 4.7341638 1.0441196 -0.6927698 4.837585 -4.312586 4.5389037 -8.674525 0.57482535 1.1702815 0.024477977 3.4466255 4.0737286 4.9266286 -4.361346 7.4706306 -1.8764739 2.173246 3.2882006 -1.1764373 6.405101 4.938503 -3.0022898 7.2346253 -0.57644707 1.3550986 -2.7994769 -1.4848684 -2.2444472 -1.340931 -4.336005 -1.8677435 -0.020670695 -0.93585306 0.38023025 -7.256583 2.453343 -2.5685127 5.529136 -5.9768896 -0.82246035 -3.7435176 -3.2917 -2.7779164 1.9740645 -0.39872032 -0.43379483 0.62888926 -0.34591883 2.1329381 3.326276 5.482689 1.853929 0.32794267 -3.1471744 5.907596 6.0699673 6.462875 -1.6640675 -2.0277054 0.43107578 0.28975448 -4.688194 3.7016125 -0.37578967 0.83131343 11.210713 -4.5046678 4.8780355 -0.18716691 -0.3636434 -0.5265014 -5.1241198 2.662066 6.7181563 -2.7144954 -2.5992496 4.1419516 -7.795227 -2.4879317 -2.782273 4.3811135
x_56_0 0.97422945 -0.12616904 0.5522871 -1.3813678 -1.8043185 5.4412613 -0.23205684 1.8280009 4.1686354 3.3950794 -1.3083258 6.1034527 -4.4190035 3.1532793 -5.5048237 0.86767197 0.14559576 3.3876905 3.9930973 -4.2466917 1.9195197 -7.886361 3.9560957 7.8811855 0.2500052 -4.2840405 -4.0362606 -7.5430927 7.0106907 2.4153824 -3.678368 4.3311315 -0.66913533 7.131859 4.303591 -4.369145 0.35047603 -5.9786754 -1.0185883 -1.9449438 -0.20656726 -1.7095462 -1.724861 -7.176219 0.26998547 0.10988665 0.5875168 -4.397618 2.936063 0.8928489 -1.2243083 -4.967408 0.70690864 -0.47831637 -3.642113 4.349024 0.3502609 3.8812962 3.5545268 2.7509594 -2.3445008 5.417932 4.211154 -3.9338543 -4.1871343 5.239147 -2.3960083 4.412745 2.2697613 -4.8744907 -6.147975 4.7865386 -8.561822 -2.4204805 1.0355247 1.7058064 6.6180353 -2.5416782 -2.3880575 9.532544 -5.6098843 4.841549 4.29831 2.6096797 -3.5656362 -0.5233217 1.2551314 -0.9559589 6.0202503 0.33958757 0.9923769 -1.2093949 2.1026654 1.1302513 5.8440747 4.2755876 6.43084 -5.569149 2.5298393 6.8224525
x_20_1 4.5399194 0.04138314 3.1284142 -5.7640758 1.0447206 4.4673448 -5.4836545 4.068452 -7.4096107 -10.15713 -1.8598473 0.5935759 -5.7167096 -3.8187904 3.2290637 2.0712984 -0.3890078 0.6403898 -1.8096433 -2.5657575 -0.99623114 0.34436658 4.360717 -1.7929069 5.0309186 -2.9674191 3.806996 -0.9669537 -1.068467 -5.1135097 5.8342085 -1.0063436 -9.562688 -0.1230933 -1.7269769 2.433328 -3.3526275 2.338211 -5.2843127 1.0663829 1.7268971 4.314543 -0.50199205 -1.1792803 -3.0361342 -1.9038314 1.2672523 -2.65566 -0.5652395 -1.3282282 10.974254 0.35131612 3.0407822 -4.51584 -0.12703322 0.84373456 6.554397 -4.9770985 -10.021684 -4.0673747 -1.1463556 1.9023385 4.543084 -1.6687677 0.8236951 1.6363566 3.5859306 -5.1642246 2.7097306 -4.803176 -3.2052 -1.0602096 -5.8235025 -1.0905559 -4.95724 3.8470967 3.157081 -1.7110136 3.109096 -1.7155988 -3.774752 2.0523026 -8.232524 0.22197875 2.2162275 1.056392 -2.2603214 1.8851461 -2.1052132 7.8030944 1.6974844 5.6443954 -3.4958835 4.2754483 2.058493 2.0032816 -0.79846275 1.3026422 -4.424275 2.765665
x_55_0 -2.787346 2.925312 -2.7748554 -0.7475621 -2.4615173 -1.3683094 0.4746745 2.4232996 -2.3161356 6.1656833 -4.86286 5.265632 3.496434 0.9981787 -3.715055 1.8063775 2.2883525 1.9858934 4.37647 -7.7788086 2.1044304 -6.7307334 8.721139 3.6596274 -1.3391408 -7.0754647 -3.8957438 2.834758 7.1948757 -0.15587352 -2.9177787 -0.02843528 0.25866255 6.318854 2.6393247 -1.7227468 3.8925343 1.013282 -1.0009975 0.29953644 -0.980801 4.3557835 -0.48644465 -10.295452 7.1522627 -0.5633462 7.197078 0.47734636 0.78317 -2.3749657 -4.349092 -0.046513677 6.7165866 -5.0543213 1.6315979 0.25152665 -4.3476963 -2.484893 2.077753 6.359333 -4.0359187 5.6882873 4.8570323 -0.13604277 -4.242173 5.4650807 1.1387969 -1.458607 -1.2602184 -0.896033 -3.8251414 6.1026635 -1.7944779 -4.586981 2.19722 4.722494 3.6073933 2.1688995 3.4145505 1.2959193 -4.93678 -2.266849 -2.3768516 1.5668293 -3.4788563 1.66672 -4.374036 -1.452026 3.791839 0.6540217 -0.4512067 -6.3769245 0.8758209 5.605392 4.855041 2.1909633 2.6128414 -2.0763032 11.465534 8.655542
x_12_0 0.06304035 5.0261083 -2.9325223 1.4010338 -2.0915797 -3.0597513 5.7546673 -2.0614698 0.4808931 -6.538341 2.964055 -3.8953135 -5.658781 -1.8980252 5.737497 -1.1486843 6.3835406 -1.8697729 -4.1151896 -4.727705 3.67266 -2.2353823 -4.6907206 -0.7158555 -5.464743 0.7028034 2.9535146 1.3452514 -2.104907 1.031986 -3.0333688 -1.2953887 -5.0326433 -1.1231538 4.3192353 -3.0810826 -2.6611876 2.241463 -3.7062094 -0.31068718 1.4676795 -3.6868591 2.217906 -2.098384 0.10109439 -3.0445435 5.417687 4.27704 -1.3131053 -0.9456198 1.2292669 -0.72584844 1.9489728 0.8957209 2.199033 7.273189 -7.081261 -5.869176 -5.1579695 1.6195629 -0.644825 1.0153245 1.7434324 2.8075223 -3.9000294 1.0343201 2.289639 -2.2994967 1.4555854 -2.433343 -9.284977 3.5599263 -2.4071565 -3.1851509 -5.679947 2.361023 -4.596459 -1.7393042 -1.6411035 -0.78246826 2.8594692 -4.9175987 -0.795451 5.345649 -4.799771 0.9889885 2.1262064 4.4674563 -4.173375 10.344141 -0.82331896 2.052035 6.8923845 -4.317769 -2.8888874 -8.000375 1.313418 0.7384958 -9.20168 0.022801744
x_49_0 5.056687 -3.4842305 4.3622518 4.9005003 -4.9574294 4.662773 6.042083 3.866543 2.4724998 -2.1630306 0.486588 3.970376 -0.5923325 0.30067527 -6.5189753 -4.753036 4.125482 -1.321431 1.0036433 -4.3217673 2.2591488 -6.239789 0.65378684 3.9492202 4.4906144 -7.156934 -3.9335532 6.2281346 3.4804392 1.8035675 6.772777 -4.51775 1.8159542 -1.8264257 6.4757934 1.3822237 0.26860902 4.7013764 1.5124184 -2.1327472 -1.1476314 -3.631028 0.47614202 -5.5995255 -1.2957103 8.177469 2.5777628 -0.07197966 -5.2955766 2.225381 3.9400086 -0.9553234 -1.1564534 -2.7513871 -7.105212 -0.776469 2.6996212 1.125636 -1.5823483 -3.4155662 -0.4951633 0.34287983 0.8073778 -1.6501291 -3.6307514 -4.5548863 -0.92712647 -4.691776 -9.10823 2.9574738 5.92904 -6.182719 1.4618864 -1.8195095 6.9655313 -1.2143574 -6.437152 -1.2256947 5.258593 4.473086 -3.4033093 0.98190945 5.7412844 -2.2349417 0.62370414 -1.2867045 -2.8465047 -2.5178533 1.2160494 4.101332 -2.9868762 -3.175323 -4.6466665 -4.7500153 -1.6590263 -3.6865427 5.7350698 -3.2349024 3.3590834 -2.749542
x_68_0 -8.080809 -1.6900991 -0.4592304 2.3692226 -2.183407 5.930061 -2.8847358 -5.1421175 3.1056225 3.854454 3.2466826 2.0371342 4.118193 3.5515652 1.3916032 6.3179355 5.185151 -2.1402333 2.0580041 -1.064353 0.33189258 3.8831832 -7.0180764 4.9569592 -5.43315 2.730647 3.205866 -12.852409 2.7016938 6.089676 4.979058 -3.3132641 -1.5941159 4.7909255 -0.3731405 -1.4986799 -2.111624 4.8747544 -2.082743 -0.42286754 6.521662 -1.3907701 1.2142307 4.7554083 -0.14053106 -1.9931858 -3.351431 -5.9479113 1.9527458 -0.5474689 -1.398414 4.8319197 -1.0922651 9.723855 3.7725487 -1.7720768 1.1346203 -0.77537596 4.1828175 1.9947141 0.07251 -1.0717599 1.1603239 -2.9931846 -4.567541 0.5001617 -1.87058 1.8460377 -1.6415824 -2.6506014 -0.723995 0.32571745 7.4136343 -8.987506 0.82681715 -2.6602561 4.9084163 -3.763738 -1.2766078 -2.4387038 -1.5913664 3.9796252 -0.96760046 -1.7713078 4.798449 -3.6570082 -1.6770586 1.5983827 -5.10501 -8.087807 -2.991764 3.4550295 3.3799584 5.546663 0.5614873 5.475152 -2.8442633 -0.26367527 -2.0183907 2.6045465
x_76_0 -4.800619 1.8028306 3.28977 1.2869433 -2.0852454 -0.09246678 -3.844263 -3.905389 -6.308145 -3.305951 3.6126037 2.6886382 4.0248404 5.8686147 2.558004 -4.2822194 7.455693 4.8487644 1.110477 5.5426764 2.3297675 0.7510449 3.5962393 -0.5181151 -5.0659227 -2.170139 3.5105317 -0.31896812 -1.0864528 -2.3391867 7.002511 4.807713 -7.350429 -6.4270673 -2.9094136 5.426939 -5.74338 -0.08970517 2.1383984 -7.6451974 -0.7811388 1.5631831 -6.4515715 4.5161424 -4.3543944 0.65114075 -2.2637281 -2.4976897 -1.2124048 1.603457 0.17519538 2.679224 -7.151427 4.9619703 -2.622039 2.275277 1.7601838 2.1007683 1.263062 -0.17966205 -6.111976 -7.9827046 -5.063553 -1.5963278 -3.4561489 -11.116535 -6.169347 3.0857966 2.567785 -5.752628 4.720052 -1.009354 -1.0730175 -4.40106 -1.216887 -10.132197 4.624468 0.37049606 -5.9062066 1.2841727 -0.7145561 0.6099443 -2.99209 -1.3786087 3.171995 -0.624362 2.5575058 3.5835178 -4.6097164 -3.1279185 -0.6599466 -2.6922417 0.96485 -1.4859846 2.1565926 1.7916429 -7.7362313 5.2923746 0.28822073 -1.9444865
x_64_0 4.0397873 -2.5965118 2.8996441 0.5201817 -2.4249427 3.4712672 2.9810143 2.2785277 -4.5351667 2.0307531 8.829819 0.6322644 6.9234047 -2.590177 -6.6043715 -1.7240152 1.760952 -1.9738641 4.9246716 2.0692027 -1.7295963 0.17974512 5.432481 1.5921597 -2.7361739 -2.6949573 -1.2103167 0.5146047 2.9927194 0.78024447 -3.440979 -5.545512 -2.803045 8.719098 -1.7239447 7.2620296 1.2453164 0.18288107 1.140214 -4.673723 1.9495664 -4.4068365 -5.709253 3.6809912 -1.4534947 0.18267006 -4.9315658 5.299763 -0.4746881 -3.523113 -5.754372 1.9466763 3.3518686 -2.818359 2.723797 -2.800882 -1.6478963 2.8039007 -4.0415673 -4.015916 0.37440494 -1.7173657 -3.3419085 0.28214023 2.1675243 4.651919 -7.092636 0.81232333 5.6786833 -5.0933247 -9.301826 3.117124 0.5483613 -5.9437556 2.914932 -2.6244583 2.750095 6.48064 -0.45933154 -4.7698975 -0.60382086 -4.46287 3.1566637 -3.405409 -3.9613001 -1.3693497 -1.1226796 2.2507718 2.9091265 -7.321515 -4.683754 -1.5083467 2.8747318 7.928214 10.494357 -1.9265848 -0.44677603 -2.58582 -2.820629 1.9617709
ethnic_0 1.8144428 -4.5859847 -6.816623 0.7159723 -1.3098356 2.0523787 -6.080238 -3.341909 0.90640706 -2.3247905 4.397834 -6.0671115 3.3815033 -1.1793344 2.2626343 1.2024868 1.1303012 2.3015954 -4.083887 1.5852965 -2.2047274 2.5107582 -6.451633 -4.9791174 -6.920412 3.6993835 4.1362987 -0.08461388 -0.38593936 2.7942612 4.1192894 -0.17261325 -4.107348 1.3079191 -5.225721 3.913995 -6.369247 3.3435874 -0.63549113 1.1437423 -2.3405046 -3.362646 -2.383785 0.8430197 1.5488437 -4.663132 -1.6671138 -3.7264707 -1.544037 7.4291434 2.477485 2.0529327 -0.7476564 -0.2908976 -0.18649356 -2.1238368 4.2934704 -0.82444334 2.0159402 1.1426147 1.904734 1.6540937 -3.6689372 -2.7166736 -4.1510262 -5.4317966 0.32525945 4.2544823 0.7729229 -2.5228527 -0.944913 -7.5879507 1.6948842 -1.2627045 2.8654885 -2.2238157 -3.8997207 -1.2483778 0.29341292 1.655355 -1.3695906 -0.060980186 -0.9515114 2.6150296 8.28551 -4.447834 -0.5236529 -2.6708906 -5.655356 -2.2576196 5.1788874 1.7902088 -0.62229717 0.47650453 -8.516142 0.680559 -1.0189538 3.8514957 2.6399508 -4.8833413
x_28_0 4.583146 -3.1954167 1.9404522 -7.625195 7.024708 1.1859992 -4.334043 -3.3489203 -5.36709 1.2363468 2.0528066 -5.4491057 4.9213257 -1.747473 3.1626704 0.41233858 -0.46220788 0.81749475 4.830946 4.658003 0.592513 -0.85997176 5.708327 0.6628672 2.4010875 -6.463157 -1.8700056 1.3682231 -0.6803752 -1.9524143 -2.2729974 -1.0462891 4.193777 7.5500116 -3.6849968 -0.005005113 2.8204741 -1.5651976 10.804282 2.5708709 -1.4393164 3.755397 1.5666128 2.0698037 -4.2710247 -5.087083 0.57709444 -0.65516526 -1.8543292 1.5325611 2.3485806 0.33198893 -4.5704236 -6.2120147 4.2716165 -0.73712796 -2.160481 1.9321362 1.3630105 -3.0518403 -1.8011053 4.906452 5.802472 0.20185272 1.5766201 2.2863452 2.4644332 0.42358673 -3.0036755 -0.31651264 1.1493353 3.5342755 -5.352129 5.3747606 -0.18165204 7.359783 6.814858 4.647389 -5.8812757 4.948792 -5.7992067 3.8801658 -4.0945683 2.9635155 7.4700937 -8.89371 1.1865029 4.5482254 -5.814241 3.3111258 0.49695355 1.1149937 -0.114841476 -2.0780342 -4.0611095 -1.2410822 -4.09041 5.7884564 -4.0752597 2.8404799
x_27_0 2.6829433 -3.3555095 -1.197313 -5.787197 -0.073379114 0.8494808 -1.8801861 2.5364475 -7.3926744 3.9516904 1.7731572 0.4981266 -0.11787417 -13.2544155 4.0948696 -2.549349 -3.7652967 9.332462 5.1244125 1.1314383 -3.2128465 -3.7485 1.9310758 -3.872188 -0.5956398 -1.6633713 -3.2839193 -2.6811976 -2.2881656 -1.6633747 6.1069527 -2.9414334 -2.01123 -0.22358608 -4.202172 -0.6784627 2.5986536 -2.2508464 9.000009 4.072532 0.9093438 3.962206 5.0211797 2.7828922 -3.0066981 -3.399465 -1.8529485 -4.530613 1.441353 8.78278 1.2608714 -6.845291 2.9728525 -5.793369 1.2770561 2.9789011 0.6188554 -2.5237558 2.3228881 -6.9157324 -3.2181983 -1.7410032 6.029858 3.235568 -0.08188668 1.020649 -1.5017246 -2.9979541 -2.7316413 1.8274986 -3.6216195 5.9153953 3.138092 3.0614388 3.593784 5.505635 7.5630884 2.660796 -9.177997 -0.61322516 -5.451381 -4.41408 -1.9811106 5.966166 3.34426 -4.8153367 0.21607976 -1.2650961 -1.7161088 4.5033817 2.3644524 0.56455827 4.757123 -4.37279 1.7326325 2.6376524 -3.1252246 0.29378733 -3.0581024 3.1694016
x_26_0 3.263443 2.0208547 1.7965211 -9.455232 5.0691023 -0.9814394 -4.7331553 -5.4385853 -3.5613525 1.2996205 1.1482261 4.688247 1.6264752 -3.4452372 -0.4460023 2.952653 -0.065197505 5.0924625 5.9938383 -5.0532937 -1.9311316 -2.460434 -0.661451 -7.5608873 0.17822793 -3.976919 -4.5661163 4.373505 0.8658135 -0.908373 1.6006194 -3.6231773 -0.65706897 1.5160959 1.755739 1.9809102 0.13132392 -0.74814695 9.9637785 4.5461802 0.0776452 4.2070985 3.9771216 3.8258047 -1.3029422 -5.020009 -3.6886735 -5.0615416 -2.7062492 3.5355394 2.5974967 -13.238158 -6.214432 -1.815356 0.9302806 -3.3904302 -3.623207 2.1413703 -4.8817577 0.12601124 -3.2594466 4.2348194 7.9278092 -4.1916513 -1.7398801 -2.6489244 3.4189494 1.273944 5.516947 -0.21086696 -4.0440702 2.1670544 -4.618289 7.1507444 -1.7850604 1.291693 2.7844229 1.0035164 -6.8378754 -9.376749 -2.0635548 -7.1284933 -1.6755278 4.8896046 3.5930636 -1.7489034 1.6601493 4.209559 -1.7518536 3.039053 2.0842648 6.1863194 0.5452239 -2.8877409 0.21553761 1.7088132 -2.8442419 -4.039227 -1.9720814 1.3302188
x_45_1 -0.49123153 4.059068 -0.0035523598 4.5670524 -4.6809263 0.94586533 -3.4519055 -1.2193686 1.886861 7.7690926 -1.6686473 -0.39797154 5.39412 3.0335565 0.99618894 0.45567426 4.767623 5.1423826 -0.2015038 2.903421 1.397793 -1.4487092 -3.043748 -5.062638 -4.874408 2.5153794 2.0870233 5.27557 -0.3193881 -1.5142533 2.2702634 4.4151177 0.44336963 -1.8173486 11.786422 -7.066466 0.05774476 -0.22735067 -4.154609 -6.950164 -5.3170867 5.0030494 -9.558662 2.4116118 -9.269389 -0.85338336 -1.9881207 -8.242041 5.3774614 0.05919409 -0.3227045 1.7724743 2.8268404 -0.78569263 -4.2877264 4.0119147 -2.3578756 2.8010807 5.0956154 7.242313 -1.7681675 3.3802633 -3.3262708 7.7642756 -2.866369 7.938993 2.964333 -2.954926 -2.6295743 -1.1289353 3.2872543 -0.11177745 -5.0620637 0.9481345 1.8855932 2.1396585 -8.969804 -5.9823017 3.1125567 4.2880564 -3.161888 -0.5806788 5.6315536 0.65040076 -4.5177264 5.7872167 -1.3785889 -1.2263443 2.1726701 -1.614688 -3.1870673 -4.251102 -8.193907 -0.9955023 -6.2258277 -1.3562801 0.7222144 -1.9966879 2.1450677 -2.485074
unpayOtherLoan_1 1.0324625 -3.700683 -7.4797344 -2.2530994 1.0920795 1.6196642 -2.0786157 -8.131804 -2.8858078 -3.9346874 -3.560312 -3.5232313 -3.0805178 10.29924 -1.3940685 -2.2896516 -0.10182101 1.6482569 -0.6108171 -3.1211157 -4.1831536 -5.8999324 9.994853 -9.206907 -0.71043265 2.3664422 -4.586971 -1.2053254 -4.999288 -4.869815 2.335399 1.7192179 1.9774776 -4.687599 2.0453637 -1.675781 2.1169708 2.943094 -1.2761117 1.0873876 -7.1512475 -2.7843618 1.1166843 -5.065417 2.6633263 3.9994702 -2.1781247 0.9867825 3.9971292 -4.2136235 4.788724 -9.379831 3.373763 0.75332004 -1.7852466 0.5181243 -1.8949864 3.0643134 -4.1383133 3.001837 1.577684 -8.110327 0.23758331 10.733724 1.6269578 -3.9557214 -2.56919 0.49892777 -2.0361724 6.6216893 -4.6744294 2.9906464 -1.8339124 3.7635212 1.8065753 0.89552 -4.066196 2.8612056 -2.6793048 2.2392929 -5.8608294 7.6911316 1.3399502 -0.51451916 0.35511902 -2.5066943 5.725111 2.1934426 -1.1122811 1.0909402 6.1763945 -2.7084897 -1.3284588 0.844436 0.3924187 0.7030478 -0.3802865 -2.9811578 2.8661573 0.6364846
x_48_0 3.9447618 0.13242249 -1.3950232 6.4080734 0.15796292 -3.2815115 0.011663255 -0.48343155 4.92147 0.73417157 0.047206357 3.810143 -3.138649 3.449246 -0.9191493 -4.973627 -0.1353967 3.5155752 -2.8253026 3.0660636 -4.9117064 -6.809071 -1.1877395 -0.006301524 2.3728418 -7.0554714 0.2416234 -0.4045585 -2.569859 -2.7848065 3.7630112 1.3015063 3.5535843 -0.12965532 6.2935486 1.212181 -5.0798364 3.3832386 -2.2565563 -3.569968 -2.5593903 -0.14755182 -3.422889 0.54455495 -3.3218963 5.067829 -0.44949108 2.2682729 -1.6754329 2.5927587 -5.0728354 3.2346027 4.983406 6.5671926 -7.3695297 -4.7873445 -1.2370846 -6.9038167 -4.7907023 -3.9845843 0.75727195 5.955176 3.0160315 -5.135353 -3.1770175 0.034113176 5.1411242 0.8979324 -5.9289846 -0.7500432 7.201047 -1.5515596 -1.0841854 2.06165 2.6042705 -2.4442332 0.3225351 -1.2859877 3.5068767 -1.5808623 -1.7027171 4.161328 1.6481316 1.3887256 -6.347271 -4.235918 -5.3186 -1.031137 -1.7392564 0.017988034 1.8310934 -8.325067 -1.6519516 -6.8983994 3.2522948 -4.913205 11.096704 -7.61504 8.087111 -7.4261384
x_43_0 -3.7727473 5.0669556 -4.126099 5.9090977 -3.2503736 -2.093569 -0.77443033 -5.5351324 0.48396564 -4.45935 -2.9881527 2.144058 3.401745 0.9692838 3.7208803 0.20542397 -4.3594136 -4.056548 -1.4625971 0.6914741 -2.2742755 4.6125236 1.6951592 5.39217 -6.3076596 4.2244864 -7.7169423 0.3327524 4.942027 -1.513585 0.9004698 6.8509154 3.9438488 0.98213166 7.8204823 -5.075963 3.2447605 -2.8336973 -5.438298 -2.4568744 -5.995439 -6.503966 -8.62795 -0.28914392 -1.8014692 3.222365 0.7548223 -4.7145615 -0.788669 0.40639362 -0.014177007 9.53646 -2.6725311 -1.9347363 3.0593665 -3.4017134 1.7863643 -4.7459273 7.609805 2.103034 -0.65073866 -1.6876541 5.362055 0.9735611 -2.6500604 2.0866914 -3.0900383 1.2408838 -2.189943 8.876459 2.6075294 3.0917377 -2.3735378 3.5616038 3.2830834 -7.0132113 -4.672421 -4.9462256 1.0856553 6.5313916 -2.507048 -1.0213287 7.256314 1.9559913 -0.91058254 8.773906 2.0232456 -6.6360483 4.8613286 -2.4282749 2.0501058 -6.6949263 -4.120121 1.0628648 1.370859 -0.71688277 1.877727 10.460326 4.0192723 -6.5540123
unpayIndvLoan_0 3.0605748 3.702399 -1.1873922 6.2123036 5.712635 0.23092067 -2.3944504 -4.161758 -1.1220114 -4.1564054 -1.1385497 1.8023543 1.0188245 -1.0769806 -6.2414536 -3.6244538 1.7078147 3.6816387 -1.861798 3.7528481 -2.816165 -8.217364 6.155914 -0.9337673 5.1884484 2.7023988 -2.1877873 1.1812875 -1.673333 -5.268113 1.6804852 5.0103564 2.3509982 -3.9526858 3.5056932 0.7409602 1.3720722 -6.766651 4.0999484 0.371379 0.58588785 -0.22860466 5.4710865 0.009452523 0.44541073 6.5622897 4.7151065 0.38209987 3.619471 -5.174564 -0.63780606 -0.2744723 -3.8558283 2.4794972 1.7106165 2.9982975 1.1527523 3.3920176 -4.880937 -4.6858506 -3.8560505 -5.7769866 -2.9222324 7.9487443 -1.3319409 -2.503547 3.336851 -1.2820966 0.33904207 2.6234615 -6.00051 7.0952463 1.7013782 4.972752 -2.339619 1.9580348 -5.006174 0.8921862 0.96251154 -0.8554827 -6.3047037 1.0164243 2.7262676 1.8186259 0.27001482 -1.8609445 5.426301 4.1836843 3.192777 0.840494 5.493067 -1.5354215 -0.00751084 9.204317 0.6546182 -0.14707486 -1.4373196 -1.6362262 1.1353152 -1.6228758
x_47_0 1.9186771 4.099531 -0.45573503 2.33749 1.3865662 -4.210705 -1.9392008 6.5551534 -2.5268624 5.3741674 0.029962977 3.1361148 -5.7037487 3.933344 2.5012026 -3.250032 8.169173 3.831687 -1.7216578 -0.38353786 3.9788232 -8.549041 2.6556928 4.415549 0.49026817 3.618692 3.0828876 1.9273525 -0.5515836 -0.33180207 -2.7115936 2.3660667 -2.686205 -1.3423666 9.961462 -2.5755522 3.3018403 3.3625343 -0.33106726 -1.8647707 -4.3836184 -3.7694309 -5.5893598 -0.120196626 0.81940484 4.898795 -6.54414 0.20825489 3.5792859 1.5812687 2.616577 2.9715283 0.05880954 1.9597284 -5.2158155 -1.854717 -3.1474068 0.21792701 -1.5771171 -3.6745524 1.6213633 5.2599993 -3.3459086 -5.9371486 -8.238591 0.7922477 6.655559 0.7041153 -9.272555 5.7380056 1.664585 4.464591 2.0483236 2.0806718 1.9948997 -5.3703403 -2.3469458 3.1842248 4.0845814 4.6859093 4.6113086 7.7521343 7.042543 -0.6531375 -2.5005953 1.7401193 -8.994614 -0.9262176 2.2797422 -1.3026083 2.2315662 2.889383 -1.9017183 -1.4897823 -6.230885 0.029339064 3.456728 -1.8739665 7.5914674 -3.3143775
x_54_0 -0.12140419 0.34368044 8.9850855 -0.17516673 -1.369941 6.266717 5.5246925 -6.344216 -2.2213027 -0.10646804 -5.2435217 2.734169 1.3869267 0.113817446 -4.5496573 1.66305 0.6555781 1.6647087 1.4608713 0.07522199 -4.2544827 -2.9591432 2.2429674 1.5506545 -7.9443707 -5.0003223 -3.9659684 3.5286794 5.3583465 -2.1433496 2.247568 4.821713 0.62417036 4.0615935 4.1655946 -5.803566 4.2754936 -3.0244253 -1.4602586 1.4764115 6.0743713 5.5740542 0.43584985 -13.157009 2.71529 2.374382 2.207437 -5.0389566 -3.9713185 0.16791065 -2.4661272 0.5745444 1.6083068 -3.1695795 5.544882 -1.4961642 -1.392233 1.3047768 0.100713275 6.8249965 -0.0037731358 3.6395602 -1.906144 -0.9230242 4.5635676 10.005841 1.3452528 -5.446605 -0.38774857 -2.1213453 -9.659568 -0.07402654 -3.2263439 -4.825494 1.1660936 -0.90936494 3.9205604 4.6346374 -0.065263994 3.0047772 1.624235 4.707972 6.3513875 4.215307 -2.3276813 0.9155247 -6.2479863 -2.269074 4.1547637 -0.35868394 7.425989 -1.5732474 4.952681 -0.22676878 5.150922 6.802767 1.3467588 -1.1888027 7.0243073 1.5672472
x_72_0 -4.5928035 6.2981353 -4.211232 -2.6246917 7.5791 1.1012568 -2.1645668 0.3080135 -3.077882 1.09994 5.4845004 5.4203987 4.2398615 -6.083721 -1.2945359 2.6354294 6.482203 -3.3278415 3.2628694 7.951262 -2.9654784 2.4183178 -10.35199 -1.2534275 2.5633476 -2.7846923 2.011396 -2.9648125 2.0068724 1.6593509 -2.6891212 0.3563361 -4.4496937 -0.18611939 -2.173879 -0.7353567 -1.9607872 9.621838 -4.63381 0.7399346 1.2856154 1.8621751 -1.2483009 1.0774688 -2.3991392 -2.5620701 -4.204664 -3.826391 2.1884632 -0.80056906 -0.35974592 7.813599 -3.9123163 -0.44055632 3.5491884 -11.239535 5.8194084 5.2400985 5.136794 -4.1003304 1.1925446 -2.2654026 -1.9734945 8.840286 -2.8641815 -1.550421 -8.837547 5.6117244 2.3935666 -1.7797447 2.6986456 -0.76870596 3.5488358 -3.1256645 3.7227178 -8.724477 5.1905894 -3.1942503 -3.3554041 4.7601585 1.4237038 -4.986395 -7.6423917 0.5502962 -2.657631 3.2589827 -4.909525 1.7434783 0.38313296 0.18609054 -0.4998567 3.1724772 -0.6071234 -5.080134 0.119813025 -3.6535933 -2.3158467 -3.0609417 -5.468298 -2.4342659
x_41_0 2.0986724 0.29237872 -6.082097 9.317229 -0.26132476 0.5754397 -1.2465589 -3.3564043 1.9544978 -4.717451 3.8484366 0.9719678 0.1693364 0.016864037 -0.6407662 -2.3685222 -4.6359415 -3.2160628 2.427832 0.62680393 -0.30725095 7.248358 3.6731575 -3.4987414 -5.23297 6.0186186 -1.10207 0.43835807 0.27097094 -1.278545 2.3866935 8.121309 -0.169534 1.8079474 6.2453036 -5.465587 2.0950325 3.843744 9.566489 -0.412199 3.6598055 7.373426 -1.1261379 -7.36306 -0.27597663 7.3807774 0.043914218 0.9980342 5.385382 -0.75533116 -0.8316469 2.600029 0.036202766 -2.743806 -3.497524 -5.7275023 3.3113618 -6.589184 9.137544 0.4872174 2.9642985 6.80881 3.2503958 -1.5598803 6.733268 -7.8908424 -2.932835 -8.138996 -2.9525092 4.53786 9.40393 1.5184472 -3.544073 -4.5814137 0.7073883 -5.197008 -2.7332923 -4.305162 -5.740345 6.7644496 -1.3777733 0.27885875 5.9012876 1.9963986 -5.479715 6.2080398 1.6379724 3.1196804 3.218835 -2.4812846 0.4913244 0.79372185 -2.9663835 6.869785 -5.3192415 -6.690454 -2.2130878 2.764827 0.09708092 -3.31859
unpayNormalLoan_0 11.0969305 0.36989215 0.6806187 -0.49037883 -5.871539 1.5542612 0.57545286 -0.3259015 1.2580559 -4.5162253 -5.5050955 -11.204331 -2.4918075 2.240027 2.9996476 -3.541852 -3.2630816 2.7339127 5.012443 0.34596038 0.3518618 -4.370521 10.25878 -0.6938468 0.2931277 7.227513 -4.143139 2.217401 3.4675376 -1.5551852 4.1910577 1.9023387 4.130146 1.7103285 -0.8066017 0.23584808 2.8829603 -3.3910487 -4.322198 3.8761003 -4.7107515 2.6109886 0.13222831 -9.29962 0.16133599 1.9332156 -2.7003207 1.8471502 0.7460214 3.7928026 -5.3684726 -3.0876064 10.458494 3.5183887 0.5791157 0.3155197 -1.4950811 5.972409 -3.1490657 3.8821416 7.686675 -3.7772782 2.7123344 3.4550076 -3.8384812 3.263652 0.39663386 4.2123423 0.38619676 8.943819 -1.3196926 -2.96242 0.81142646 5.486265 -7.3760843 1.4773828 1.2377856 -0.0728256 3.6962228 -0.016221087 -3.5920084 0.19574228 3.0186522 -0.54671705 0.34167534 -1.4226751 8.92329 7.2572684 -3.6245575 1.3260037 3.134732 3.6354003 -1.6951941 0.7120582 -4.6492734 -6.363636 -2.592415 -0.58243996 5.1978498 2.6626503
x_53_0 -1.8990824 -6.1373873 2.9333503 -2.9554262 -3.7024226 4.5494685 6.5782824 -5.5122986 -1.4320941 1.610662 2.9500053 4.732443 -2.960359 -1.9494488 3.9021208 9.822347 -1.3911141 -1.3873091 2.0546043 3.6741855 -3.0119343 -8.003801 1.5853109 1.0648415 -4.0298996 -4.7949286 -4.675587 5.194736 9.284294 -0.2309162 -4.5373363 0.91338885 6.4948707 0.99323875 0.7191037 -3.4470963 3.5506089 -3.3795445 1.5104603 -5.91341 -2.0491438 -4.9969707 -1.9717565 -9.936887 -3.755294 -3.4069982 6.055809 0.82093865 -0.4507164 3.7013423 -3.398047 -2.6592143 5.43987 -2.91928 0.75166476 -1.5727812 1.1192119 -2.8141692 1.0714468 0.07763391 -0.5525373 -1.2169552 -0.6692672 -0.5356931 4.698273 -2.4311006 4.7497478 -8.567568 -3.675942 -2.5906663 -2.3649824 1.8558179 -6.678526 -0.41937172 -2.840911 -0.550622 -0.8558483 -3.8566322 4.417955 1.2753745 -3.4445393 1.0400777 1.5045515 1.5674498 -6.063516 -1.2805473 -3.1613104 -0.29220638 9.127419 -1.5106087 2.1838775 3.2903547 3.4259179 7.8625593 4.7157745 4.6816144 -2.0433743 -1.5014356 10.506572 2.2594442
x_74_1 -12.450335 -0.07851838 -1.1248045 2.647387 9.54481 -1.7830386 1.0109284 -2.0614564 -8.694731 -0.28128892 4.382105 6.3709555 2.6897264 -4.5513434 4.6945715 1.1255989 7.370977 0.46592996 2.7730691 4.3620467 4.5239496 7.7842364 -0.80836004 -0.74766064 0.50467724 -0.081904545 -0.94236475 -4.612022 -7.553301 0.97347987 -3.1141462 0.31475124 -3.511076 -10.081582 -1.1630274 3.9080625 -2.8476017 1.2334096 2.614912 -2.275789 -1.669094 1.7786095 -10.198685 6.365985 -1.3294488 -0.99053574 -6.285756 1.0896876 -1.8140414 1.9027728 -7.3199825 3.6874166 -3.6076846 1.0356618 -0.27465656 -3.010022 3.636057 2.1937687 -0.6403456 -1.9021925 -0.39351898 0.9178321 -3.9301684 -0.15386893 0.1765674 -1.8218143 -3.755887 6.2054706 -0.6761441 -2.676058 -3.6085336 -8.346758 1.8432333 -5.9718547 4.9906397 -3.030476 3.6880815 -6.5470695 -1.9481785 0.4783318 0.4600292 -2.0502357 -2.8557854 -0.19808258 2.7195363 1.0319442 -1.0066291 -4.357697 -0.7838582 4.549267 -4.4481907 2.9440405 -3.7127523 7.941237 1.2692635 -2.485001 2.4197755 1.7922384 -10.195482 -2.3580549
x_50_0 9.025737 -2.3607588 2.5719025 3.5008461 -10.505586 -2.7586422 4.060285 4.389704 2.8509123 -2.804728 -0.2862398 4.0711036 -1.8544469 5.844845 3.7543435 -6.130355 5.458368 -2.1958895 -1.7962005 -0.36418593 -2.277619 -2.503838 -4.5236316 -4.312023 8.686084 4.3499804 -3.490651 1.0199802 -1.0668657 -2.3150194 1.9871187 -3.798249 1.8009319 2.1459255 4.6499014 6.9734006 0.6266218 0.74895865 8.672831 -0.26780233 3.1601558 -4.4309263 -3.2061548 -6.5886016 -2.607951 5.0512385 3.803522 7.142561 1.8965676 2.805175 -1.4444245 -2.855639 -2.7282813 0.33069333 0.09960131 -1.6923597 5.423647 -0.76089203 1.0314211 0.5612223 -4.925165 -0.6192483 3.679868 0.8018201 1.5074023 -2.3868103 6.6457896 0.97187847 -1.5296439 2.6677742 -0.619561 -6.4702916 0.7880939 -3.2706344 -0.56919664 -3.6530843 -2.278845 1.6355604 5.6462216 3.741015 0.20793964 -0.8842359 0.9478204 2.2057343 1.6881083 -0.39138624 -10.136262 3.0382283 9.4441805 -0.49212712 -0.5263195 -7.064687 -1.1702138 -5.347311 1.2594085 1.6747706 6.6343756 -3.1568599 4.6654625 1.9958104
highestEdu_-999 0.18901265 -6.0665617 4.2325716 -0.42896825 -6.9637504 2.3082414 -4.0708323 6.201099 -4.001846 0.38568267 2.248514 -1.9834386 -1.0939703 -0.18976271 0.87117195 6.823441 5.6495004 -6.2739224 5.5284953 2.9430869 -3.0144982 0.11539628 -1.8430284 -5.685142 -7.5657225 0.86416143 3.630222 3.7078347 -2.2911117 1.5197748 1.4907005 -0.8525094 6.6475635 2.4725041 -6.7875915 0.9434399 1.2086649 5.974786 -2.8440487 11.271568 1.5470302 -0.1749404 -0.7709305 -0.6600961 0.15336591 -2.005791 -7.1455846 -0.83067924 -0.06249833 4.9022593 1.307924 1.651339 -2.2320986 4.435476 -1.1269658 2.1945791 -0.390967 -8.585526 5.2913613 -2.4858847 2.8032992 0.49953258 -1.3204565 -2.82033 -8.202022 1.773891 2.326822 4.20418 -5.705239 -5.4498963 0.013655594 -3.881869 -3.07825 -3.6047688 0.8044675 -1.8211021 3.3922403 -6.6191573 -1.6005595 0.11865877 4.7469144 -5.5923805 -0.98839223 0.9502399 7.250782 -2.8070428 6.1726375 1.028545 4.657503 -4.8498325 3.834111 -0.2754077 -3.0983024 -3.6710331 -4.2960114 0.62768275 0.7910268 2.0447512 -1.0756259 -9.469504
x_14_0 1.9696438 -0.2862843 1.0089136 -3.421369 1.7150209 -2.0118144 1.2949351 -0.5132265 -3.4702466 -4.6681113 -1.3090228 3.9063215 -5.270717 0.2698299 0.22368892 1.9539245 -3.5793815 4.4466357 2.0327613 -4.636937 -0.80997527 3.4281514 -6.2123227 -0.6832422 4.5299115 -2.2151382 -4.0955215 1.1524483 -2.4719722 1.5648736 -6.679584 5.6653943 -3.919005 5.032394 7.7934475 5.567452 -5.4350886 -6.184309 -5.123565 4.063845 0.83218175 2.4263308 0.5057752 5.409291 -2.2603989 -5.333947 -1.8845261 3.4526405 -2.0065715 -2.2271526 1.6952543 -3.7269566 4.843082 -1.6128981 0.35064337 7.9498367 -4.7789507 1.9718827 -2.5678005 -3.425444 3.3133156 -3.5741704 0.6139905 4.5406 -1.4246538 0.39909062 2.4517102 -5.717534 -6.626183 -0.16492313 -1.3349918 2.9406686 2.4378762 -11.976521 -3.117364 -1.7447934 -9.506906 0.19402277 -6.4727173 -3.781529 5.3767123 -4.110737 -3.5138164 8.457274 0.4936856 -7.2027755 -0.604266 3.5683656 -3.7177992 5.522815 0.584274 -0.5991716 -0.06585764 -2.30925 -5.587036 -5.974216 -0.2610248 6.448859 2.5308745 1.1095017
x_61_1 -0.09115243 -0.7718568 4.92459 8.299803 -1.7923048 -4.4798326 -0.9114163 2.9124296 2.4884007 0.067141384 -5.82774 2.3906894 1.6387837 -3.2358484 -1.6660717 1.5646769 -0.8705555 -2.077531 7.683693 3.391335 -7.0487776 -6.332886 5.6230764 2.2463489 -0.7002823 -6.4388947 -2.6896658 -6.128296 3.727503 -0.07190518 -3.9841793 -7.444439 3.7912707 6.2989826 9.57688 0.009790604 2.966087 -5.8539457 -4.352222 -4.8734074 0.4554701 -5.4748745 -0.025645826 -2.3829813 2.8670897 -1.7878107 -0.82991254 1.1674317 -1.7076359 5.137101 0.8540492 -0.40616772 3.8796623 -4.3536396 -0.5295633 -0.84452355 -2.208649 3.1610265 -0.721665 2.4864855 -0.98850965 0.018514577 1.6331451 3.914708 -0.82406276 -2.8471537 -0.07890889 3.9008381 7.147961 -1.500561 3.1052885 -0.33874306 12.223168 -0.48231828 1.2357186 0.98733807 4.825131 2.4774404 1.0405002 -2.124669 5.9840093 8.32299 -2.9034529 -5.070947 2.1050456 -1.4104223 -6.6218266 3.7068832 1.8420684 4.9240193 -3.7108893 2.5933952 -1.8087821 -1.8301941 4.377468 -3.5810711 -0.40953553 -10.657875 -9.2768 11.0349455
ncloseCreditCard_1 -7.1609693 2.1029286 -0.33177733 5.562055 4.538503 1.5626034 -1.4268763 -2.7078643 -4.1064234 -4.2654505 2.5108752 5.9414983 -0.3982388 5.3623185 -1.6543984 -1.062311 3.478626 -1.6621908 3.211345 -0.890046 1.7222918 1.8076545 -4.6810527 1.2826954 6.8592796 5.803283 1.565343 7.444934 -3.9754162 -5.9361205 -0.09890934 2.6868138 1.67757 -4.444502 1.0191603 0.63496584 2.9304142 -3.6113772 -0.18955354 4.0842743 -0.6655844 0.8230354 -0.6966322 0.8363164 -1.0563518 0.98435277 4.8948245 -0.853536 -6.410367 -3.7027748 -3.870044 1.1181575 4.2364135 -0.81407744 -6.107383 -3.8020701 2.0656686 5.502594 3.606318 -1.9914153 -13.146952 -0.8227353 2.9349706 0.981098 0.90639937 -3.3965836 -1.0653132 -5.490367 -0.75842285 4.185758 -4.490884 10.084733 6.300611 3.0429575 -2.2657967 1.5426848 4.2821746 -3.4241202 2.347501 2.651706 -4.8204236 2.0452383 8.553645 -0.5400511 -2.3652031 -6.614376 4.249707 4.495658 3.3328705 5.4838753 4.9047837 1.7329648 -1.7158859 0.10826532 6.9708056 5.369172 0.6887376 -5.8798714 0.6378897 0.84589636
x_66_0 -6.7016625 -3.676799 -4.3551702 -5.651598 -9.545609 1.9834064 -4.6489453 -1.4244432 1.4367511 -6.5346594 -1.4728174 -2.7044618 1.8890166 -3.0300257 -10.948906 2.3170958 1.7540371 -2.4733655 5.514824 -0.38080847 0.8804935 0.3082083 3.8471773 0.7720495 -3.2900143 -0.83421654 0.62666297 -6.709981 -4.7301183 3.939124 -7.790672 -6.0506096 -2.9922662 -4.3248014 -1.0182765 5.205205 -4.111718 4.6557055 0.6805292 -5.8343544 6.837427 0.11130684 -1.1967146 -2.1725042 4.269529 -6.7839017 -8.272833 -2.3300827 -1.2269648 3.8557427 -5.5757394 4.2511444 -4.662815 4.050441 -0.18486063 -0.09319005 4.998598 -0.14524771 1.7881066 7.1733484 -3.9348524 -7.1706843 -4.8209934 -7.6076555 5.9843326 5.500179 -1.3960207 1.62713 -3.6356773 -5.356326 -0.68887526 3.1997142 -4.9964814 -2.4581037 3.4792519 -5.3856673 3.7871146 3.177058 -0.8342839 -4.500086 -2.7139566 0.056202915 0.8386345 0.7352443 -2.0696988 -3.2954946 -0.8210942 0.9902454 2.1690845 -5.6322417 -1.611471 1.1201011 8.415968 3.1101975 -0.8450929 -2.3939931 -0.71448916 4.674808 0.13290708 5.2180777
x_25_0 -0.099391565 -2.1983137 -1.9379838 0.60458875 5.626283 9.183361 -0.57496405 2.2070858 -4.839685 -2.7473001 3.9070795 4.0442452 2.5002892 -9.358375 4.167372 -2.5831983 3.6703835 1.5687429 3.788263 0.14546277 2.556826 -2.0307026 0.40928474 -2.5537446 7.775117 -2.0494316 0.62157834 1.2948483 0.048240718 -0.16747706 0.5232815 -2.4371326 -2.6293972 4.007855 -7.1221437 -4.2138853 -0.4645779 -5.9394975 0.81938744 4.901605 0.49752206 2.556658 6.9368916 -0.6824434 -4.3222466 -0.13853134 -5.1971173 0.019969018 -0.0023190088 2.655674 2.3162653 -12.159703 2.440856 -6.279117 -2.6935155 -4.9326277 -6.885726 0.61006856 -2.3134804 5.2790036 -6.1086183 -3.3007755 2.0824232 -6.393746 -2.5094445 -0.8075768 7.9103327 0.20402192 3.413591 -4.2754655 -3.4658928 1.5950364 -3.4377825 6.651496 2.0864263 5.582786 -2.9399104 1.4421884 -10.321534 -7.6031504 -2.5644963 -0.15418087 -9.832268 -0.4265979 1.462675 -1.6273252 -1.2551996 6.754582 -0.3427183 0.89570475 5.1364746 0.628454 4.4979672 -7.858908 -0.03365594 1.8102049 -0.3433233 5.807082 -2.4766695 0.5787587
gender_2 -5.0233283 -3.5329003 0.76201427 3.4132495 -2.4126968 -4.4711604 -3.3870888 -1.7914944 3.0507746 1.6748639 0.37169218 -1.5038737 -0.53064615 -0.47204152 -1.1669466 3.4279165 -0.48004797 -0.12401049 -1.7924359 0.35692185 5.5608697 1.5448285 0.64060384 2.2677314 0.7305283 -3.6291165 0.05230639 3.8312795 -1.4776689 2.1097016 2.0749235 -1.6897159 1.1156411 -0.06286412 0.50168806 4.9193525 3.726069 1.5361545 3.9654086 -1.0786684 -5.2449064 0.7016844 0.4179141 -3.254906 4.753127 2.7900486 -1.5433291 -1.624641 2.758238 6.253971 -2.1062062 2.0455823 -0.891918 -0.38850653 0.98727274 -4.4143395 -3.1884782 7.063224 -3.4368389 2.3081536 0.77479887 4.565007 1.1464318 2.7914712 0.57438654 -1.3899479 0.6957894 3.932947 2.511004 3.2967808 1.8328052 -0.4145477 -3.2128322 0.48524278 -2.9769366 -2.9681044 -0.9714919 -2.2693284 -3.6609 1.3990728 -1.2904412 4.4921465 4.1488276 -2.0636966 3.3561254 1.1979576 2.0782156 2.6029918 0.12033813 -4.3768554 -1.0783588 -3.1907303 -0.6611284 1.0565971 6.7324004 5.693162 -1.8924776 0.2834212 0.23703448 -1.3322823
x_71_1 -5.6058803 1.9422221 -3.2069662 -6.6104813 -0.34021682 1.5449628 -0.9953384 -0.40011013 -1.1823949 -1.2489538 2.458287 4.6656437 7.9880157 0.18366717 2.5345743 -1.6035953 5.0870857 -6.4950857 -2.219075 2.3133788 -8.061605 -0.7245793 -7.4369583 1.4612412 3.4702268 4.1874895 5.7208548 -2.7731748 -1.9438193 13.48576 2.9762406 -3.639824 -2.6745472 -0.38113022 3.4964416 -3.6237435 2.0501184 -4.1147113 -6.0880823 1.6752609 -1.4753609 -1.3368287 2.058336 1.8866761 -0.7965939 1.9287535 -5.2721996 -4.829165 -3.371741 2.584816 -5.463558 5.38809 -8.513991 -5.696775 -3.4519799 -3.16063 -3.9530492 -3.5238523 6.0853157 -2.3453524 2.930174 3.9432006 -3.6727371 2.626943 1.741245 -2.3222609 -9.599967 2.7414372 6.174523 1.585959 3.8652213 -4.144745 -0.6779766 -7.819083 4.6744037 -2.0673795 10.009802 -1.0850573 -6.427008 -2.3174717 1.3859016 2.0336554 -8.771271 1.7617313 -0.38417915 -0.47608432 -5.5888767 -2.3699548 -0.17069115 -0.20200844 -4.9551363 2.8305275 -2.427625 7.8818374 -2.3158865 2.4113407 -3.1324604 -0.54891175 -6.809056 -6.1437216
x_75_0 -9.436031 -1.8709458 2.2943757 5.2037377 -0.9456273 0.32303953 -5.565992 -2.9052918 -6.20603 2.5776982 0.38997978 1.4476502 5.610282 -1.5843741 2.0813684 -0.53463376 9.914359 4.4551497 -4.220038 4.744169 -2.2193866 12.555876 -2.500571 -5.806756 4.3363123 1.232201 -1.592681 -2.7333953 3.458199 -1.1054063 -2.896111 4.5734115 -10.513795 -7.2405233 3.8483841 5.0803094 -3.6870809 -0.33214763 -0.44577074 -7.8973417 5.102979 -4.240932 -1.3719903 5.7932825 0.17050128 -2.9459393 -1.2960149 -1.4335369 4.3624387 -3.1473517 -3.5342996 -0.36921427 -3.8768659 -2.1594648 -2.069195 -5.5141587 -4.609164 3.2457516 -6.5573173 -3.5544462 -0.6491791 -6.703534 -5.541222 -5.7029214 0.44764695 -3.364059 -7.992947 0.56283665 -6.5119443 4.2711086 1.2411959 0.40479556 -2.4393818 0.34999856 -1.4475279 1.1549677 8.12301 -1.814383 2.1904984 7.9914546 -2.0137115 -2.6377933 -2.7201056 -1.6485156 5.367594 -2.112149 2.613272 -0.05318179 0.32283852 -1.7793823 -3.8810318 1.5438166 3.5270898 -1.6061693 5.0336905 -6.7885003 -2.558987 -2.333348 -7.39782 -8.604938
x_51_1 8.118433 -1.6792144 10.260703 2.064135 3.1973634 5.9948754 9.689648 6.6494 4.2683434 -1.4210694 -4.1664577 6.665392 -3.0655324 0.07985831 -5.5088134 -1.1162975 0.14940995 -3.774137 -7.5959845 2.2705297 -1.4251852 -9.12488 0.31791013 -5.0140004 -10.083293 2.086939 3.7461743 2.6786652 3.1055515 -0.25947434 -8.705488 -4.7788033 2.3681395 -3.013275 3.766723 7.2823796 -1.4941933 0.862017 5.4427743 -1.8961595 -5.494643 -0.9962788 0.46119583 -1.1628062 3.6069067 4.1602087 4.8711414 0.7744892 1.7785213 3.7554028 -2.5627875 -3.594343 7.230782 -3.3366714 -2.5327654 -1.4293499 2.0799015 -1.1886547 1.5875901 1.5093739 -4.1117654 -1.6359661 4.6106644 -4.84928 3.190263 -1.357705 1.6635773 -9.108219 0.70052385 6.812964 1.8130028 -2.4280164 0.8407212 -0.3364928 2.7413566 -2.2032363 1.2755444 -1.8216465 3.978971 2.3534017 -0.5727207 -0.8685031 1.2715563 3.3736434 6.019878 0.5799611 -2.5741003 7.51794 0.3768341 -5.0645123 3.6921015 -2.822336 -3.0190234 -2.6143165 5.008127 -2.2724822 4.990867 4.8649793 2.2176945 1.3351859
x_63_0 1.2353832 3.9007654 7.106405 -5.0761843 -0.6336961 -3.1027324 -0.27145997 3.451702 -7.786245 -2.2126355 -3.5415251 -4.980164 0.45928857 -1.3064959 -7.762813 3.0532875 5.168232 -2.0224884 4.369083 7.2075486 -1.4170237 1.5642712 -2.6084127 1.2872047 -0.5871102 -2.607546 -7.7650523 0.6319155 3.7557461 0.3709139 3.303072 -8.188499 -1.3840221 3.6426206 -6.195515 1.2335241 1.007399 -0.29697952 1.8278878 -7.8364344 0.25006136 -4.6007123 -5.854214 5.0560136 3.945439 5.1112604 7.590755 6.312427 -1.1420753 -4.909692 -5.2577844 1.3905835 7.170569 1.7422401 -8.925691 -0.38473564 -0.20660022 1.4295195 -0.3718994 5.437302 4.302676 -0.13315867 -1.9526458 2.8525164 -0.19831698 0.8652439 -1.2299935 5.534139 -4.596374 0.7041977 3.253093 -5.0547423 -0.948402 -2.0961676 2.6112134 -0.16085722 -0.30592576 8.613889 -9.251197 -2.24758 2.0501854 -4.286743 -2.2741532 0.05718094 -0.5322907 -1.9717453 -1.8679428 0.88452244 6.3786554 -2.9609516 -1.3371373 8.625258 9.292087 4.4520707 10.364133 1.565105 5.144616 -5.044188 -5.318041 4.9873657
x_62_1 -0.0598063 -0.023652889 7.3156295 -2.4753022 5.354921 -7.729216 2.6034837 3.6935632 2.1371574 1.860523 -1.5719244 -0.6289193 5.5422616 -7.870437 -1.1621915 -2.466869 -3.3971837 3.2981343 2.0900342 -9.027269 -4.467132 -0.51270974 0.053807925 4.496129 3.8044348 -2.7900662 3.737562 -2.1907344 2.1892526 0.14537 0.16524881 -4.7663527 9.370756 6.045316 4.148389 3.1714547 3.6779704 1.6508411 6.284326 -1.4334972 -1.382336 -6.528708 -4.808886 3.810314 1.7712257 4.4781346 2.32272 -1.7140673 -7.3885837 -1.8098724 -1.9231031 2.754399 9.112959 1.2493848 -3.702207 0.28818545 -4.399366 2.0952284 -1.2992857 3.8496273 5.1630955 -9.715632 -5.653478 2.4179177 2.6226768 -2.3451626 -2.2732341 1.764617 1.6316438 0.040806636 -2.3429046 -0.7455541 1.4363402 -2.4197626 1.9712422 -5.3939734 7.317486 -1.7252715 3.9932756 -3.144436 -0.6577291 7.49359 -9.274651 -3.8343563 1.0242479 3.1314774 -1.8972737 5.8751006 9.469161 0.8167196 0.99307716 1.124848 1.0349604 -5.2357435 2.4240384 -4.751409 -2.930751 -8.787728 -10.179663 9.179205
x_52_1 7.5522966 -16.24042 5.3935704 6.529369 1.9065937 -0.8122137 9.521699 1.5844659 -8.818149 -0.4545318 -0.69023365 1.6981728 -7.0471354 1.1856899 -2.864534 3.8964236 5.3638706 0.5194237 0.88127327 -2.9656258 0.9424748 -9.047064 -4.296858 0.02863492 -2.2258117 1.4957871 -4.238823 3.0208719 7.759529 3.280384 1.3562459 7.0252724 4.989356 7.1694655 -2.005602 5.013013 -4.1925335 -1.0076436 -1.3321646 -3.5557613 1.2061126 1.4012597 2.9142756 -2.5075374 1.6249179 -1.9960157 7.4227486 -0.084904365 -3.652339 4.9614806 -2.6689131 -5.23506 -2.8230872 -3.679393 4.317005 -2.9151902 3.9122882 -6.8322206 2.20915 9.156332 1.3031148 3.8482735 -0.7615574 1.911709 6.170266 0.33169064 5.604002 -3.3052263 -2.7109027 4.972313 0.2570201 2.9915977 -3.4822319 2.1390886 3.6559196 -2.460946 1.9894259 4.09321 4.179911 1.904037 -5.98494 0.25610822 6.9947133 -2.1583617 -10.180347 2.7589056 -1.4304751 -0.3579956 6.003092 -0.25119415 0.5070998 -0.11748015 0.30302247 1.5871879 7.0709977 2.587182 2.6922727 2.682586 6.686718 2.3221025
x_67_1 -6.242778 -2.9549713 -3.1849656 -5.5230155 -1.082152 2.5874395 -3.8316283 -2.5661604 4.6476984 2.1862347 -4.826812 1.0077853 -0.18256813 -1.8206017 2.5103297 6.8320837 2.517777 -4.743551 -0.8737811 -3.1611717 0.23868361 1.9052447 -0.41338748 6.9715753 -11.94002 3.6930742 4.6443005 -6.5029945 -2.5187557 3.776516 1.6536016 -3.393414 -2.704475 3.890348 -2.498335 4.1892004 -13.096789 2.0756032 -4.3189497 3.473226 15.7139635 -2.8461716 -2.8312204 3.5490727 -0.12162659 6.70974 -4.64442 4.5008087 -7.132174 4.6435184 -7.565359 -4.3632407 -3.1358457 -4.154406 0.9721273 -5.2797647 -4.2176833 -0.017480318 4.1444645 -2.741228 -4.609537 -4.589416 -1.8714317 0.46682468 3.220565 3.9678304 -3.804417 3.287593 0.8854311 -12.008072 4.9850655 1.8248574 -2.116449 -2.2923396 -1.2430553 2.4519963 2.104089 -0.7815764 -2.5165308 4.866185 -1.5020982 -1.7925497 1.8731775 5.1697755 4.419493 3.2410078 -1.4936063 -2.7772324 -3.229728 -6.130464 -3.0455375 3.8967586 0.8299222 5.6070585 -0.83710265 7.000486 -6.943095 -0.55825347 2.625481 4.5149355
isNew_0 4.290443 -10.714761 -0.7306581 -2.8526506 -4.3155813 -5.275172 -2.3907278 2.417321 -1.7421851 0.12156223 1.8189923 -6.9345293 -0.85622674 -1.2381936 -6.6532454 -3.0404358 -10.792478 -1.3018438 4.644167 -3.0894594 -0.09272317 -4.116079 1.031591 1.6775215 -0.123133175 -2.6481752 2.0331352 -1.2800757 -1.9128648 -10.468126 -1.2243395 -0.5713107 -3.9543447 4.0058765 1.1744577 -3.4173512 10.676842 -3.600203 -5.1521115 6.53628 -3.9542098 -0.87880117 1.4186511 -1.4282149 -0.18438482 4.5787 8.451033 3.1960077 2.6455104 5.152665 -5.9600267 -1.8771694 2.3176403 -0.9726669 -5.514866 2.6922762 -0.4900071 -6.250455 -0.5567918 8.334584 1.0461862 -6.0937295 8.346002 0.5585099 -3.723898 4.072984 -0.06303425 1.9795452 -7.7116857 -5.4212193 -6.972237 -5.938138 -0.71279216 6.3212295 -5.6694326 -7.0325046 -2.9851475 -0.7349222 4.972398 -1.0874231 3.9384015 -2.3301413 7.967962 -0.48989743 1.0665271 -1.4128792 0.9635891 7.83932 -5.6370707 -5.214314 -0.06839862 3.644076 -5.1610293 1.217372 -7.669175 2.5478342 2.0713694 -1.6146448 -1.9621948 -0.55246615
x_65_0 -0.8587509 1.526277 0.99218005 2.6363664 0.32987103 1.5756588 -2.8076332 -5.3464556 -2.2967057 -4.9425054 -6.0694366 -4.560661 8.081618 -8.241559 -7.850231 7.752143 2.6085582 -1.8138151 3.4855068 5.7613363 2.1259766 -0.023202812 -0.20640232 6.2446017 -0.86557 0.4208783 -3.7590349 -0.080534585 -0.6922498 5.53547 -6.0217605 2.903969 -2.5003698 -4.4274707 -4.2764473 5.4393344 -1.7273595 -1.1746639 4.776874 -0.50010055 10.7494755 -5.9480247 -3.2648013 -1.2143555 -0.20537183 -2.7985723 -4.1489053 9.29647 -0.8680304 0.8633121 0.445693 -2.5092225 -1.0437704 6.1786904 -1.9147686 6.8499017 3.1562898 -3.2082143 -0.45422685 0.8266161 -0.38649705 -2.8108575 -3.7454884 -6.606506 1.1988059 0.6806997 -0.6792359 -3.0075967 -0.31687862 -0.80842286 -6.4924016 -0.4563455 -4.1279163 -6.0739985 8.583449 -5.7460403 4.897391 7.980397 5.82107 0.8204646 -5.1693687 -8.064257 -4.9905148 -2.5608816 -7.533328 -0.65032125 -0.28730515 3.899579 -8.166312 -7.8145356 -6.3760223 -4.823002 1.9602644 0.6873109 2.470503 11.446466 -5.5509157 -4.782171 -3.5762773 -0.2523037
x_46_1 -0.8202873 -7.6505003 1.695206 1.6203756 6.7081656 -1.3757616 -4.0354104 4.509628 8.010936 3.49418 -1.9642833 6.9296937 -2.186541 2.7656074 1.7856828 -8.634959 3.1827505 -1.664372 0.5434221 -2.5947394 6.7470937 -0.28981373 0.77713525 -5.013873 -2.1773808 6.659132 -4.522276 6.0233064 -1.9473623 1.5875636 2.6282976 -2.4072537 -2.7299209 1.9554074 14.67472 -9.322907 -1.1003135 1.0770279 -9.368907 -12.0502825 -4.2386203 2.1622145 -5.211189 -2.3031402 -3.4844477 4.601426 -5.148647 -1.2815102 0.68693215 -3.9048963 -5.2469897 8.513994 -0.46555942 5.945365 -2.0547483 9.60489 3.424338 -0.29282546 2.6247466 -4.946421 4.336501 3.5039737 3.2685513 -0.63372386 -3.8828743 -10.193794 9.240345 6.894775 -6.759343 2.16024 0.15263866 -1.3649172 1.845393 2.093792 -3.0217779 0.48644978 -2.0158575 3.2384434 6.553439 7.1327085 -3.2327032 -3.8572671 2.9164932 -5.0655994 1.2281817 3.8235235 -8.710908 -2.2198596 -2.2839036 -2.6125693 9.118228 -5.4213257 1.7271711 -5.8622184 -0.1321001 0.2847745 0.14267217 -2.5697563 6.2725406 -8.124517
loanProduct_2 -8.2826395 -3.891676 1.1173607 5.4397593 -1.4423728 -3.4300854 -7.616597 1.0490465 0.40676454 -0.6083474 -0.34077507 -3.5760825 2.5694098 -2.4972985 2.5834842 3.0564587 -3.0282583 -3.176868 -1.7144185 0.5670904 4.5361295 1.6682544 3.7530499 -1.5330905 4.6309857 -9.116125 -0.3697517 0.3551225 -1.5485678 5.297228 5.5568275 -3.5919487 2.8874965 0.6068367 2.4190686 7.7506185 1.9144382 4.781994 3.0304482 -2.602015 -5.31628 3.8772502 0.48828077 -4.2025523 4.2605424 6.5696445 0.40479964 -3.7232766 3.2650354 13.45536 -3.5222256 1.2111812 3.7129257 -2.1490047 0.088503316 -7.4262657 7.327555e-05 10.514208 -5.764484 2.8011515 1.7566077 6.4368405 0.54379576 1.9584547 -1.2933277 -1.4104867 3.5340722 3.7286153 -0.02068764 4.362738 -3.5453653 3.5328596 -4.5990434 2.6972656 -3.7726827 -4.795559 2.7019436 -1.4437579 -7.1003237 3.5974786 -2.9887903 1.2718939 5.4647985 -0.9050678 5.0517793 0.84568065 3.3102908 3.0755336 1.3017645 -11.333702 -4.206957 -0.44401696 -3.4407942 -0.14532916 6.6705894 12.087245 -4.031298 2.1795225 -1.114392 -0.9821363
x_46_0 -3.1346762 1.1155908 -4.159077 3.0731049 2.1140242 3.894908 -0.74766403 0.18932207 3.7278597 5.2377253 -3.6899016 4.240596 -1.4718913 0.8808808 -0.09414837 -0.7815806 4.9396243 2.6426098 0.7851739 1.105267 3.8071113 -2.486708 -2.1677592 -0.16757849 5.5133452 6.160628 -0.4780272 4.2249246 -2.3025966 -3.196756 4.1776805 -1.3042841 1.0405595 4.913396 11.697709 -9.755402 -1.9779315 1.5979561 -2.2022302 -11.103173 -4.459824 2.0791295 -5.772957 -4.8533163 -1.7816525 5.4435854 -3.8077288 -1.6904227 -0.6972579 3.4620354 -0.038933214 2.1157572 4.6433673 3.3784034 -4.140334 1.1872339 -2.8151505 -1.461545 2.7146683 0.4045661 -0.88726664 -0.32441494 -6.2595153 -2.8557346 -9.337324 3.0302122 1.9489383 1.8442134 -4.0375752 -0.044173423 3.0769372 0.65026784 3.6292381 2.5682635 -3.8063254 -5.362933 -3.9675775 -1.339584 0.28788683 4.9797444 0.09782901 1.0937161 4.6198316 -2.8133729 -3.0824475 5.8377495 -2.9641976 -2.3733199 -3.1152515 -2.2703366 -1.0655304 -7.9444385 -0.6189374 0.33116087 -6.7132096 -2.1738174 6.3058276 0.7782798 3.0294452 -9.951001
x_65_1 -1.1938258 2.3034968 1.2060962 4.75001 1.3137021 0.3612376 -0.120410495 -9.109138 -3.14548 0.48958397 -7.368693 -0.18931589 7.866646 -5.6639495 -3.768889 7.0569224 -1.2287395 -1.2692264 1.2813424 1.4433774 -1.2604374 -2.285261 2.457528 2.2897704 -3.6772888 -0.7456845 -3.1728625 0.05946111 -1.5105746 3.3750286 -6.557125 1.0582608 -1.4936024 -0.7703861 -4.0494165 6.2064743 0.4012726 1.7811297 3.6726277 -0.09807543 6.6846466 -9.416985 -6.1480885 -1.8785115 1.6741363 -2.470851 -6.4606757 10.803308 1.0182414 -0.40334907 1.2037307 -6.2451653 6.1150155 3.2410865 -2.1926126 5.7602563 2.093422 -2.2210891 -1.7123916 1.7893251 1.4395275 -3.011117 -1.9228481 -4.401065 2.7137725 -1.4098537 -3.050756 -0.9539623 1.5117058 0.70377654 -5.1750073 -3.9088707 -4.4546037 -6.9570584 7.668053 -6.5635014 4.84766 10.301732 2.1857302 4.962371 -1.8586279 -2.2574217 -6.012915 -7.584532 -4.990305 -0.53828067 0.07849076 2.9191594 -9.256922 -7.9467273 -6.602824 -2.5473332 0.6433451 -0.9429119 4.945101 8.701697 -5.8194284 -4.7306004 -6.4250937 2.112438
isNew_1 5.138937 -9.965368 -1.5363625 -2.580902 -3.3677285 -6.000769 -2.6298501 1.9962555 -0.68842477 -0.523301 2.1620147 -6.4714913 -1.2288157 -0.9688058 -6.0063357 -3.3327076 -10.471006 -0.77686274 5.2584505 -3.4403615 0.18319 -3.4510021 0.3609761 1.6614991 -1.7581666 -3.511315 1.9248607 -1.180951 -2.3354914 -11.039921 -1.2378935 -0.16773485 -3.961583 3.4786775 0.24469478 -3.539345 10.702845 -4.125081 -5.3193803 6.1319113 -3.196529 -1.4027715 1.8037823 -0.39080578 -0.65085185 3.9794052 7.484936 2.032481 2.0582926 4.761703 -5.37079 -1.9506931 2.2258792 -0.9264659 -5.3595953 3.0826693 -0.48372376 -6.18941 0.12061379 8.793428 0.5061569 -5.8815546 8.154394 -0.5000232 -4.038615 4.4279366 -0.9525315 1.6971738 -8.426706 -4.9736214 -5.899914 -6.002176 0.3452626 6.567827 -6.301114 -7.7413864 -3.5157876 -0.2761859 4.6040053 -1.180481 3.5449693 -2.0473244 7.2786307 -1.3961768 0.97519237 -0.5207448 1.1425682 8.95625 -5.222349 -5.1875143 0.39681035 3.8613775 -4.3876524 1.8884474 -7.049105 3.035349 1.457894 -2.2565916 -2.2544363 0.112724364
dist_last2_0 -1.7376812 -5.2043185 -5.423081 -2.6186006 0.8389368 3.1680503 -0.44942003 0.033388797 -0.5513313 3.6558247 0.7825151 6.1057034 0.44960493 0.9297835 -1.6645404 -6.1391554 5.6072745 1.5725939 3.679205 -2.9825969 -4.8486266 -1.3652743 -4.0525656 5.6129246 -3.3366368 -6.75985 -2.4950893 -2.015565 -1.2674298 -7.71697 -6.2676754 6.915791 -9.838827 -6.5729184 -2.366424 0.34723312 1.9884279 -2.4738705 -2.2753327 -4.801125 -1.8844931 2.2369325 -3.174391 1.0377789 -4.019796 10.68625 10.1627 -2.4183521 5.940029 8.542183 -10.006334 0.2813749 -10.402292 -6.7787285 4.293574 0.041690633 1.3498617 -7.610567 -7.1155987 9.228644 7.380584 -8.133025 8.17747 -0.28953698 -6.0907354 4.2770553 0.6419373 4.4138565 -5.4279313 1.4719622 1.0344763 -6.168259 3.1106117 -3.5170305 -2.8211627 -2.0808322 1.1135216 -0.50633126 6.5319786 -1.170011 6.3602834 -1.6441164 -4.328094 1.1567943 1.567627 0.15385295 1.4846115 3.5086858 -6.0732517 -5.7709546 0.52199066 -0.92949724 -6.616177 5.3587923 -0.7932213 -5.1825113 -5.869969 -2.4071295 -7.907901 2.4707367
x_67_0 -5.583398 -3.201002 -1.5244197 -2.7864385 -3.2774277 4.7573867 -4.3391795 -4.6137958 3.429695 1.3538904 -2.0602524 -0.7505942 -1.7808975 -2.8277671 -0.043903094 6.6698847 2.7388926 -6.766098 0.19439311 -5.6512303 -1.8845651 3.8841162 3.2864237 4.1757836 -11.657747 3.6128724 2.9698331 -7.0032277 0.77225864 2.348995 0.3718273 -3.5952637 -2.4674652 6.2357607 -4.251909 -0.4353354 -8.986673 2.2553275 -1.5264428 3.5608358 15.497451 -1.3954495 -2.334291 6.631317 2.0746617 7.9692163 -3.5103106 7.102015 -5.965546 3.9139135 -6.050993 -3.497006 -4.1070714 -2.2405934 -1.2627525 -0.51484036 -2.219815 4.5861397 -1.4375812 -1.2886201 -4.6374097 -5.048443 -2.4812698 -0.6548596 1.5135523 2.599743 -6.6379943 3.224921 -0.90332127 -10.690839 4.7348824 2.6783032 -1.5482347 1.2384907 0.036870733 0.8552092 0.29196066 -1.8451961 -0.21164212 5.750576 -0.97056514 -0.74076897 1.1011065 8.209678 1.5580877 3.4678168 -4.172028 -1.0939598 -4.587449 -4.2958655 -4.1796665 1.6772741 1.5029707 2.175224 0.23106536 6.6218486 -5.639832 -0.46498305 5.4317446 4.696464
job_16 2.5925426 2.3262093 -1.3704145 -0.016241226 -2.7967389 0.757917 1.7745864 -7.5998125 3.3996327 4.0861487 2.2768674 -3.807597 -1.3005277 1.1242385 -1.95041 1.9402958 1.4486527 -0.015139963 1.655897 -1.8506558 3.345111 -1.1493957 -1.161704 0.10157912 2.3427534 6.1446614 4.3687325 -5.4331155 4.2794995 -5.956493 -8.044441 -2.313453 1.1964103 -3.4282427 -6.5088677 2.1392882 3.286185 0.9531281 -4.5103674 -2.0804615 -1.7465105 2.3830044 -1.233343 3.7982223 6.2294436 -1.6840909 4.208164 2.6202085 -0.5071513 0.074491516 -2.1138482 2.50073 -3.2368371 -1.4602451 4.607324 1.1078904 -7.464465 3.8568332 3.444078 1.3318816 3.5839694 0.8555376 2.3498993 1.7231269 1.1769154 -4.6324 -0.9597865 -0.07589839 -0.061018348 4.5675063 3.092461 -3.3451262 -3.4637573 -4.305199 -0.18245023 1.1076984 -2.572302 -1.525814 4.37805 -2.0534806 8.329687 4.0176477 5.78355 -1.6757158 -0.8212208 0.6005128 3.8722146 -1.083307 0.53844416 3.0846448 2.9531684 -7.9353223 4.762463 0.8097513 0.9823343 1.6699973 -1.4939575 -4.0216284 -0.5047103 -3.899754
residentAddr_first2_-999 -1.6340522 -2.809804 2.3442748 -3.9721835 2.5272028 -11.507806 0.17904468 -1.4056845 6.038149 6.772616 -7.357517 -2.5317438 2.1149392 -0.67725104 0.7357796 -6.3923397 5.358356 0.62387747 -3.3883822 -1.4619908 4.6071954 -1.8603017 -6.065683 -0.037901856 -2.4636624 1.6913035 -3.3231921 7.889483 8.855718 -1.6934848 -6.8217463 2.0368958 -9.498962 5.752265 -11.978363 0.21093367 6.60635 -0.99638605 2.606469 -4.728109 1.2938186 5.96156 -3.5941472 0.57500327 -7.574326 -4.3304324 -5.191221 -2.3510692 -2.074058 2.431868 2.5940387 -0.70072955 -4.230799 0.77531785 -1.2952257 -1.9304957 -1.774181 -5.9212637 4.7222624 1.9799229 -8.453471 0.9192864 9.149334 -11.598252 2.9997435 0.8482503 -6.036247 -2.6108942 -4.878142 -0.80829626 4.743985 -4.45953 5.8146334 -4.904626 2.7554233 1.5691639 -3.0606787 -7.7519555 0.2583109 -1.7044833 10.586343 1.1463109 -0.8025465 4.445763 -4.80363 4.332618 -1.9746884 -3.439289 -1.3437662 3.1102037 -0.5091377 -0.976949 -2.063992 -1.4909544 5.175552 -1.987372 -5.757297 -4.307544 -4.3337507 2.1929867
